{"learner":{"attributes":{},"feature_names":["Pregnancies","Glucose","BloodPressure","SkinThickness","Insulin","BMI","DiabetesPedigreeFunction","Age"],"feature_types":[],"gradient_booster":{"model":{"gbtree_model_param":{"num_parallel_tree":"1","num_trees":"35"},"iteration_indptr":[0,1,2,3,4,5,6,7,8,9,10,11,12,13,14,15,16,17,18,19,20,21,22,23,24,25,26,27,28,29,30,31,32,33,34,35],"tree_info":[0,0,0,0,0,0,0,0,0,0,0,0,0,0,0,0,0,0,0,0,0,0,0,0,0,0,0,0,0,0,0,0,0,0,0],"trees":[{"base_weights":[-2.7264414E-2,-8.8782114E-1,6.487908E-1,-1.0917901E-1,-1.7967712E-2,-6.8626076E-2,1.1720937E0,-4.9154036E-2,3.4776013E-2,3.1954538E-2,1.527136E-1],"categories":[],"categories_nodes":[],"categories_segments":[],"categories_sizes":[],"default_left":[0,0,0,0,0,0,0,0,0,0,0],"id":0,"left_children":[1,3,5,-1,-1,7,9,-1,-1,-1,-1],"loss_changes":[1.6629505E1,1.6183386E0,6.0989513E0,0E0,0E0,1.5279673E0,2.3345852E0,0E0,0E0,0E0,0E0],"parents":[2147483647,0,0,1,1,2,2,5,5,6,6],"right_children":[2,4,6,-1,-1,8,10,-1,-1,-1,-1],"split_conditions":[1.1E2,5.36E-1,4E0,-1.0917901E-1,-1.7967712E-2,5.42E-1,3E1,-4.9154036E-2,3.4776013E-2,3.1954538E-2,1.527136E-1],"split_indices":[1,6,0,0,0,6,5,0,0,0,0],"split_type":[0,0,0,0,0,0,0,0,0,0,0],"sum_hessian":[2.6593569E1,1.1562421E1,1.5031148E1,8.556191E0,3.0062294E0,6.7062044E0,8.324944E0,3.237478E0,3.4687264E0,3.0062294E0,5.3187137E0],"tree_param":{"num_deleted":"0","num_feature":"8","num_nodes":"11","size_leaf_vector":"1"}},{"base_weights":[1.23400144E-1,-6.11298E-1,4.896555E-1,-1.0618116E-1,-9.580108E-3,1.103485E-1,1.376447E-1,-1.2387561E-1,7.8547396E-2,1.3141279E-2,-4.2344835E-2],"categories":[],"categories_nodes":[],"categories_segments":[],"categories_sizes":[],"default_left":[0,0,0,0,0,0,0,0,0,0,0],"id":1,"left_children":[1,3,5,-1,-1,7,-1,9,-1,-1,-1],"loss_changes":[8.152156E0,2.2562332E0,6.5855436E0,0E0,0E0,2.487677E0,0E0,9.8000205E-1,0E0,0E0,0E0],"parents":[2147483647,0,0,1,1,2,2,5,5,7,7],"right_children":[2,4,6,-1,-1,8,-1,10,-1,-1,-1],"split_conditions":[2.99E1,2.9E1,7.42E-1,-1.0618116E-1,-9.580108E-3,4.07E1,1.376447E-1,3.58E1,7.8547396E-2,1.3141279E-2,-4.2344835E-2],"split_indices":[5,7,6,0,0,5,0,5,0,0,0],"split_type":[0,0,0,0,0,0,0,0,0,0,0],"sum_hessian":[2.8183224E1,9.153169E0,1.9030054E1,4.3189135E0,4.8342557E0,1.4116462E1,4.9135933E0,1.1086641E1,3.0298204E0,6.2888083E0,4.7978325E0],"tree_param":{"num_deleted":"0","num_feature":"8","num_nodes":"11","size_leaf_vector":"1"}},{"base_weights":[-1.23963365E-2,-2.4350664E-1,1.4148189E-1,-5.288856E-1,9.437042E-2,-7.8359467E-1,3.1233057E-2,-9.6699625E-2,-4.3365702E-2],"categories":[],"categories_nodes":[],"categories_segments":[],"categories_sizes":[],"default_left":[0,0,0,0,0,0,0,0,0],"id":2,"left_children":[1,3,-1,5,-1,7,-1,-1,-1],"loss_changes":[9.7236395E0,9.079472E0,0E0,4.7568083E0,0E0,6.363411E-1,0E0,0E0,0E0],"parents":[2147483647,0,0,1,1,3,3,5,5],"right_children":[2,4,-1,6,-1,8,-1,-1,-1],"split_conditions":[4.18E1,7.71E-1,1.4148189E-1,8E0,9.437042E-2,4E0,3.1233057E-2,-9.6699625E-2,-4.3365702E-2],"split_indices":[5,6,0,0,0,0,0,0,0],"split_type":[0,0,0,0,0,0,0,0,0],"sum_hessian":[2.7435013E1,2.4325367E1,3.1096458E0,2.0058311E1,4.2670555E0,1.5449043E1,4.609268E0,8.979544E0,6.469499E0],"tree_param":{"num_deleted":"0","num_feature":"8","num_nodes":"9","size_leaf_vector":"1"}},{"base_weights":[-4.4907182E-2,-8.144296E-1,4.6781707E-1,-1.0166881E-1,-2.5178423E-2,-3.007687E-2,6.923513E-1,-3.965402E-3,1.0095745E0,1.5398736E-1,-2.7128777E-3],"categories":[],"categories_nodes":[],"categories_segments":[],"categories_sizes":[],"default_left":[0,0,0,0,0,0,0,0,0,0,0],"id":3,"left_children":[1,3,5,-1,-1,-1,7,-1,9,-1,-1],"loss_changes":[1.0787565E1,9.857397E-1,3.0495095E0,0E0,0E0,0E0,3.0691047E0,0E0,5.065774E0,0E0,0E0],"parents":[2147483647,0,0,1,1,2,2,6,6,8,8],"right_children":[2,4,6,-1,-1,-1,8,-1,10,-1,-1],"split_conditions":[1.09E2,5.36E-1,3E1,-1.0166881E-1,-2.5178423E-2,-3.007687E-2,3E1,-3.965402E-3,4.5E1,1.5398736E-1,-2.7128777E-3],"split_indices":[1,6,3,0,0,0,7,0,7,0,0],"split_type":[0,0,0,0,0,0,0,0,0,0,0],"sum_hessian":[2.5375584E1,9.911488E0,1.5464096E1,6.697063E0,3.2144246E0,3.4195108E0,1.2044585E1,3.9061E0,8.138486E0,5.063186E0,3.0752993E0],"tree_param":{"num_deleted":"0","num_feature":"8","num_nodes":"11","size_leaf_vector":"1"}},{"base_weights":[-1.3404038E-2,-8.45692E-1,4.3072194E-1,-3.8538758E-2,-1.06511176E-1,-4.5001846E-2,6.284512E-1,1.0071307E0,2.5442493E-1,1.5585E-1,2.6356844E-2,-5.712194E-2,7.753996E-2],"categories":[],"categories_nodes":[],"categories_segments":[],"categories_sizes":[],"default_left":[0,0,0,0,0,0,0,0,0,0,0,0,0],"id":4,"left_children":[1,3,5,-1,-1,-1,7,9,11,-1,-1,-1,-1],"loss_changes":[1.1057577E1,6.402445E-1,3.6831853E0,0E0,0E0,0E0,2.0613685E0,2.7841682E0,4.559424E0,0E0,0E0,0E0,0E0],"parents":[2147483647,0,0,1,1,2,2,6,6,7,7,8,8],"right_children":[2,4,6,-1,-1,-1,8,10,12,-1,-1,-1,-1],"split_conditions":[1.04E2,9.2E1,2.73E1,-3.8538758E-2,-1.06511176E-1,-4.5001846E-2,3.37E1,1.35E2,1.31E2,1.5585E-1,2.6356844E-2,-5.712194E-2,7.753996E-2],"split_indices":[1,4,5,0,0,0,5,1,1,0,0,0,0],"split_type":[0,0,0,0,0,0,0,0,0,0,0,0,0],"sum_hessian":[2.7928957E1,9.403227E0,1.852573E1,3.925212E0,5.478015E0,3.1626208E0,1.536311E1,6.792963E0,8.570147E0,3.271257E0,3.521706E0,3.2782729E0,5.2918735E0],"tree_param":{"num_deleted":"0","num_feature":"8","num_nodes":"13","size_leaf_vector":"1"}},{"base_weights":[-1.4037374E-1,-2.9486465E-1,7.871686E-2,-8.18167E-2,-9.725033E-2,-2.943776E-1,6.631889E-2,-7.020326E-2,-6.420146E-3],"categories":[],"categories_nodes":[],"categories_segments":[],"categories_sizes":[],"default_left":[0,0,0,0,0,0,0,0,0],"id":5,"left_children":[1,3,-1,-1,5,7,-1,-1,-1],"loss_changes":[4.4303946E0,2.5928295E0,0E0,0E0,3.1773095E0,1.5022858E0,0E0,0E0,0E0],"parents":[2147483647,0,0,1,1,4,4,5,5],"right_children":[2,4,-1,-1,6,8,-1,-1,-1],"split_conditions":[4.18E1,1.26E2,7.871686E-2,-8.18167E-2,7.22E-1,2.9E1,6.631889E-2,-7.020326E-2,-6.420146E-3],"split_indices":[5,4,0,0,6,7,0,0,0],"split_type":[0,0,0,0,0,0,0,0,0],"sum_hessian":[2.8297823E1,2.4842218E1,3.4556046E0,5.9488506E0,1.8893368E1,1.5490642E1,3.4027257E0,4.850374E0,1.0640267E1],"tree_param":{"num_deleted":"0","num_feature":"8","num_nodes":"9","size_leaf_vector":"1"}},{"base_weights":[-4.257398E-2,-9.513451E-1,3.627225E-1,-4.6520416E-2,-1.1674384E-1,-5.981822E-2,6.0947686E-1,1.355359E-1,9.5511985E-1,5.86331E-2,-4.2095624E-2,2.7589435E-2,1.2465822E-1],"categories":[],"categories_nodes":[],"categories_segments":[],"categories_sizes":[],"default_left":[0,0,0,0,0,0,0,0,0,0,0,0,0],"id":6,"left_children":[1,3,5,-1,-1,-1,7,9,11,-1,-1,-1,-1],"loss_changes":[1.1584678E1,4.7464085E-1,5.540103E0,0E0,0E0,0E0,2.7967868E0,2.4290318E0,1.6682968E0,0E0,0E0,0E0,0E0],"parents":[2147483647,0,0,1,1,2,2,6,6,7,7,8,8],"right_children":[2,4,6,-1,-1,-1,8,10,12,-1,-1,-1,-1],"split_conditions":[1.04E2,8.7E1,2.73E1,-4.6520416E-2,-1.1674384E-1,-5.981822E-2,3.55E-1,3.32E1,1.25E2,5.86331E-2,-4.2095624E-2,2.7589435E-2,1.2465822E-1],"split_indices":[1,1,5,0,0,0,6,5,1,0,0,0,0],"split_type":[0,0,0,0,0,0,0,0,0,0,0,0,0],"sum_hessian":[2.9515724E1,8.687963E0,2.082776E1,3.643667E0,5.0442953E0,3.964624E0,1.6863138E1,7.6987886E0,9.164349E0,4.223697E0,3.4750915E0,3.3362103E0,5.828139E0],"tree_param":{"num_deleted":"0","num_feature":"8","num_nodes":"13","size_leaf_vector":"1"}},{"base_weights":[1.0028264E-1,-2.2443558E-1,9.768361E-1,-4.7063243E-1,7.7076346E-2,1.34804E-1,3.240586E-2,-9.21862E-2,-1.0127056E-1,-4.6898603E-2,1.078829E-2],"categories":[],"categories_nodes":[],"categories_segments":[],"categories_sizes":[],"default_left":[0,0,0,0,0,0,0,0,0,0,0],"id":7,"left_children":[1,3,5,7,-1,-1,-1,-1,9,-1,-1],"loss_changes":[8.208393E0,5.580156E0,1.446908E0,2.855316E0,0E0,0E0,0E0,0E0,8.852079E-1,0E0,0E0],"parents":[2147483647,0,0,1,1,2,2,3,3,8,8],"right_children":[2,4,6,8,-1,-1,-1,-1,10,-1,-1],"split_conditions":[1.48E2,7.42E-1,3.7E1,1.04E2,7.7076346E-2,1.34804E-1,3.240586E-2,-9.21862E-2,2.47E-1,-4.6898603E-2,1.078829E-2],"split_indices":[1,6,7,1,0,0,0,0,6,0,0],"split_type":[0,0,0,0,0,0,0,0,0,0,0],"sum_hessian":[2.7068283E1,2.0294256E1,6.7740273E0,1.6692009E1,3.6022477E0,3.6393929E0,3.1346345E0,6.840057E0,9.851952E0,3.1215706E0,6.730381E0],"tree_param":{"num_deleted":"0","num_feature":"8","num_nodes":"11","size_leaf_vector":"1"}},{"base_weights":[1.9061379E-1,-3.610628E-1,8.1050336E-1,-5.799593E-1,3.7665E-2,1.1830693E-4,1.0648742E0,-8.564692E-2,-1.4801401E-2,5.700599E-2,1.2548745E-1],"categories":[],"categories_nodes":[],"categories_segments":[],"categories_sizes":[],"default_left":[0,0,0,0,0,0,0,0,0,0,0],"id":8,"left_children":[1,3,5,7,-1,-1,9,-1,-1,-1,-1],"loss_changes":[9.660997E0,2.6708152E0,2.7178297E0,1.3190484E0,0E0,0E0,2.2933674E-1,0E0,0E0,0E0,0E0],"parents":[2147483647,0,0,1,1,2,2,3,3,6,6],"right_children":[2,4,6,8,-1,-1,10,-1,-1,-1,-1],"split_conditions":[1.24E2,7.42E-1,3.04E1,1.04E2,3.7665E-2,1.1830693E-4,3.37E-1,-8.564692E-2,-1.4801401E-2,5.700599E-2,1.2548745E-1],"split_indices":[1,6,5,1,0,0,6,0,0,0,0],"split_type":[0,0,0,0,0,0,0,0,0,0,0],"sum_hessian":[2.6394566E1,1.4186602E1,1.2207964E1,1.1105257E1,3.0813453E0,3.1596615E0,9.048303E0,6.1716523E0,4.9336042E0,3.6203084E0,5.4279943E0],"tree_param":{"num_deleted":"0","num_feature":"8","num_nodes":"11","size_leaf_vector":"1"}},{"base_weights":[1.056289E-1,-3.731089E-1,6.886681E-1,-6.0394096E-1,4.2022403E-2,-4.1899476E-3,1.0547929E-1,-1.0835075E-1,-2.6268518E-1,6.8848035E-3,-5.635227E-2],"categories":[],"categories_nodes":[],"categories_segments":[],"categories_sizes":[],"default_left":[0,0,0,0,0,0,0,0,0,0,0],"id":9,"left_children":[1,3,5,7,-1,-1,-1,-1,9,-1,-1],"loss_changes":[8.093926E0,3.1959462E0,3.524344E0,1.8192339E0,0E0,0E0,0E0,0E0,9.195638E-1,0E0,0E0],"parents":[2147483647,0,0,1,1,2,2,3,3,8,8],"right_children":[2,4,6,8,-1,-1,-1,-1,10,-1,-1],"split_conditions":[1.24E2,8E1,2E0,2.6E1,4.2022403E-2,-4.1899476E-3,1.0547929E-1,-1.0835075E-1,3.9E1,6.8848035E-3,-5.635227E-2],"split_indices":[1,2,0,7,0,0,0,0,7,0,0],"split_type":[0,0,0,0,0,0,0,0,0,0,0],"sum_hessian":[2.7077162E1,1.5066231E1,1.2010931E1,1.1855442E1,3.2107892E0,4.305423E0,7.7055078E0,4.0246067E0,7.830835E0,4.092217E0,3.7386177E0],"tree_param":{"num_deleted":"0","num_feature":"8","num_nodes":"11","size_leaf_vector":"1"}},{"base_weights":[5.3514432E-2,-9.6689366E-2,2.7292258E-1,-8.856215E-3,1.0840926E-1,-6.348121E-1,3.7257102E-1,-2.4144745E-2,-8.503719E-2,-1.5473838E-2,6.3567005E-2],"categories":[],"categories_nodes":[],"categories_segments":[],"categories_sizes":[],"default_left":[0,0,0,0,0,0,0,0,0,0,0],"id":10,"left_children":[1,-1,3,5,-1,7,9,-1,-1,-1,-1],"loss_changes":[6.7053666E0,0E0,5.60033E0,4.8076024E0,0E0,4.4071293E-1,1.8362211E0,0E0,0E0,0E0,0E0],"parents":[2147483647,0,0,2,2,3,3,5,5,6,6],"right_children":[2,-1,4,6,-1,8,10,-1,-1,-1,-1],"split_conditions":[2.55E1,-9.6689366E-2,7.22E-1,1.11E2,1.0840926E-1,1.22E2,3E0,-2.4144745E-2,-8.503719E-2,-1.5473838E-2,6.3567005E-2],"split_indices":[5,0,6,1,0,4,0,0,0,0,0],"split_type":[0,0,0,0,0,0,0,0,0,0,0],"sum_hessian":[2.777127E1,4.311734E0,2.3459538E1,1.8145393E1,5.3141427E0,6.6188946E0,1.15265E1,3.0936093E0,3.5252852E0,3.9738586E0,7.552641E0],"tree_param":{"num_deleted":"0","num_feature":"8","num_nodes":"11","size_leaf_vector":"1"}},{"base_weights":[-5.3145286E-2,-3.12776E-1,8.9986615E-2,-5.130567E-1,6.306694E-2,-6.9862235E-1,3.7765358E-2,-1.0912385E-1,-4.998049E-2],"categories":[],"categories_nodes":[],"categories_segments":[],"categories_sizes":[],"default_left":[0,0,0,0,0,0,0,0,0],"id":11,"left_children":[1,3,-1,5,-1,7,-1,-1,-1],"loss_changes":[7.493193E0,4.791982E0,0E0,3.5792108E0,0E0,7.77771E-1,0E0,0E0,0E0],"parents":[2147483647,0,0,1,1,3,3,5,5],"right_children":[2,4,-1,6,-1,8,-1,-1,-1],"split_conditions":[1.58E2,8.67E-1,8.9986615E-2,4.13E1,6.306694E-2,2.75E1,3.7765358E-2,-1.0912385E-1,-4.998049E-2],"split_indices":[1,6,0,5,0,5,0,0,0],"split_type":[0,0,0,0,0,0,0,0,0],"sum_hessian":[2.814645E1,2.2648169E1,5.498282E0,1.9058496E1,3.5896728E0,1.5951008E1,3.107488E0,3.85321E0,1.2097797E1],"tree_param":{"num_deleted":"0","num_feature":"8","num_nodes":"9","size_leaf_vector":"1"}},{"base_weights":[-1.1579168E-2,-6.239215E-1,3.4064463E-1,-9.7118974E-2,-3.0775443E-2,-2.1268655E-1,6.82412E-1,2.5782005E-3,-4.000699E-2,9.50182E-2,1.092452E-2],"categories":[],"categories_nodes":[],"categories_segments":[],"categories_sizes":[],"default_left":[0,0,0,0,0,0,0,0,0,0,0],"id":12,"left_children":[1,3,5,-1,-1,7,9,-1,-1,-1,-1],"loss_changes":[5.8015647E0,7.788303E-1,3.3784747E0,0E0,0E0,3.3609554E-1,1.5548191E0,0E0,0E0,0E0,0E0],"parents":[2147483647,0,0,1,1,2,2,5,5,6,6],"right_children":[2,4,6,-1,-1,8,10,-1,-1,-1,-1],"split_conditions":[1.11E2,3E0,3E0,-9.7118974E-2,-3.0775443E-2,1.36E2,4.8E1,2.5782005E-3,-4.000699E-2,9.50182E-2,1.092452E-2],"split_indices":[1,0,0,0,0,1,7,0,0,0,0],"split_type":[0,0,0,0,0,0,0,0,0,0,0],"sum_hessian":[2.4913338E1,8.815748E0,1.609759E1,3.2139184E0,5.60183E0,6.290605E0,9.806984E0,3.1474698E0,3.1431353E0,6.2359295E0,3.5710545E0],"tree_param":{"num_deleted":"0","num_feature":"8","num_nodes":"11","size_leaf_vector":"1"}},{"base_weights":[-5.3431496E-2,-3.0300346E-1,7.505347E-2,-1.0769691E-1,-5.582857E-2,-3.335646E-1,6.7806646E-2,3.0609218E-2,-6.878676E-2],"categories":[],"categories_nodes":[],"categories_segments":[],"categories_sizes":[],"default_left":[0,0,0,0,0,0,0,0,0],"id":13,"left_children":[1,3,-1,-1,5,7,-1,-1,-1],"loss_changes":[5.666397E0,4.033447E0,0E0,0E0,3.7469687E0,3.2023854E0,0E0,0E0,0E0],"parents":[2147483647,0,0,1,1,4,4,5,5],"right_children":[2,4,-1,-1,6,8,-1,-1,-1],"split_conditions":[1.48E2,2.75E1,7.505347E-2,-1.0769691E-1,7.42E-1,2.8E-1,6.7806646E-2,3.0609218E-2,-6.878676E-2],"split_indices":[1,5,0,0,6,6,0,0,0],"split_type":[0,0,0,0,0,0,0,0,0],"sum_hessian":[2.6107164E1,2.0398159E1,5.7090044E0,4.124915E0,1.6273245E1,1.220127E1,4.0719743E0,4.397721E0,7.803549E0],"tree_param":{"num_deleted":"0","num_feature":"8","num_nodes":"9","size_leaf_vector":"1"}},{"base_weights":[5.603969E-2,-1.696377E-1,6.6425435E-2,-3.2922974E-1,5.1990457E-2,-4.650121E-1,1.8895803E-2,-7.382213E-2,-2.5228783E-2],"categories":[],"categories_nodes":[],"categories_segments":[],"categories_sizes":[],"default_left":[0,0,0,0,0,0,0,0,0],"id":14,"left_children":[1,3,-1,5,-1,7,-1,-1,-1],"loss_changes":[3.6719675E0,2.3401382E0,0E0,1.2570987E0,0E0,5.958128E-1,0E0,0E0,0E0],"parents":[2147483647,0,0,1,1,3,3,5,5],"right_children":[2,4,-1,6,-1,8,-1,-1,-1],"split_conditions":[7.42E-1,4.07E1,6.6425435E-2,8E0,5.1990457E-2,2.99E1,1.8895803E-2,-7.382213E-2,-2.5228783E-2],"split_indices":[6,5,0,0,0,5,0,0,0],"split_type":[0,0,0,0,0,0,0,0,0],"sum_hessian":[2.4930914E1,1.8709764E1,6.2211485E0,1.5617655E1,3.0921104E0,1.2456307E1,3.161347E0,4.371507E0,8.084801E0],"tree_param":{"num_deleted":"0","num_feature":"8","num_nodes":"9","size_leaf_vector":"1"}},{"base_weights":[-1.6558485E-1,-6.63598E-1,1.22084804E-1,-1.2351933E-2,-9.179597E-2,-1.6369788E-1,9.34591E-2,-7.2966754E-2,7.348946E-2,-5.0625037E-2,4.084425E-2],"categories":[],"categories_nodes":[],"categories_segments":[],"categories_sizes":[],"default_left":[0,0,0,0,0,0,0,0,0,0,0],"id":15,"left_children":[1,3,5,-1,-1,7,-1,-1,9,-1,-1],"loss_changes":[3.7195458E0,1.1854191E0,4.087179E0,0E0,0E0,1.8504803E0,0E0,0E0,2.2148259E0,0E0,0E0],"parents":[2147483647,0,0,1,1,2,2,5,5,8,8],"right_children":[2,4,6,-1,-1,8,-1,-1,10,-1,-1],"split_conditions":[1.09E2,9.2E1,8E0,-1.2351933E-2,-9.179597E-2,3.16E1,9.34591E-2,-7.2966754E-2,1.28E2,-5.0625037E-2,4.084425E-2],"split_indices":[1,4,0,0,0,5,0,0,1,0,0],"split_type":[0,0,0,0,0,0,0,0,0,0,0],"sum_hessian":[2.4397512E1,8.454424E0,1.59430895E1,3.1825712E0,5.271853E0,1.2385326E1,3.5577621E0,3.0444393E0,9.340888E0,3.2332835E0,6.107604E0],"tree_param":{"num_deleted":"0","num_feature":"8","num_nodes":"11","size_leaf_vector":"1"}},{"base_weights":[-3.8134113E-2,-7.3745474E-2,1.4181209E-1,-3.9970916E-2,2.7299067E-1,-3.1716924E-2,4.1567224E-1,9.473757E-2,5.7278443E-3],"categories":[],"categories_nodes":[],"categories_segments":[],"categories_sizes":[],"default_left":[0,0,0,0,0,0,0,0,0],"id":16,"left_children":[1,-1,3,-1,5,-1,7,-1,-1],"loss_changes":[3.338352E0,0E0,1.6205549E0,0E0,1.6241326E0,0E0,2.7478168E0,0E0,0E0],"parents":[2147483647,0,0,2,2,4,4,6,6],"right_children":[2,-1,4,-1,6,-1,8,-1,-1],"split_conditions":[2.75E1,-7.3745474E-2,2.38E-1,-3.9970916E-2,8.8E1,-3.1716924E-2,3.36E1,9.473757E-2,5.7278443E-3],"split_indices":[5,0,6,0,4,0,5,0,0],"split_type":[0,0,0,0,0,0,0,0,0],"sum_hessian":[2.4697472E1,4.4203963E0,2.0277075E1,3.5549097E0,1.6722164E1,3.0176475E0,1.3704517E1,4.85636E0,8.848158E0],"tree_param":{"num_deleted":"0","num_feature":"8","num_nodes":"9","size_leaf_vector":"1"}},{"base_weights":[2.1932408E-2,-3.9682835E-1,2.9618543E-1,-1.0316469E-1,9.226873E-3,6.348341E-2,8.000605E-3,3.5172693E-2,-2.3635069E-2],"categories":[],"categories_nodes":[],"categories_segments":[],"categories_sizes":[],"default_left":[0,0,0,0,0,0,0,0,0],"id":17,"left_children":[1,3,5,-1,-1,-1,7,-1,-1],"loss_changes":[2.8735065E0,3.176458E0,1.4659522E0,0E0,0E0,0E0,8.521455E-1,0E0,0E0],"parents":[2147483647,0,0,1,1,2,2,6,6],"right_children":[2,4,6,-1,-1,-1,8,-1,-1],"split_conditions":[3E0,6.5E1,3.7E1,-1.0316469E-1,9.226873E-3,6.348341E-2,3.13E1,3.5172693E-2,-2.3635069E-2],"split_indices":[0,2,7,0,0,0,5,0,0],"split_type":[0,0,0,0,0,0,0,0,0],"sum_hessian":[2.2997023E1,8.923961E0,1.4073061E1,3.40073E0,5.5232306E0,5.917032E0,8.15603E0,3.206313E0,4.949717E0],"tree_param":{"num_deleted":"0","num_feature":"8","num_nodes":"9","size_leaf_vector":"1"}},{"base_weights":[9.631509E-2,-2.4639042E-1,4.856924E-1,-4.512706E-1,2.8186504E-2,-7.1075545E-3,9.732418E-2,3.7509694E-3,-7.3290706E-2,-2.2653008E-2,2.1723201E-2],"categories":[],"categories_nodes":[],"categories_segments":[],"categories_sizes":[],"default_left":[0,0,0,0,0,0,0,0,0,0,0],"id":18,"left_children":[1,3,5,7,-1,9,-1,-1,-1,-1,-1],"loss_changes":[3.5498347E0,1.6787145E0,2.9789493E0,1.5023348E0,0E0,4.0090093E-1,0E0,0E0,0E0,0E0,0E0],"parents":[2147483647,0,0,1,1,2,2,3,3,5,5],"right_children":[2,4,6,8,-1,10,-1,-1,-1,-1,-1],"split_conditions":[1.31E2,8.51E-1,3.55E-1,2.64E-1,2.8186504E-2,1.58E2,9.732418E-2,3.7509694E-3,-7.3290706E-2,-2.2653008E-2,2.1723201E-2],"split_indices":[1,6,6,6,0,1,0,0,0,0,0],"split_type":[0,0,0,0,0,0,0,0,0,0,0],"sum_hessian":[2.4705336E1,1.3335491E1,1.1369844E1,9.713797E0,3.6216946E0,6.1445465E0,5.225298E0,3.8678887E0,5.8459086E0,3.101379E0,3.0431676E0],"tree_param":{"num_deleted":"0","num_feature":"8","num_nodes":"11","size_leaf_vector":"1"}},{"base_weights":[-4.732638E-2,-2.3502627E-1,9.025055E-2,-3.8745528E-1,4.203681E-2,-8.1675574E-2,-2.1697709E-1,-3.9769392E-2,2.5951285E-2],"categories":[],"categories_nodes":[],"categories_segments":[],"categories_sizes":[],"default_left":[0,0,0,0,0,0,0,0,0],"id":19,"left_children":[1,3,-1,5,-1,-1,7,-1,-1],"loss_changes":[4.6184216E0,2.3037975E0,0E0,1.1333361E0,0E0,0E0,1.324158E0,0E0,0E0],"parents":[2147483647,0,0,1,1,3,3,6,6],"right_children":[2,4,-1,6,-1,-1,8,-1,-1],"split_conditions":[1.65E2,9E0,9.025055E-2,2.89E1,4.203681E-2,-8.1675574E-2,7.22E-1,-3.9769392E-2,2.5951285E-2],"split_indices":[1,0,0,5,0,0,6,0,0],"split_type":[0,0,0,0,0,0,0,0,0],"sum_hessian":[2.3715204E1,2.043043E1,3.284775E0,1.6907072E1,3.523358E0,3.7280576E0,1.3179014E1,9.674982E0,3.5040317E0],"tree_param":{"num_deleted":"0","num_feature":"8","num_nodes":"9","size_leaf_vector":"1"}},{"base_weights":[-8.046931E-3,-6.165713E-2,1.2359681E-1,-4.0738422E-2,2.7818698E-1,7.407274E-1,-1.3326904E-1,3.363948E-2,1.055968E-1,-5.5943396E-2,5.5610843E-2],"categories":[],"categories_nodes":[],"categories_segments":[],"categories_sizes":[],"default_left":[0,0,0,0,0,0,0,0,0,0,0],"id":20,"left_children":[1,-1,3,-1,5,7,9,-1,-1,-1,-1],"loss_changes":[2.022809E0,0E0,1.8215702E0,0E0,3.2793298E0,6.670556E-1,3.1585357E0,0E0,0E0,0E0,0E0],"parents":[2147483647,0,0,2,2,4,4,5,5,6,6],"right_children":[2,-1,4,-1,6,8,10,-1,-1,-1,-1],"split_conditions":[2.55E1,-6.165713E-2,1.28E2,-4.0738422E-2,3.36E1,4.08E-1,4.23E1,3.363948E-2,1.055968E-1,-5.5943396E-2,5.5610843E-2],"split_indices":[5,0,4,0,5,6,5,0,0,0,0],"split_type":[0,0,0,0,0,0,0,0,0,0,0],"sum_hessian":[2.3299604E1,3.4888284E0,1.9810776E1,4.0984178E0,1.57123575E1,7.020249E0,8.692109E0,3.9811137E0,3.039135E0,5.487992E0,3.2041168E0],"tree_param":{"num_deleted":"0","num_feature":"8","num_nodes":"11","size_leaf_vector":"1"}},{"base_weights":[-1.1137303E-1,-7.039245E-2,1.1803731E-1,-5.6609537E-2,3.3238468E-1,-1.2517613E-1,7.018924E-1,1.2779704E-2,-3.538074E-2,1.7822826E-2,9.757619E-2],"categories":[],"categories_nodes":[],"categories_segments":[],"categories_sizes":[],"default_left":[0,0,0,0,0,0,0,0,0,0,0],"id":21,"left_children":[1,-1,3,-1,5,7,9,-1,-1,-1,-1],"loss_changes":[3.4219248E0,0E0,2.910248E0,0E0,2.5841088E0,4.7581086E-1,1.0192361E0,0E0,0E0,0E0,0E0],"parents":[2147483647,0,0,2,2,4,4,5,5,6,6],"right_children":[2,-1,4,-1,6,8,10,-1,-1,-1,-1],"split_conditions":[1.04E2,-7.039245E-2,2.9E1,-5.6609537E-2,3.91E-1,2.8E-1,1.24E2,1.2779704E-2,-3.538074E-2,1.7822826E-2,9.757619E-2],"split_indices":[1,0,5,0,6,6,1,0,0,0,0],"split_type":[0,0,0,0,0,0,0,0,0,0,0],"sum_hessian":[2.3561556E1,5.9987583E0,1.7562798E1,3.7984054E0,1.3764392E1,6.4449077E0,7.319484E0,3.2689517E0,3.175956E0,3.0803487E0,4.2391357E0],"tree_param":{"num_deleted":"0","num_feature":"8","num_nodes":"11","size_leaf_vector":"1"}},{"base_weights":[-1.1150033E-1,-3.0031812E-1,4.387344E-2,-7.416239E-2,-1.1439281E-1,5.9052113E-2,-5.2966703E-2,-2.513721E-2,5.0155777E-2],"categories":[],"categories_nodes":[],"categories_segments":[],"categories_sizes":[],"default_left":[0,0,0,0,0,0,0,0,0],"id":22,"left_children":[1,3,-1,-1,5,7,-1,-1,-1],"loss_changes":[2.4951189E0,1.3534712E0,0E0,0E0,1.0047874E0,1.5592825E0,0E0,0E0,0E0],"parents":[2147483647,0,0,1,1,4,4,5,5],"right_children":[2,4,-1,-1,6,8,-1,-1,-1],"split_conditions":[7.22E-1,1.04E2,4.387344E-2,-7.416239E-2,4.8E1,3.5E1,-5.2966703E-2,-2.513721E-2,5.0155777E-2],"split_indices":[6,1,0,0,7,7,0,0,0],"split_type":[0,0,0,0,0,0,0,0,0],"sum_hessian":[2.1747766E1,1.6529669E1,5.218098E0,4.0138083E0,1.2515861E1,9.433592E0,3.0822685E0,5.798085E0,3.635507E0],"tree_param":{"num_deleted":"0","num_feature":"8","num_nodes":"9","size_leaf_vector":"1"}},{"base_weights":[-2.5763448E-2,-7.551828E-2,1.14978045E-1,-4.4108458E-2,2.5185296E-1,7.545192E-2,8.2135834E-2,-2.9398123E-2,4.531744E-2],"categories":[],"categories_nodes":[],"categories_segments":[],"categories_sizes":[],"default_left":[0,0,0,0,0,0,0,0,0],"id":23,"left_children":[1,-1,3,-1,5,-1,7,-1,-1],"loss_changes":[2.578733E0,0E0,1.7258062E0,0E0,1.4447236E0,0E0,2.132402E0,0E0,0E0],"parents":[2147483647,0,0,2,2,4,4,6,6],"right_children":[2,-1,4,-1,6,-1,8,-1,-1],"split_conditions":[2.73E1,-7.551828E-2,2.37E-1,-4.4108458E-2,3.05E-1,7.545192E-2,1.24E2,-2.9398123E-2,4.531744E-2],"split_indices":[5,0,6,0,6,0,1,0,0],"split_type":[0,0,0,0,0,0,0,0,0],"sum_hessian":[2.3273466E1,3.0581713E0,2.0215294E1,3.5540822E0,1.6661213E1,3.3357322E0,1.33254795E1,6.720587E0,6.604893E0],"tree_param":{"num_deleted":"0","num_feature":"8","num_nodes":"9","size_leaf_vector":"1"}},{"base_weights":[-3.658432E-2,-1.8473549E-1,6.813364E-2,-5.116832E-1,1.610899E-1,2.1614416E-2,-8.1971973E-1,3.889098E-2,-2.1056484E-2,-1.03981815E-1,-4.4945795E-2],"categories":[],"categories_nodes":[],"categories_segments":[],"categories_sizes":[],"default_left":[0,0,0,0,0,0,0,0,0,0,0],"id":24,"left_children":[1,3,-1,5,7,-1,9,-1,-1,-1,-1],"loss_changes":[2.676978E0,2.4194243E0,0E0,2.6128602E0,9.967672E-1,0E0,1.7172337E-1,0E0,0E0,0E0,0E0],"parents":[2147483647,0,0,1,1,3,3,4,4,6,6],"right_children":[2,4,-1,6,8,-1,10,-1,-1,-1,-1],"split_conditions":[9E0,1.24E2,6.813364E-2,9.2E1,3.7E1,2.1614416E-2,3E1,3.889098E-2,-2.1056484E-2,-1.03981815E-1,-4.4945795E-2],"split_indices":[0,1,0,4,7,0,7,0,0,0,0],"split_type":[0,0,0,0,0,0,0,0,0,0,0],"sum_hessian":[2.2985447E1,1.9669168E1,3.3162787E0,9.864009E0,9.80516E0,3.0219867E0,6.842022E0,6.050096E0,3.7550638E0,3.1570263E0,3.6849957E0],"tree_param":{"num_deleted":"0","num_feature":"8","num_nodes":"11","size_leaf_vector":"1"}},{"base_weights":[2.7638644E-3,-1.4119273E-1,5.0829172E-2,-5.8542825E-2,8.543142E-2,5.101754E-2,-9.821031E-2,-3.6059555E-2,2.9127836E-2],"categories":[],"categories_nodes":[],"categories_segments":[],"categories_sizes":[],"default_left":[0,0,0,0,0,0,0,0,0],"id":25,"left_children":[1,3,-1,-1,5,-1,7,-1,-1],"loss_changes":[1.77193E0,1.959471E0,0E0,0E0,1.0978214E0,0E0,1.1490905E0,0E0,0E0],"parents":[2147483647,0,0,1,1,4,4,6,6],"right_children":[2,4,-1,-1,6,-1,8,-1,-1],"split_conditions":[8E0,3.09E1,5.0829172E-2,-5.8542825E-2,2.8E-1,5.101754E-2,6.8E-1,-3.6059555E-2,2.9127836E-2],"split_indices":[0,5,0,0,6,0,6,0,0],"split_type":[0,0,0,0,0,0,0,0,0],"sum_hessian":[2.2362207E1,1.7966642E1,4.3955665E0,5.534497E0,1.2432144E1,3.2159317E0,9.216213E0,5.550926E0,3.6652868E0],"tree_param":{"num_deleted":"0","num_feature":"8","num_nodes":"9","size_leaf_vector":"1"}},{"base_weights":[-5.9137028E-2,-3.4162277E-1,2.6442122E-1,1.8929541E-2,-5.42982E-1,5.8819987E-2,-5.897188E-3,-7.694819E-2,-2.8722415E-2],"categories":[],"categories_nodes":[],"categories_segments":[],"categories_sizes":[],"default_left":[0,0,0,0,0,0,0,0,0],"id":26,"left_children":[1,3,5,-1,7,-1,-1,-1,-1],"loss_changes":[2.1876733E0,1.4591144E0,1.2136416E0,0E0,3.2682347E-1,0E0,0E0,0E0,0E0],"parents":[2147483647,0,0,1,1,2,2,4,4],"right_children":[2,4,6,-1,8,-1,-1,-1,-1],"split_conditions":[1.31E2,2.64E-1,7.4E1,1.8929541E-2,1.04E2,5.8819987E-2,-5.897188E-3,-7.694819E-2,-2.8722415E-2],"split_indices":[1,6,2,0,1,0,0,0,0],"split_type":[0,0,0,0,0,0,0,0,0],"sum_hessian":[2.194669E1,1.1687218E1,1.0259472E1,3.230187E0,8.45703E0,4.7175045E0,5.541968E0,3.419806E0,5.0372243E0],"tree_param":{"num_deleted":"0","num_feature":"8","num_nodes":"9","size_leaf_vector":"1"}},{"base_weights":[1.2387664E-1,2.4474704E-1,-2.8221011E-2,-2.9828733E-2,4.0200445E-1,1.145519E-1,6.537159E-2,2.4955846E-2,-5.2695787E-3],"categories":[],"categories_nodes":[],"categories_segments":[],"categories_sizes":[],"default_left":[0,0,0,0,0,0,0,0,0],"id":27,"left_children":[1,3,-1,-1,5,7,-1,-1,-1],"loss_changes":[1.1443213E0,1.607274E0,0E0,0E0,9.3316174E-1,1.8738917E-1,0E0,0E0,0E0],"parents":[2147483647,0,0,1,1,4,4,5,5],"right_children":[2,4,-1,-1,6,8,-1,-1,-1],"split_conditions":[3.9E1,2.3E1,-2.8221011E-2,-2.9828733E-2,1.31E2,3.2E1,6.537159E-2,2.4955846E-2,-5.2695787E-3],"split_indices":[3,3,0,0,1,7,0,0,0],"split_type":[0,0,0,0,0,0,0,0,0],"sum_hessian":[2.0906406E1,1.6417189E1,4.489219E0,3.4852538E0,1.2931934E1,6.7166553E0,6.215279E0,3.4442337E0,3.2724216E0],"tree_param":{"num_deleted":"0","num_feature":"8","num_nodes":"9","size_leaf_vector":"1"}},{"base_weights":[-4.51879E-2,-2.8858194E-1,1.9725998E-1,-6.324672E-2,-2.0406576E-2,-2.3398515E-2,4.1954836E-1,-3.3417862E-2,2.9085968E-2,9.43951E-3,7.0913196E-2],"categories":[],"categories_nodes":[],"categories_segments":[],"categories_sizes":[],"default_left":[0,0,0,0,0,0,0,0,0,0,0],"id":28,"left_children":[1,3,5,-1,7,-1,9,-1,-1,-1,-1],"loss_changes":[1.4245279E0,1.0911019E0,1.2680879E0,0E0,8.550312E-1,0E0,7.2506E-1,0E0,0E0,0E0,0E0],"parents":[2147483647,0,0,1,1,2,2,4,4,6,6],"right_children":[2,4,6,-1,8,-1,10,-1,-1,-1,-1],"split_conditions":[3.91E-1,4E0,2E0,-6.324672E-2,1.31E2,-2.3398515E-2,1.24E2,-3.3417862E-2,2.9085968E-2,9.43951E-3,7.0913196E-2],"split_indices":[6,0,0,0,1,0,1,0,0,0,0],"split_type":[0,0,0,0,0,0,0,0,0,0,0],"sum_hessian":[2.2175625E1,1.0971263E1,1.1204363E1,4.2118874E0,6.7593756E0,3.7930772E0,7.4112854E0,3.329481E0,3.4298944E0,4.115851E0,3.2954345E0],"tree_param":{"num_deleted":"0","num_feature":"8","num_nodes":"11","size_leaf_vector":"1"}},{"base_weights":[-7.174672E-2,-2.029924E-1,4.6091136E-2,-2.305778E-2,-5.0031036E-1,-2.556663E-1,4.9002003E-2,-1.9434119E-2,-6.816438E-2,6.2826932E-3,-6.610464E-2],"categories":[],"categories_nodes":[],"categories_segments":[],"categories_sizes":[],"default_left":[0,0,0,0,0,0,0,0,0,0,0],"id":29,"left_children":[1,3,-1,5,7,9,-1,-1,-1,-1,-1],"loss_changes":[1.6802678E0,9.9979126E-1,0E0,1.6559159E0,2.602855E-1,1.2657123E0,0E0,0E0,0E0,0E0,0E0],"parents":[2147483647,0,0,1,1,3,3,4,4,5,5],"right_children":[2,4,-1,6,8,10,-1,-1,-1,-1,-1],"split_conditions":[9E0,3.2E1,4.6091136E-2,6.87E-1,5.2E-1,3.6E1,4.9002003E-2,-1.9434119E-2,-6.816438E-2,6.2826932E-3,-6.610464E-2],"split_indices":[0,3,0,6,6,7,0,0,0,0,0],"split_type":[0,0,0,0,0,0,0,0,0,0,0],"sum_hessian":[2.1696716E1,1.7904097E1,3.79262E0,1.1825154E1,6.078943E0,8.48163E0,3.343524E0,3.0330024E0,3.0459402E0,5.223065E0,3.2585657E0],"tree_param":{"num_deleted":"0","num_feature":"8","num_nodes":"11","size_leaf_vector":"1"}},{"base_weights":[-3.1145375E-2,-5.7321608E-2,9.132782E-2,2.7329737E-1,-4.2100754E-2,5.641931E-1,-1.345797E-1,-2.2986908E-2,1.14716366E-1,-4.6433385E-2,2.1235617E-2],"categories":[],"categories_nodes":[],"categories_segments":[],"categories_sizes":[],"default_left":[0,0,0,0,0,0,0,0,0,0,0],"id":30,"left_children":[1,-1,3,5,-1,7,9,-1,-1,-1,-1],"loss_changes":[1.613481E0,0E0,1.9837244E0,1.9027616E0,0E0,4.513169E0,9.2425907E-1,0E0,0E0,0E0,0E0],"parents":[2147483647,0,0,2,2,3,3,5,5,6,6],"right_children":[2,-1,4,6,-1,8,10,-1,-1,-1,-1],"split_conditions":[2.75E1,-5.7321608E-2,4.2E1,3.47E1,-4.2100754E-2,3.1E1,4.06E1,-2.2986908E-2,1.14716366E-1,-4.6433385E-2,2.1235617E-2],"split_indices":[5,0,7,5,0,3,5,0,0,0,0],"split_type":[0,0,0,0,0,0,0,0,0,0,0],"sum_hessian":[2.251485E1,3.471137E0,1.9043715E1,1.4396853E1,4.6468606E0,8.1798115E0,6.2170415E0,3.7193675E0,4.4604445E0,3.0139604E0,3.2030811E0],"tree_param":{"num_deleted":"0","num_feature":"8","num_nodes":"11","size_leaf_vector":"1"}},{"base_weights":[-8.3981395E-2,-6.980932E-2,4.8239745E-2,-9.9539965E-2,4.3198414E-2,7.36929E-2,-5.2722055E-2,-1.7968977E-2,5.5409994E-2],"categories":[],"categories_nodes":[],"categories_segments":[],"categories_sizes":[],"default_left":[0,0,0,0,0,0,0,0,0],"id":31,"left_children":[1,-1,3,5,-1,7,-1,-1,-1],"loss_changes":[1.8395947E0,0E0,1.1338627E0,1.1279876E0,0E0,1.4799436E0,0E0,0E0,0E0],"parents":[2147483647,0,0,2,2,3,3,5,5],"right_children":[2,-1,4,6,-1,8,-1,-1,-1],"split_conditions":[9.3E1,-6.980932E-2,3.69E1,3.37E1,4.3198414E-2,3.2E1,-5.2722055E-2,-1.7968977E-2,5.5409994E-2],"split_indices":[1,0,5,5,0,5,0,0,0],"split_type":[0,0,0,0,0,0,0,0,0],"sum_hessian":[2.1240772E1,3.0048347E0,1.8235939E1,1.3700495E1,4.5354433E0,1.0339964E1,3.3605313E0,7.1793165E0,3.1606474E0],"tree_param":{"num_deleted":"0","num_feature":"8","num_nodes":"9","size_leaf_vector":"1"}},{"base_weights":[2.5343323E-2,-5.4732144E-2,1.3810939E-1,-3.4632985E-2,7.349455E-2,1.7480078E-1,-6.480833E-2,4.9529426E-2,-9.230514E-3],"categories":[],"categories_nodes":[],"categories_segments":[],"categories_sizes":[],"default_left":[0,0,0,0,0,0,0,0,0],"id":32,"left_children":[1,-1,3,5,-1,7,-1,-1,-1],"loss_changes":[1.5958908E0,0E0,2.1356542E0,2.2753603E0,0E0,1.1870992E0,0E0,0E0,0E0],"parents":[2147483647,0,0,2,2,3,3,5,5],"right_children":[2,-1,4,6,-1,8,-1,-1,-1],"split_conditions":[2.75E1,-5.4732144E-2,7.71E-1,4E1,7.349455E-2,2.67E-1,-6.480833E-2,4.9529426E-2,-9.230514E-3],"split_indices":[5,0,6,3,0,6,0,0,0],"split_type":[0,0,0,0,0,0,0,0,0],"sum_hessian":[2.2542387E1,3.0746515E0,1.9467735E1,1.5828471E1,3.6392646E0,1.2333001E1,3.4954705E0,5.2178903E0,7.1151104E0],"tree_param":{"num_deleted":"0","num_feature":"8","num_nodes":"9","size_leaf_vector":"1"}},{"base_weights":[-1.0715646E-1,-2.5351292E-1,3.989963E-2,-6.0409606E-1,-1.0998376E-2,-7.79455E-2,-2.6597608E-2,2.9822124E-2,-2.6004061E-2],"categories":[],"categories_nodes":[],"categories_segments":[],"categories_sizes":[],"default_left":[0,0,0,0,0,0,0,0,0],"id":33,"left_children":[1,3,-1,5,7,-1,-1,-1,-1],"loss_changes":[1.7532103E0,1.516153E0,0E0,2.2581792E-1,9.7128767E-1,0E0,0E0,0E0,0E0],"parents":[2147483647,0,0,1,1,3,3,4,4],"right_children":[2,4,-1,6,8,-1,-1,-1,-1],"split_conditions":[7.42E-1,4E0,3.989963E-2,3.69E1,3.13E1,-7.79455E-2,-2.6597608E-2,2.9822124E-2,-2.6004061E-2],"split_indices":[6,0,0,5,5,0,0,0,0],"split_type":[0,0,0,0,0,0,0,0,0],"sum_hessian":[2.1301409E1,1.6910728E1,4.3906794E0,6.3050594E0,1.0605669E1,3.2923093E0,3.0127501E0,4.643127E0,5.9625425E0],"tree_param":{"num_deleted":"0","num_feature":"8","num_nodes":"9","size_leaf_vector":"1"}},{"base_weights":[4.6352357E-2,-5.95777E-2,1.8355028E-1,3.5178903E-1,-3.6719788E-2,1.0605706E-1,6.0912144E-1,4.782888E-2,-2.4837961E-2,9.155574E-2,1.4914192E-2],"categories":[],"categories_nodes":[],"categories_segments":[],"categories_sizes":[],"default_left":[0,0,0,0,0,0,0,0,0,0,0],"id":34,"left_children":[1,-1,3,5,-1,7,9,-1,-1,-1,-1],"loss_changes":[2.056746E0,0E0,1.8875921E0,8.869369E-1,0E0,1.2940754E0,8.698003E-1,0E0,0E0,0E0,0E0],"parents":[2147483647,0,0,2,2,3,3,5,5,6,6],"right_children":[2,-1,4,6,-1,8,10,-1,-1,-1,-1],"split_conditions":[6.4E1,-5.95777E-2,5E1,5E0,-3.6719788E-2,2E0,3.29E1,4.782888E-2,-2.4837961E-2,9.155574E-2,1.4914192E-2],"split_indices":[2,0,7,0,0,0,5,0,0,0,0],"split_type":[0,0,0,0,0,0,0,0,0,0,0],"sum_hessian":[2.1104622E1,3.126968E0,1.7977654E1,1.4047709E1,3.929945E0,7.908173E0,6.139536E0,3.6868184E0,4.2213545E0,3.0903385E0,3.0491977E0],"tree_param":{"num_deleted":"0","num_feature":"8","num_nodes":"11","size_leaf_vector":"1"}}]},"name":"gbtree"},"learner_model_param":{"base_score":"3.6306366E-1","boost_from_average":"1","num_class":"0","num_feature":"8","num_target":"1"},"objective":{"name":"binary:logistic","reg_loss_param":{"scale_pos_weight":"1"}}},"version":[2,1,1]}