{"learner":{"attributes":{},"feature_names":["Pregnancies","Glucose","BloodPressure","SkinThickness","Insulin","BMI","DiabetesPedigreeFunction","Age"],"feature_types":[],"gradient_booster":{"model":{"gbtree_model_param":{"num_parallel_tree":"1","num_trees":"125"},"iteration_indptr":[0,1,2,3,4,5,6,7,8,9,10,11,12,13,14,15,16,17,18,19,20,21,22,23,24,25,26,27,28,29,30,31,32,33,34,35,36,37,38,39,40,41,42,43,44,45,46,47,48,49,50,51,52,53,54,55,56,57,58,59,60,61,62,63,64,65,66,67,68,69,70,71,72,73,74,75,76,77,78,79,80,81,82,83,84,85,86,87,88,89,90,91,92,93,94,95,96,97,98,99,100,101,102,103,104,105,106,107,108,109,110,111,112,113,114,115,116,117,118,119,120,121,122,123,124,125],"tree_info":[0,0,0,0,0,0,0,0,0,0,0,0,0,0,0,0,0,0,0,0,0,0,0,0,0,0,0,0,0,0,0,0,0,0,0,0,0,0,0,0,0,0,0,0,0,0,0,0,0,0,0,0,0,0,0,0,0,0,0,0,0,0,0,0,0,0,0,0,0,0,0,0,0,0,0,0,0,0,0,0,0,0,0,0,0,0,0,0,0,0,0,0,0,0,0,0,0,0,0,0,0,0,0,0,0,0,0,0,0,0,0,0,0,0,0,0,0,0,0,0,0,0,0,0,0],"trees":[{"base_weights":[-6.36724E-2,-8.2456785E-1,1.6326551E0,-1.2797758E-1,-5.0208664E-1,1.9326793E-1,8.357657E-2,-9.853333E-2,7.161621E-3],"categories":[],"categories_nodes":[],"categories_segments":[],"categories_sizes":[],"default_left":[0,0,0,0,0,0,0,0,0],"id":0,"left_children":[1,3,5,-1,7,-1,-1,-1,-1],"loss_changes":[3.5334873E1,2.1235456E0,4.1451073E-1,0E0,3.584631E0,0E0,0E0,0E0,0E0],"parents":[2147483647,0,0,1,1,2,2,4,4],"right_children":[2,4,6,-1,8,-1,-1,-1,-1],"split_conditions":[1.33E2,2.79E1,1.8E2,-1.2797758E-1,1.07E2,1.9326793E-1,8.357657E-2,-9.853333E-2,7.161621E-3],"split_indices":[1,5,4,0,1,0,0,0,0],"split_type":[0,0,0,0,0,0,0,0,0],"sum_hessian":[2.5332922E1,1.784319E1,7.4897337E0,6.168016E0,1.1675173E1,4.4057255E0,3.084008E0,5.9477296E0,5.727443E0],"tree_param":{"num_deleted":"0","num_feature":"8","num_nodes":"9","size_leaf_vector":"1"}},{"base_weights":[1.0673171E-1,-5.9898907E-1,1.0394583E0,-1.1345013E-1,-1.3851252E-1,-2.0187063E-2,1.5091696E0,-5.447474E-2,5.7993885E-2,5.7017993E-2,1.9012779E-1],"categories":[],"categories_nodes":[],"categories_segments":[],"categories_sizes":[],"default_left":[0,0,0,0,0,0,0,0,0,0,0],"id":1,"left_children":[1,3,5,-1,7,-1,9,-1,-1,-1,-1],"loss_changes":[1.893269E1,3.9041228E0,7.5036945E0,0E0,3.2328541E0,0E0,2.2573643E0,0E0,0E0,0E0,0E0],"parents":[2147483647,0,0,1,1,2,2,4,4,6,6],"right_children":[2,4,6,-1,8,-1,10,-1,-1,-1,-1],"split_conditions":[3.2E1,2.4E1,2.97E1,-1.1345013E-1,3.2E1,-2.0187063E-2,3.9E1,-5.447474E-2,5.7993885E-2,5.7017993E-2,1.9012779E-1],"split_indices":[7,7,5,0,3,0,7,0,0,0,0],"split_type":[0,0,0,0,0,0,0,0,0,0,0],"sum_hessian":[2.6816513E1,1.5469652E1,1.134686E1,6.475361E0,8.994292E0,3.271454E0,8.075406E0,5.9000144E0,3.0942771E0,3.1017423E0,4.973664E0],"tree_param":{"num_deleted":"0","num_feature":"8","num_nodes":"11","size_leaf_vector":"1"}},{"base_weights":[-2.868509E-3,-2.933101E-1,1.3596408E-1,-1.0954161E-1,9.312837E-2,-3.866953E-1,4.420418E-1,-9.3194516E-4,-6.866964E-2,-2.675492E-2,8.828061E-2],"categories":[],"categories_nodes":[],"categories_segments":[],"categories_sizes":[],"default_left":[0,0,0,0,0,0,0,0,0,0,0],"id":2,"left_children":[1,3,-1,-1,5,7,9,-1,-1,-1,-1],"loss_changes":[1.1105203E1,7.2695065E0,0E0,0E0,2.9378219E0,8.417398E-1,3.3748875E0,0E0,0E0,0E0,0E0],"parents":[2147483647,0,0,1,1,4,4,5,5,6,6],"right_children":[2,4,-1,-1,6,8,10,-1,-1,-1,-1],"split_conditions":[4.3E1,2.99E1,1.3596408E-1,-1.0954161E-1,3.06E-1,3.5E1,2.6E1,-9.3194516E-4,-6.866964E-2,-2.675492E-2,8.828061E-2],"split_indices":[7,5,0,0,6,5,7,0,0,0,0],"split_type":[0,0,0,0,0,0,0,0,0,0,0],"sum_hessian":[2.6054867E1,2.2123583E1,3.9312825E0,6.5966625E0,1.5526921E1,6.4915276E0,9.035394E0,3.3316545E0,3.1598728E0,3.612531E0,5.422863E0],"tree_param":{"num_deleted":"0","num_feature":"8","num_nodes":"11","size_leaf_vector":"1"}},{"base_weights":[-8.59014E-3,-7.07398E-1,1.0590038E0,-1.0470573E-1,-1.4303826E-1,1.3912314E0,2.4076184E-2,-3.8128108E-2,1.3329336E-2,4.9604233E-2,1.9389491E-1],"categories":[],"categories_nodes":[],"categories_segments":[],"categories_sizes":[],"default_left":[0,0,0,0,0,0,0,0,0,0,0],"id":3,"left_children":[1,3,5,-1,7,9,-1,-1,-1,-1,-1],"loss_changes":[1.9440313E1,2.8677654E0,2.4682875E0,0E0,5.1644874E-1,2.5316057E0,0E0,0E0,0E0,0E0,0E0],"parents":[2147483647,0,0,1,1,2,2,4,4,5,5],"right_children":[2,4,6,-1,8,10,-1,-1,-1,-1,-1],"split_conditions":[1.28E2,3E1,1.9E2,-1.0470573E-1,1.09E2,3.06E-1,2.4076184E-2,-3.8128108E-2,1.3329336E-2,4.9604233E-2,1.9389491E-1],"split_indices":[1,7,4,0,1,6,0,0,0,0,0],"split_type":[0,0,0,0,0,0,0,0,0,0,0],"sum_hessian":[2.405375E1,1.4741738E1,9.312011E0,8.669005E0,6.072732E0,6.124881E0,3.1871297E0,3.0571637E0,3.0155683E0,3.0483367E0,3.0765443E0],"tree_param":{"num_deleted":"0","num_feature":"8","num_nodes":"11","size_leaf_vector":"1"}},{"base_weights":[-3.148065E-3,-7.190056E-1,1.2089238E0,-9.994801E-2,-1.9105023E-1,7.4589354E-1,1.731721E-1,-4.530042E-2,1.4610601E-2,1.1140048E-1,2.0670282E-2],"categories":[],"categories_nodes":[],"categories_segments":[],"categories_sizes":[],"default_left":[0,0,0,0,0,0,0,0,0,0,0],"id":4,"left_children":[1,3,5,-1,7,9,-1,-1,-1,-1,-1],"loss_changes":[2.4618313E1,2.4500227E0,1.2587976E0,0E0,7.2186595E-1,1.2273917E0,0E0,0E0,0E0,0E0,0E0],"parents":[2147483647,0,0,1,1,2,2,4,4,5,5],"right_children":[2,4,6,-1,8,10,-1,-1,-1,-1,-1],"split_conditions":[1.28E2,3.24E1,8.6E1,-9.994801E-2,2.77E-1,1.4E2,1.731721E-1,-4.530042E-2,1.4610601E-2,1.1140048E-1,2.0670282E-2],"split_indices":[1,5,2,0,6,4,0,0,0,0,0],"split_type":[0,0,0,0,0,0,0,0,0,0,0],"sum_hessian":[2.6371084E1,1.6835012E1,9.536072E0,1.0411057E1,6.423955E0,6.3440332E0,3.1920383E0,3.4217887E0,3.002166E0,3.1365852E0,3.207448E0],"tree_param":{"num_deleted":"0","num_feature":"8","num_nodes":"11","size_leaf_vector":"1"}},{"base_weights":[-1.3757156E-1,-8.0696934E-1,4.321607E-1,-9.87327E-2,-2.3146406E-2,-1.6269987E-2,1.3408878E-1,-3.350239E-1,5.965973E-2,-5.0160713E-2,-1.0035904E-2],"categories":[],"categories_nodes":[],"categories_segments":[],"categories_sizes":[],"default_left":[0,0,0,0,0,0,0,0,0,0,0],"id":5,"left_children":[1,3,5,-1,-1,7,-1,9,-1,-1,-1],"loss_changes":[1.07579775E1,1.11024E0,6.2956133E0,0E0,0E0,2.4067345E0,0E0,2.6520157E-1,0E0,0E0,0E0],"parents":[2147483647,0,0,1,1,2,2,5,5,7,7],"right_children":[2,4,6,-1,-1,8,-1,10,-1,-1,-1],"split_conditions":[2.9E1,3.48E1,1.25E2,-9.87327E-2,-2.3146406E-2,4.3E1,1.3408878E-1,3.14E-1,5.965973E-2,-5.0160713E-2,-1.0035904E-2],"split_indices":[7,5,4,0,0,7,0,6,0,0,0],"split_type":[0,0,0,0,0,0,0,0,0,0,0],"sum_hessian":[2.6293789E1,1.189801E1,1.4395778E1,8.514172E0,3.3838394E0,1.0296732E1,4.0990458E0,7.0719447E0,3.2247875E0,3.4706578E0,3.6012871E0],"tree_param":{"num_deleted":"0","num_feature":"8","num_nodes":"11","size_leaf_vector":"1"}},{"base_weights":[-3.709776E-2,-5.2036035E-1,9.490957E-1,-1.09966315E-1,-2.146831E-1,2.8439302E-2,1.4654902E-1,-8.381716E-2,7.3541634E-2,-4.057924E-2,5.8655746E-2],"categories":[],"categories_nodes":[],"categories_segments":[],"categories_sizes":[],"default_left":[0,0,0,0,0,0,0,0,0,0,0],"id":6,"left_children":[1,3,5,-1,7,-1,-1,-1,9,-1,-1],"loss_changes":[1.4027232E1,3.2529888E0,2.9102755E0,0E0,2.6027203E0,0E0,0E0,0E0,2.842014E0,0E0,0E0],"parents":[2147483647,0,0,1,1,2,2,4,4,8,8],"right_children":[2,4,6,-1,8,-1,-1,-1,10,-1,-1],"split_conditions":[1.33E2,2.4E1,3.8E1,-1.09966315E-1,2.79E1,2.8439302E-2,1.4654902E-1,-8.381716E-2,3.42E-1,-4.057924E-2,5.8655746E-2],"split_indices":[1,7,7,0,5,0,0,0,6,0,0],"split_type":[0,0,0,0,0,0,0,0,0,0,0],"sum_hessian":[2.7396204E1,1.8703377E1,8.692827E0,5.563076E0,1.3140301E1,4.478645E0,4.214183E0,3.5509112E0,9.58939E0,5.0654836E0,4.5239058E0],"tree_param":{"num_deleted":"0","num_feature":"8","num_nodes":"11","size_leaf_vector":"1"}},{"base_weights":[7.431727E-2,-5.4439783E-1,9.5709E-1,-1.0197582E-1,-2.890229E-1,1.2299452E0,1.737022E-2,-5.882878E-2,-3.6572877E-2,6.5418914E-2,1.6168591E-1,1.7835451E-2,-2.2196218E-2],"categories":[],"categories_nodes":[],"categories_segments":[],"categories_sizes":[],"default_left":[0,0,0,0,0,0,0,0,0,0,0,0,0],"id":7,"left_children":[1,3,5,-1,7,9,-1,-1,11,-1,-1,-1,-1],"loss_changes":[1.485786E1,1.656095E0,2.1758728E0,0E0,8.737059E-1,7.5263405E-1,0E0,0E0,3.3817875E-1,0E0,0E0,0E0,0E0],"parents":[2147483647,0,0,1,1,2,2,4,4,5,5,8,8],"right_children":[2,4,6,-1,8,10,-1,-1,12,-1,-1,-1,-1],"split_conditions":[1.28E2,2.4E1,2.4E2,-1.0197582E-1,1.07E2,1.48E2,1.737022E-2,-5.882878E-2,2.87E-1,6.5418914E-2,1.6168591E-1,1.7835451E-2,-2.2196218E-2],"split_indices":[1,7,4,0,1,1,0,0,6,0,0,0,0],"split_type":[0,0,0,0,0,0,0,0,0,0,0,0,0],"sum_hessian":[2.5249027E1,1.507007E1,1.0178957E1,4.2205915E0,1.0849479E1,7.126687E0,3.05227E0,4.3557158E0,6.493763E0,3.9458141E0,3.180873E0,3.0248778E0,3.4688854E0],"tree_param":{"num_deleted":"0","num_feature":"8","num_nodes":"13","size_leaf_vector":"1"}},{"base_weights":[1.01336844E-1,-4.6401963E-1,8.9828455E-1,-6.383368E-1,2.0235842E-2,1.132756E-1,2.3756778E-2,-3.1332757E-2,-7.654135E-1,-3.925468E-2,-9.3389235E-2],"categories":[],"categories_nodes":[],"categories_segments":[],"categories_sizes":[],"default_left":[0,0,0,0,0,0,0,0,0,0,0],"id":8,"left_children":[1,3,5,7,-1,-1,-1,-1,9,-1,-1],"loss_changes":[1.2014778E1,1.9549928E0,1.4386044E0,2.8468275E-1,0E0,0E0,0E0,0E0,1.6340446E-1,0E0,0E0],"parents":[2147483647,0,0,1,1,2,2,3,3,8,8],"right_children":[2,4,6,8,-1,-1,-1,-1,10,-1,-1],"split_conditions":[1.33E2,6.14E-1,3.67E1,2E0,2.0235842E-2,1.132756E-1,2.3756778E-2,-3.1332757E-2,2.6E-1,-3.925468E-2,-9.3389235E-2],"split_indices":[1,6,5,0,0,0,0,0,6,0,0],"split_type":[0,0,0,0,0,0,0,0,0,0,0],"sum_hessian":[2.4741228E1,1.4718E1,1.0023228E1,1.1699595E1,3.0184045E0,6.870595E0,3.1526327E0,4.2627974E0,7.436798E0,3.3508513E0,4.0859466E0],"tree_param":{"num_deleted":"0","num_feature":"8","num_nodes":"11","size_leaf_vector":"1"}},{"base_weights":[8.426064E-2,-4.8264807E-1,6.066685E-1,-9.585165E-2,-2.2107002E-1,2.570102E-1,1.3125084E-1,-5.751529E-2,2.042481E-2,6.6507345E-1,-5.5153687E-2,8.436742E-2,3.3167064E-2],"categories":[],"categories_nodes":[],"categories_segments":[],"categories_sizes":[],"default_left":[0,0,0,0,0,0,0,0,0,0,0,0,0],"id":9,"left_children":[1,3,5,-1,7,9,-1,-1,-1,11,-1,-1,-1],"loss_changes":[8.091142E0,1.4293172E0,3.1541376E0,0E0,1.5945239E0,3.8984156E0,0E0,0E0,0E0,1.707623E-1,0E0,0E0,0E0],"parents":[2147483647,0,0,1,1,2,2,4,4,5,5,9,9],"right_children":[2,4,6,-1,8,10,-1,-1,-1,12,-1,-1,-1],"split_conditions":[1.22E2,2.4E1,1.69E2,-9.585165E-2,1.07E2,1.85E2,1.3125084E-1,-5.751529E-2,2.042481E-2,4E0,-5.5153687E-2,8.436742E-2,3.3167064E-2],"split_indices":[1,3,1,0,1,4,0,0,0,0,0,0,0],"split_type":[0,0,0,0,0,0,0,0,0,0,0,0,0],"sum_hessian":[2.533171E1,1.2184928E1,1.3146783E1,3.3770194E0,8.807908E0,9.70383E0,3.4429536E0,4.6142206E0,4.193688E0,6.566997E0,3.1368325E0,3.2796333E0,3.2873635E0],"tree_param":{"num_deleted":"0","num_feature":"8","num_nodes":"13","size_leaf_vector":"1"}},{"base_weights":[-4.238228E-4,-8.926856E-2,3.841761E-1,-2.961002E-1,7.730857E-1,-6.3658215E-2,1.6577173E-2,1.0669062E0,2.6813752E-3,4.009923E-2,1.4512633E-1],"categories":[],"categories_nodes":[],"categories_segments":[],"categories_sizes":[],"default_left":[0,0,0,0,0,0,0,0,0,0,0],"id":10,"left_children":[1,-1,3,5,7,-1,-1,9,-1,-1,-1],"loss_changes":[9.51064E0,0E0,5.3528967E0,1.3270954E0,2.7341166E0,0E0,0E0,1.7253132E0,0E0,0E0,0E0],"parents":[2147483647,0,0,2,2,3,3,4,4,7,7],"right_children":[2,-1,4,6,8,-1,-1,10,-1,-1,-1],"split_conditions":[2.99E1,-8.926856E-2,1.18E2,3.49E-1,3.67E1,-6.3658215E-2,1.6577173E-2,1.38E2,2.6813752E-3,4.009923E-2,1.4512633E-1],"split_indices":[5,0,1,6,5,0,0,1,0,0,0],"split_type":[0,0,0,0,0,0,0,0,0,0,0],"sum_hessian":[2.5715204E1,7.347687E0,1.8367517E1,6.767872E0,1.1599646E1,3.678152E0,3.0897195E0,8.014534E0,3.5851119E0,3.6807566E0,4.333777E0],"tree_param":{"num_deleted":"0","num_feature":"8","num_nodes":"11","size_leaf_vector":"1"}},{"base_weights":[-6.1402403E-2,-7.4809E-1,2.5105885E-1,-9.102733E-2,-3.897696E-2,5.1259744E-1,-5.4309577E-2,-2.5177602E-2,8.0454755E-1,1.0435963E-1,2.5444785E-2],"categories":[],"categories_nodes":[],"categories_segments":[],"categories_sizes":[],"default_left":[0,0,0,0,0,0,0,0,0,0,0],"id":11,"left_children":[1,3,5,-1,-1,7,-1,-1,9,-1,-1],"loss_changes":[5.866552E0,1.4079952E-1,4.2119393E0,0E0,0E0,3.4966238E0,0E0,0E0,1.1704059E0,0E0,0E0],"parents":[2147483647,0,0,1,1,2,2,5,5,8,8],"right_children":[2,4,6,-1,-1,8,-1,-1,10,-1,-1],"split_conditions":[2.99E1,7E1,3.81E1,-9.102733E-2,-3.897696E-2,1.08E2,-5.4309577E-2,-2.5177602E-2,1.48E2,1.0435963E-1,2.5444785E-2],"split_indices":[5,2,5,0,0,1,0,0,4,0,0],"split_type":[0,0,0,0,0,0,0,0,0,0,0],"sum_hessian":[2.5466492E1,7.52807E0,1.7938421E1,4.121986E0,3.4060845E0,1.3761042E1,4.1773806E0,3.841353E0,9.919688E0,6.2894645E0,3.6302235E0],"tree_param":{"num_deleted":"0","num_feature":"8","num_nodes":"11","size_leaf_vector":"1"}},{"base_weights":[1.5116295E-2,-1.01293914E-1,3.0319762E-1,-2.8655502E-1,7.291783E-1,2.8516861E-4,-4.9900822E-2,3.8625E-1,1.06632315E-1,5.1196843E-2,1.7467884E-2],"categories":[],"categories_nodes":[],"categories_segments":[],"categories_sizes":[],"default_left":[0,0,0,0,0,0,0,0,0,0,0],"id":12,"left_children":[1,-1,3,5,7,-1,-1,9,-1,-1,-1],"loss_changes":[7.3097777E0,0E0,5.042177E0,5.4165125E-1,9.122286E-1,0E0,0E0,1.0328853E-1,0E0,0E0,0E0],"parents":[2147483647,0,0,2,2,3,3,4,4,7,7],"right_children":[2,-1,4,6,8,-1,-1,10,-1,-1,-1],"split_conditions":[2.4E1,-1.01293914E-1,1.22E2,4E0,1.44E2,2.8516861E-4,-4.9900822E-2,7.4E1,1.06632315E-1,5.1196843E-2,1.7467884E-2],"split_indices":[7,0,1,0,1,0,0,2,0,0,0],"split_type":[0,0,0,0,0,0,0,0,0,0,0],"sum_hessian":[2.264456E1,4.405786E0,1.8238775E1,7.7862873E0,1.0452487E1,3.7138312E0,4.072456E0,6.2455006E0,4.206987E0,3.026985E0,3.2185156E0],"tree_param":{"num_deleted":"0","num_feature":"8","num_nodes":"11","size_leaf_vector":"1"}},{"base_weights":[-1.0029057E-2,-3.5000575E-1,5.4570836E-1,-5.915393E-1,4.383632E-2,8.647113E-2,1.5947869E-3,-7.979614E-2,-4.2078078E-1,-6.4591686E-3,-5.9186954E-2],"categories":[],"categories_nodes":[],"categories_segments":[],"categories_sizes":[],"default_left":[0,0,0,0,0,0,0,0,0,0,0],"id":13,"left_children":[1,3,5,7,-1,-1,-1,-1,9,-1,-1],"loss_changes":[4.86025E0,3.2950015E0,1.6374388E0,1.0938883E-1,0E0,0E0,0E0,0E0,5.118884E-1,0E0,0E0],"parents":[2147483647,0,0,1,1,2,2,3,3,8,8],"right_children":[2,4,6,8,-1,-1,-1,-1,10,-1,-1],"split_conditions":[1.33E2,6.27E-1,3.48E1,2.32E-1,4.383632E-2,8.647113E-2,1.5947869E-3,-7.979614E-2,2.85E-1,-6.4591686E-3,-5.9186954E-2],"split_indices":[1,6,5,6,0,0,0,0,6,0,0],"split_type":[0,0,0,0,0,0,0,0,0,0,0],"sum_hessian":[2.3713158E1,1.4942291E1,8.770866E0,1.16291275E1,3.3131638E0,5.079752E0,3.6911144E0,3.6019082E0,8.02722E0,3.0516121E0,4.9756074E0],"tree_param":{"num_deleted":"0","num_feature":"8","num_nodes":"11","size_leaf_vector":"1"}},{"base_weights":[2.6041884E-2,-3.458357E-1,7.2581017E-1,-8.652156E-2,5.602388E-2,1.0160629E-1,2.1791724E-2,-6.121989E-2,4.9356908E-2],"categories":[],"categories_nodes":[],"categories_segments":[],"categories_sizes":[],"default_left":[0,0,0,0,0,0,0,0,0],"id":14,"left_children":[1,3,5,-1,7,-1,-1,-1,-1],"loss_changes":[6.4176054E0,3.4194703E0,1.0383945E0,0E0,3.2390523E0,0E0,0E0,0E0,0E0],"parents":[2147483647,0,0,1,1,2,2,4,4],"right_children":[2,4,6,-1,8,-1,-1,-1,-1],"split_conditions":[3.8E1,3.14E-1,7E0,-8.652156E-2,3.05E1,1.0160629E-1,2.1791724E-2,-6.121989E-2,4.9356908E-2],"split_indices":[7,6,0,0,5,0,0,0,0],"split_type":[0,0,0,0,0,0,0,0,0],"sum_hessian":[2.269688E1,1.5150984E1,7.5458956E0,6.106134E0,9.044849E0,4.1650763E0,3.3808193E0,3.4210405E0,5.6238093E0],"tree_param":{"num_deleted":"0","num_feature":"8","num_nodes":"9","size_leaf_vector":"1"}},{"base_weights":[-7.540137E-2,-7.940809E-2,2.376634E-1,-2.6114969E-2,5.2777034E-1,7.3755014E-1,7.0096664E-3,9.7875975E-2,3.263296E-2],"categories":[],"categories_nodes":[],"categories_segments":[],"categories_sizes":[],"default_left":[0,0,0,0,0,0,0,0,0],"id":15,"left_children":[1,-1,3,-1,5,7,-1,-1,-1],"loss_changes":[5.343531E0,0E0,2.5586178E0,0E0,9.95595E-1,4.1209936E-1,0E0,0E0,0E0],"parents":[2147483647,0,0,2,2,4,4,5,5],"right_children":[2,-1,4,-1,6,8,-1,-1,-1],"split_conditions":[2.99E1,-7.940809E-2,1.19E2,-2.6114969E-2,1.9E2,3E0,7.0096664E-3,9.7875975E-2,3.263296E-2],"split_indices":[5,0,1,0,4,0,0,0,0],"split_type":[0,0,0,0,0,0,0,0,0],"sum_hessian":[2.1910944E1,6.1822767E0,1.5728667E1,5.820555E0,9.908112E0,6.374685E0,3.533427E0,3.1480184E0,3.2266665E0],"tree_param":{"num_deleted":"0","num_feature":"8","num_nodes":"9","size_leaf_vector":"1"}},{"base_weights":[-1.3714072E-1,-4.95667E-1,5.2006954E-1,-9.428357E-2,-1.8742208E-1,-2.7988418E-3,9.13806E-2,-6.994238E-2,1.0523425E-1,4.4014756E-2,-3.0996948E-2],"categories":[],"categories_nodes":[],"categories_segments":[],"categories_sizes":[],"default_left":[0,0,0,0,0,0,0,0,0,0,0],"id":16,"left_children":[1,3,5,-1,7,-1,-1,-1,9,-1,-1],"loss_changes":[5.856283E0,2.012896E0,1.9406288E0,0E0,1.6696305E0,0E0,0E0,0E0,1.1997671E0,0E0,0E0],"parents":[2147483647,0,0,1,1,2,2,4,4,8,8],"right_children":[2,4,6,-1,8,-1,-1,-1,10,-1,-1],"split_conditions":[3.8E1,3.14E-1,3.29E1,-9.428357E-2,3.05E1,-2.7988418E-3,9.13806E-2,-6.994238E-2,3.65E1,4.4014756E-2,-3.0996948E-2],"split_indices":[7,6,5,0,5,0,0,0,5,0,0],"split_type":[0,0,0,0,0,0,0,0,0,0,0],"sum_hessian":[2.2760002E1,1.4885405E1,7.8745966E0,5.2339E0,9.6515045E0,3.6804888E0,4.1941075E0,3.0047626E0,6.646742E0,3.6458418E0,3.0008998E0],"tree_param":{"num_deleted":"0","num_feature":"8","num_nodes":"11","size_leaf_vector":"1"}},{"base_weights":[3.3041153E-2,-9.1556534E-2,2.4705507E-1,-3.691372E-2,4.48425E-1,7.404126E-1,-2.1207603E-2,2.6010757E-2,9.387721E-2],"categories":[],"categories_nodes":[],"categories_segments":[],"categories_sizes":[],"default_left":[0,0,0,0,0,0,0,0,0],"id":17,"left_children":[1,-1,3,-1,5,7,-1,-1,-1],"loss_changes":[4.6460648E0,0E0,2.467392E0,0E0,2.940608E0,7.3059654E-1,0E0,0E0,0E0],"parents":[2147483647,0,0,2,2,4,4,5,5],"right_children":[2,-1,4,-1,6,8,-1,-1,-1],"split_conditions":[2.4E1,-9.1556534E-2,2.99E1,-3.691372E-2,3.67E1,3.1E1,-2.1207603E-2,2.6010757E-2,9.387721E-2],"split_indices":[7,0,5,0,5,7,0,0,0],"split_type":[0,0,0,0,0,0,0,0,0],"sum_hessian":[2.077115E1,3.2201085E0,1.755104E1,4.1177106E0,1.3433331E1,9.231415E0,4.201916E0,3.3736932E0,5.8577213E0],"tree_param":{"num_deleted":"0","num_feature":"8","num_nodes":"9","size_leaf_vector":"1"}},{"base_weights":[1.334455E-1,-8.405026E-2,4.2849863E-1,-2.3890689E-2,6.434287E-1,3.4339198E-1,1.0986723E-1,-1.1509304E-2,5.9005648E-2],"categories":[],"categories_nodes":[],"categories_segments":[],"categories_sizes":[],"default_left":[0,0,0,0,0,0,0,0,0],"id":18,"left_children":[1,-1,3,-1,5,7,-1,-1,-1],"loss_changes":[6.7983923E0,0E0,2.7152894E0,0E0,1.5046964E0,1.1716298E0,0E0,0E0,0E0],"parents":[2147483647,0,0,2,2,4,4,5,5],"right_children":[2,-1,4,-1,6,8,-1,-1,-1],"split_conditions":[2.4E1,-8.405026E-2,2.99E1,-2.3890689E-2,4E1,1.18E2,1.0986723E-1,-1.1509304E-2,5.9005648E-2],"split_indices":[7,0,5,0,7,1,0,0,0],"split_type":[0,0,0,0,0,0,0,0,0],"sum_hessian":[2.1404282E1,4.546844E0,1.6857437E1,4.079166E0,1.2778271E1,8.759478E0,4.018793E0,3.250692E0,5.508786E0],"tree_param":{"num_deleted":"0","num_feature":"8","num_nodes":"9","size_leaf_vector":"1"}},{"base_weights":[-1.5589761E-2,-5.716179E-2,2.2117347E-1,-1.6421519E-1,5.11419E-1,-4.3140434E-2,1.8184692E-2,1.3806211E-2,8.345793E-2],"categories":[],"categories_nodes":[],"categories_segments":[],"categories_sizes":[],"default_left":[0,0,0,0,0,0,0,0,0],"id":19,"left_children":[1,-1,3,5,7,-1,-1,-1,-1],"loss_changes":[3.0083225E0,0E0,1.8820267E0,7.869423E-1,1.0203819E0,0E0,0E0,0E0,0E0],"parents":[2147483647,0,0,2,2,3,3,4,4],"right_children":[2,-1,4,6,8,-1,-1,-1,-1],"split_conditions":[2.99E1,-5.716179E-2,1.24E2,3.42E-1,5E0,-4.3140434E-2,1.8184692E-2,1.3806211E-2,8.345793E-2],"split_indices":[5,0,1,6,0,0,0,0,0],"split_type":[0,0,0,0,0,0,0,0,0],"sum_hessian":[2.0891083E1,5.816644E0,1.5074439E1,6.6623607E0,8.412078E0,3.6204548E0,3.0419059E0,4.565102E0,3.8469758E0],"tree_param":{"num_deleted":"0","num_feature":"8","num_nodes":"9","size_leaf_vector":"1"}},{"base_weights":[-7.6905168E-3,-2.3328967E-1,7.734801E-2,-6.3366556E-1,3.2547796E-1,-9.283838E-2,-3.773033E-1,6.68418E-2,-3.675983E-3,6.7158476E-3,-7.027368E-2],"categories":[],"categories_nodes":[],"categories_segments":[],"categories_sizes":[],"default_left":[0,0,0,0,0,0,0,0,0,0,0],"id":20,"left_children":[1,3,-1,5,7,-1,9,-1,-1,-1,-1],"loss_changes":[4.032773E0,4.172623E0,0E0,4.5573235E-1,1.0260136E0,0E0,1.1160902E0,0E0,0E0,0E0,0E0],"parents":[2147483647,0,0,1,1,3,3,4,4,6,6],"right_children":[2,4,-1,6,8,-1,10,-1,-1,-1,-1],"split_conditions":[4.3E1,3.2E1,7.734801E-2,2.99E1,7E1,-9.283838E-2,3.28E1,6.68418E-2,-3.675983E-3,6.7158476E-3,-7.027368E-2],"split_indices":[7,3,0,5,2,0,5,0,0,0,0],"split_type":[0,0,0,0,0,0,0,0,0,0,0],"sum_hessian":[2.0859482E1,1.672944E1,4.130041E0,9.667972E0,7.0614696E0,3.278072E0,6.3898997E0,3.1931674E0,3.8683019E0,3.036468E0,3.3534317E0],"tree_param":{"num_deleted":"0","num_feature":"8","num_nodes":"11","size_leaf_vector":"1"}},{"base_weights":[-1.2021583E-1,-4.7569838E-1,4.5053902E-1,-8.592447E-2,-1.828836E-1,-2.321244E-3,9.333285E-2,-4.6874277E-2,3.0968139E-2],"categories":[],"categories_nodes":[],"categories_segments":[],"categories_sizes":[],"default_left":[0,0,0,0,0,0,0,0,0],"id":21,"left_children":[1,3,5,-1,7,-1,-1,-1,-1],"loss_changes":[4.6968875E0,1.4264495E0,2.0785134E0,0E0,1.4499053E0,0E0,0E0,0E0,0E0],"parents":[2147483647,0,0,1,1,2,2,4,4],"right_children":[2,4,6,-1,8,-1,-1,-1,-1],"split_conditions":[3.8E1,3.14E-1,1.31E2,-8.592447E-2,1.34E2,-2.321244E-3,9.333285E-2,-4.6874277E-2,3.0968139E-2],"split_indices":[7,6,1,0,1,0,0,0,0],"split_type":[0,0,0,0,0,0,0,0,0],"sum_hessian":[2.1093214E1,1.3100432E1,7.9927816E0,4.834061E0,8.266372E0,4.5146084E0,3.478173E0,5.2613316E0,3.0050402E0],"tree_param":{"num_deleted":"0","num_feature":"8","num_nodes":"9","size_leaf_vector":"1"}},{"base_weights":[-9.202935E-2,-2.91656E-1,7.528498E-2,-7.0500955E-2,1.08474806E-1,-1.0217504E-2,3.964637E-2],"categories":[],"categories_nodes":[],"categories_segments":[],"categories_sizes":[],"default_left":[0,0,0,0,0,0,0],"id":22,"left_children":[1,3,-1,-1,5,-1,-1],"loss_changes":[3.5723028E0,2.8551443E0,0E0,0E0,6.10956E-1,0E0,0E0],"parents":[2147483647,0,0,1,1,4,4],"right_children":[2,4,-1,-1,6,-1,-1],"split_conditions":[1.58E2,3.1E1,7.528498E-2,-7.0500955E-2,8E1,-1.0217504E-2,3.964637E-2],"split_indices":[1,7,0,0,2,0,0],"split_type":[0,0,0,0,0,0,0],"sum_hessian":[1.8878584E1,1.5800147E1,3.0784369E0,7.396881E0,8.403266E0,5.22595E0,3.1773162E0],"tree_param":{"num_deleted":"0","num_feature":"8","num_nodes":"7","size_leaf_vector":"1"}},{"base_weights":[4.265865E-2,-2.1489312E-1,4.6720782E-1,-4.0289116E-1,3.507441E-2,6.558314E-2,1.0001588E-2,-7.103402E-2,-1.576303E-1,-3.7405316E-2,1.0754275E-2],"categories":[],"categories_nodes":[],"categories_segments":[],"categories_sizes":[],"default_left":[0,0,0,0,0,0,0,0,0,0,0],"id":23,"left_children":[1,3,5,7,-1,-1,-1,-1,9,-1,-1],"loss_changes":[2.4362445E0,1.6280596E0,5.1489806E-1,7.1439195E-1,0E0,0E0,0E0,0E0,4.6383026E-1,0E0,0E0],"parents":[2147483647,0,0,1,1,2,2,3,3,8,8],"right_children":[2,4,6,8,-1,-1,-1,-1,10,-1,-1],"split_conditions":[1.31E2,3.8E1,3.5E1,2.99E1,3.507441E-2,6.558314E-2,1.0001588E-2,-7.103402E-2,3.49E-1,-3.7405316E-2,1.0754275E-2],"split_indices":[1,3,5,5,0,0,0,0,6,0,0],"split_type":[0,0,0,0,0,0,0,0,0,0,0],"sum_hessian":[2.0362469E1,1.2981254E1,7.3812146E0,9.958963E0,3.0222898E0,4.3569913E0,3.0242233E0,3.5777624E0,6.3812013E0,3.2874916E0,3.0937097E0],"tree_param":{"num_deleted":"0","num_feature":"8","num_nodes":"11","size_leaf_vector":"1"}},{"base_weights":[-7.848039E-2,-3.2468215E-1,8.9952424E-2,-5.765443E-1,2.4717774E-2,-7.832215E-1,2.2883555E-3,-4.6948187E-2,-9.69478E-2],"categories":[],"categories_nodes":[],"categories_segments":[],"categories_sizes":[],"default_left":[0,0,0,0,0,0,0,0,0],"id":24,"left_children":[1,3,-1,5,-1,7,-1,-1,-1],"loss_changes":[5.450003E0,2.7131486E0,0E0,1.5901651E0,0E0,9.796858E-2,0E0,0E0,0E0],"parents":[2147483647,0,0,1,1,3,3,5,5],"right_children":[2,4,-1,6,-1,8,-1,-1,-1],"split_conditions":[4.3E1,1.35E2,8.9952424E-2,3.8E1,2.4717774E-2,1.09E2,2.2883555E-3,-4.6948187E-2,-9.69478E-2],"split_indices":[7,1,0,3,0,1,0,0,0],"split_type":[0,0,0,0,0,0,0,0,0],"sum_hessian":[2.0421236E1,1.6847965E1,3.5732718E0,1.1690826E1,5.157139E0,8.465414E0,3.2254121E0,4.4649878E0,4.0004263E0],"tree_param":{"num_deleted":"0","num_feature":"8","num_nodes":"9","size_leaf_vector":"1"}},{"base_weights":[-5.8750078E-2,-5.7802576E-1,3.074433E-1,-8.777287E-2,2.9301742E-4,7.530653E-2,7.418995E-2,-4.3896105E-2,3.9502125E-2],"categories":[],"categories_nodes":[],"categories_segments":[],"categories_sizes":[],"default_left":[0,0,0,0,0,0,0,0,0],"id":25,"left_children":[1,3,5,-1,-1,7,-1,-1,-1],"loss_changes":[4.0849423E0,1.5425844E0,1.2252433E0,0E0,0E0,1.7176324E0,0E0,0E0,0E0],"parents":[2147483647,0,0,1,1,2,2,5,5],"right_children":[2,4,6,-1,-1,8,-1,-1,-1],"split_conditions":[1.19E2,4.63E-1,1.48E2,-8.777287E-2,2.9301742E-4,3.16E1,7.418995E-2,-4.3896105E-2,3.9502125E-2],"split_indices":[1,6,1,0,0,5,0,0,0],"split_type":[0,0,0,0,0,0,0,0,0],"sum_hessian":[1.9547583E1,7.84484E0,1.1702744E1,4.83812E0,3.0067198E0,8.392066E0,3.3106775E0,3.0741906E0,5.317875E0],"tree_param":{"num_deleted":"0","num_feature":"8","num_nodes":"9","size_leaf_vector":"1"}},{"base_weights":[5.877425E-2,-4.9628943E-2,2.705094E-1,-9.713067E-2,7.4017696E-2,3.706547E-2,-7.047977E-2],"categories":[],"categories_nodes":[],"categories_segments":[],"categories_sizes":[],"default_left":[0,0,0,0,0,0,0],"id":26,"left_children":[1,-1,3,5,-1,-1,-1],"loss_changes":[2.4022484E0,0E0,2.5956726E0,2.8430545E0,0E0,0E0,0E0],"parents":[2147483647,0,0,2,2,3,3],"right_children":[2,-1,4,6,-1,-1,-1],"split_conditions":[1.07E2,-4.9628943E-2,3E1,3.31E1,7.4017696E-2,3.706547E-2,-7.047977E-2],"split_indices":[1,0,3,5,0,0,0],"split_type":[0,0,0,0,0,0,0],"sum_hessian":[1.8297754E1,4.681441E0,1.3616313E1,8.082665E0,5.5336475E0,4.787364E0,3.2953017E0],"tree_param":{"num_deleted":"0","num_feature":"8","num_nodes":"7","size_leaf_vector":"1"}},{"base_weights":[1.8557304E-1,-1.12970054E-1,6.959466E-2,-3.9653163E-2,1.3085358E-1,3.26063E-2,-9.7294515E-3],"categories":[],"categories_nodes":[],"categories_segments":[],"categories_sizes":[],"default_left":[0,0,0,0,0,0,0],"id":27,"left_children":[1,3,-1,-1,5,-1,-1],"loss_changes":[2.9569938E0,9.354319E-1,0E0,0E0,3.7122512E-1,0E0,0E0],"parents":[2147483647,0,0,1,1,4,4],"right_children":[2,4,-1,-1,6,-1,-1],"split_conditions":[1.34E2,3.1E1,6.959466E-2,-3.9653163E-2,1.1E2,3.26063E-2,-9.7294515E-3],"split_indices":[1,7,0,0,1,0,0],"split_type":[0,0,0,0,0,0,0],"sum_hessian":[1.7890865E1,1.1779245E1,6.1116195E0,5.156289E0,6.6229563E0,3.3378406E0,3.2851157E0],"tree_param":{"num_deleted":"0","num_feature":"8","num_nodes":"7","size_leaf_vector":"1"}},{"base_weights":[-1.0841954E-1,-7.2172865E-2,1.1485584E-1,-3.0905136E-1,4.5816746E-1,2.5523964E-2,-7.861206E-2,8.743819E-2,3.5207376E-3],"categories":[],"categories_nodes":[],"categories_segments":[],"categories_sizes":[],"default_left":[0,0,0,0,0,0,0,0,0],"id":28,"left_children":[1,-1,3,5,7,-1,-1,-1,-1],"loss_changes":[2.8296459E0,0E0,2.4072192E0,2.2367613E0,1.5543733E0,0E0,0E0,0E0,0E0],"parents":[2147483647,0,0,2,2,3,3,4,4],"right_children":[2,-1,4,6,8,-1,-1,-1,-1],"split_conditions":[2.99E1,-7.2172865E-2,3.06E-1,3.51E1,4.99E-1,2.5523964E-2,-7.861206E-2,8.743819E-2,3.5207376E-3],"split_indices":[5,0,6,5,6,0,0,0,0],"split_type":[0,0,0,0,0,0,0,0,0],"sum_hessian":[1.9058527E1,4.490696E0,1.4567831E1,6.563402E0,8.004429E0,3.2198527E0,3.3435495E0,3.4964507E0,4.507978E0],"tree_param":{"num_deleted":"0","num_feature":"8","num_nodes":"9","size_leaf_vector":"1"}},{"base_weights":[-5.465813E-2,-7.4926004E-2,1.2934987E-1,6.826214E-2,-7.7867225E-2,2.679192E-1,-5.079148E-2,-7.670834E-3,5.383878E-2],"categories":[],"categories_nodes":[],"categories_segments":[],"categories_sizes":[],"default_left":[0,0,0,0,0,0,0,0,0],"id":29,"left_children":[1,-1,3,-1,5,7,-1,-1,-1],"loss_changes":[2.557287E0,0E0,1.8956658E0,0E0,2.008226E0,7.527949E-1,0E0,0E0,0E0],"parents":[2147483647,0,0,2,2,4,4,5,5],"right_children":[2,-1,4,-1,6,8,-1,-1,-1],"split_conditions":[2.4E1,-7.4926004E-2,2E0,6.826214E-2,3.4E1,2.99E1,-5.079148E-2,-7.670834E-3,5.383878E-2],"split_indices":[7,0,0,0,5,5,0,0,0],"split_type":[0,0,0,0,0,0,0,0,0],"sum_hessian":[1.8249868E1,3.1787372E0,1.5071132E1,3.4814355E0,1.1589696E1,6.633183E0,4.956513E0,3.2317352E0,3.4014478E0],"tree_param":{"num_deleted":"0","num_feature":"8","num_nodes":"9","size_leaf_vector":"1"}},{"base_weights":[-1.2560928E-1,-7.130673E-2,1.2755436E-2,5.2052613E-2,-2.1027859E-1,-1.617209E-2,-5.9441745E-2,-3.3040754E-2,1.9212417E-2],"categories":[],"categories_nodes":[],"categories_segments":[],"categories_sizes":[],"default_left":[0,0,0,0,0,0,0,0,0],"id":30,"left_children":[1,-1,3,-1,5,7,-1,-1,-1],"loss_changes":[1.7077843E0,0E0,2.1362793E0,0E0,9.706929E-1,7.024348E-1,0E0,0E0,0E0],"parents":[2147483647,0,0,2,2,4,4,5,5],"right_children":[2,-1,4,-1,6,8,-1,-1,-1],"split_conditions":[2.4E1,-7.130673E-2,2E0,5.2052613E-2,3.49E1,2.99E1,-5.9441745E-2,-3.3040754E-2,1.9212417E-2],"split_indices":[7,0,0,0,5,5,0,0,0],"split_type":[0,0,0,0,0,0,0,0,0],"sum_hessian":[1.9898335E1,3.001456E0,1.689688E1,4.749678E0,1.2147202E1,8.761891E0,3.38531E0,3.2590518E0,5.5028396E0],"tree_param":{"num_deleted":"0","num_feature":"8","num_nodes":"9","size_leaf_vector":"1"}},{"base_weights":[-3.7576143E-2,-3.1356174E-1,4.3285325E-1,-4.8600918E-1,7.930544E-3,6.637571E-2,8.504199E-3,-1.746169E-2,-6.70654E-2],"categories":[],"categories_nodes":[],"categories_segments":[],"categories_sizes":[],"default_left":[0,0,0,0,0,0,0,0,0],"id":31,"left_children":[1,3,5,7,-1,-1,-1,-1,-1],"loss_changes":[2.5405009E0,8.687104E-1,5.273056E-1,3.8058352E-1,0E0,0E0,0E0,0E0,0E0],"parents":[2147483647,0,0,1,1,2,2,3,3],"right_children":[2,4,6,8,-1,-1,-1,-1,-1],"split_conditions":[1.34E2,3.48E1,1.85E2,2.77E-1,7.930544E-3,6.637571E-2,8.504199E-3,-1.746169E-2,-6.70654E-2],"split_indices":[1,5,4,6,0,0,0,0,0],"split_type":[0,0,0,0,0,0,0,0,0],"sum_hessian":[1.752224E1,1.1253585E1,6.2686553E0,7.6559534E0,3.597632E0,3.221556E0,3.0470994E0,3.5741153E0,4.081838E0],"tree_param":{"num_deleted":"0","num_feature":"8","num_nodes":"9","size_leaf_vector":"1"}},{"base_weights":[8.931629E-2,-3.955892E-2,2.4608174E-1,4.5623907E-1,-2.0653544E-2,1.5138157E-2,7.328829E-2],"categories":[],"categories_nodes":[],"categories_segments":[],"categories_sizes":[],"default_left":[0,0,0,0,0,0,0],"id":32,"left_children":[1,-1,3,5,-1,-1,-1],"loss_changes":[1.6139235E0,0E0,1.5869637E0,8.191731E-1,0E0,0E0,0E0],"parents":[2147483647,0,0,2,2,3,3],"right_children":[2,-1,4,6,-1,-1,-1],"split_conditions":[2.99E1,-3.955892E-2,3.67E1,4.07E-1,-2.0653544E-2,1.5138157E-2,7.328829E-2],"split_indices":[5,0,5,6,0,0,0],"split_type":[0,0,0,0,0,0,0],"sum_hessian":[1.895064E1,4.257606E0,1.4693034E1,1.0028596E1,4.6644382E0,5.50708E0,4.521516E0],"tree_param":{"num_deleted":"0","num_feature":"8","num_nodes":"7","size_leaf_vector":"1"}},{"base_weights":[1.3608346E-2,-2.625515E-1,5.602617E-2,-7.032191E-2,-1.664357E-2,-3.381839E-2,3.800836E-2],"categories":[],"categories_nodes":[],"categories_segments":[],"categories_sizes":[],"default_left":[0,0,0,0,0,0,0],"id":33,"left_children":[1,3,-1,-1,5,-1,-1],"loss_changes":[2.9532409E0,1.400315E0,0E0,0E0,1.3260534E0,0E0,0E0],"parents":[2147483647,0,0,1,1,4,4],"right_children":[2,4,-1,-1,6,-1,-1],"split_conditions":[3.8E1,3.13E-1,5.602617E-2,-7.032191E-2,3.2E1,-3.381839E-2,3.800836E-2],"split_indices":[7,6,0,0,3,0,0],"split_type":[0,0,0,0,0,0,0],"sum_hessian":[1.7588202E1,1.2030375E1,5.557827E0,3.6427937E0,8.387581E0,4.714294E0,3.6732864E0],"tree_param":{"num_deleted":"0","num_feature":"8","num_nodes":"7","size_leaf_vector":"1"}},{"base_weights":[1.5117239E-2,-5.3034104E-2,1.9019476E-1,4.2730203E-1,-3.68023E-2,3.56647E-3,6.4811625E-2],"categories":[],"categories_nodes":[],"categories_segments":[],"categories_sizes":[],"default_left":[0,0,0,0,0,0,0],"id":34,"left_children":[1,-1,3,5,-1,-1,-1],"loss_changes":[1.901441E0,0E0,2.1438568E0,9.2793036E-1,0E0,0E0,0E0],"parents":[2147483647,0,0,2,2,3,3],"right_children":[2,-1,4,6,-1,-1,-1],"split_conditions":[2.99E1,-5.3034104E-2,3.81E1,1.19E2,-3.68023E-2,3.56647E-3,6.4811625E-2],"split_indices":[5,0,5,1,0,0,0],"split_type":[0,0,0,0,0,0,0],"sum_hessian":[1.7854664E1,3.8453145E0,1.400935E1,9.997401E0,4.011949E0,4.023252E0,5.974149E0],"tree_param":{"num_deleted":"0","num_feature":"8","num_nodes":"7","size_leaf_vector":"1"}},{"base_weights":[1.4452711E-1,-4.4581894E-2,3.4668174E-1,4.966525E-1,-1.6008697E-2,7.014681E-1,1.2204221E-2,9.048852E-2,3.1983294E-2],"categories":[],"categories_nodes":[],"categories_segments":[],"categories_sizes":[],"default_left":[0,0,0,0,0,0,0,0,0],"id":35,"left_children":[1,-1,3,5,-1,7,-1,-1,-1],"loss_changes":[2.3678694E0,0E0,1.1722285E0,7.8433466E-1,0E0,2.6330733E-1,0E0,0E0,0E0],"parents":[2147483647,0,0,2,2,3,3,5,5],"right_children":[2,-1,4,6,-1,8,-1,-1,-1],"split_conditions":[1.07E2,-4.4581894E-2,1.9E2,3.41E1,-1.6008697E-2,2.87E-1,1.2204221E-2,9.048852E-2,3.1983294E-2],"split_indices":[1,0,4,5,0,6,0,0,0],"split_type":[0,0,0,0,0,0,0,0,0],"sum_hessian":[1.7546087E1,4.168272E0,1.3377814E1,1.0338306E1,3.0395079E0,6.1198134E0,4.2184935E0,3.097648E0,3.0221653E0],"tree_param":{"num_deleted":"0","num_feature":"8","num_nodes":"9","size_leaf_vector":"1"}},{"base_weights":[-9.210233E-2,-2.592736E-1,3.627592E-2,-4.981681E-1,1.0231794E-2,-6.213786E-2,-2.2020554E-2],"categories":[],"categories_nodes":[],"categories_segments":[],"categories_sizes":[],"default_left":[0,0,0,0,0,0,0],"id":36,"left_children":[1,3,-1,5,-1,-1,-1],"loss_changes":[1.4051508E0,1.1904896E0,0E0,1.4105296E-1,0E0,0E0,0E0],"parents":[2147483647,0,0,1,1,3,3],"right_children":[2,4,-1,6,-1,-1,-1],"split_conditions":[3.9E1,3.8E1,3.627592E-2,4.66E-1,1.0231794E-2,-6.213786E-2,-2.2020554E-2],"split_indices":[3,7,0,6,0,0,0],"split_type":[0,0,0,0,0,0,0],"sum_hessian":[1.624225E1,1.219158E1,4.05067E0,7.113896E0,5.077684E0,4.0730076E0,3.0408885E0],"tree_param":{"num_deleted":"0","num_feature":"8","num_nodes":"7","size_leaf_vector":"1"}},{"base_weights":[-1.6753467E-2,-1.8186119E-1,5.543364E-2,-5.5316534E-2,-2.0956824E-2,3.183667E-2,-3.6761705E-2],"categories":[],"categories_nodes":[],"categories_segments":[],"categories_sizes":[],"default_left":[0,0,0,0,0,0,0],"id":37,"left_children":[1,3,-1,-1,5,-1,-1],"loss_changes":[1.7895514E0,8.634322E-1,0E0,0E0,1.4412553E0,0E0,0E0],"parents":[2147483647,0,0,1,1,4,4],"right_children":[2,4,-1,-1,6,-1,-1],"split_conditions":[3.9E1,2.99E1,5.543364E-2,-5.5316534E-2,3.41E1,3.183667E-2,-3.6761705E-2],"split_indices":[3,5,0,0,5,0,0],"split_type":[0,0,0,0,0,0,0],"sum_hessian":[1.6909801E1,1.3646125E1,3.263676E0,3.3886347E0,1.025749E1,5.2248425E0,5.032647E0],"tree_param":{"num_deleted":"0","num_feature":"8","num_nodes":"7","size_leaf_vector":"1"}},{"base_weights":[-2.5004061E-2,-2.804683E-1,1.6711962E-1,1.3675192E-2,-6.9489814E-2,5.703671E-2,-1.1649244E-1,1.2400889E-2,-3.2852583E-2],"categories":[],"categories_nodes":[],"categories_segments":[],"categories_sizes":[],"default_left":[0,0,0,0,0,0,0,0,0],"id":38,"left_children":[1,3,5,-1,-1,-1,7,-1,-1],"loss_changes":[9.3191785E-1,1.4979514E0,1.3151797E0,0E0,0E0,0E0,4.0997428E-1,0E0,0E0],"parents":[2147483647,0,0,1,1,2,2,6,6],"right_children":[2,4,6,-1,-1,-1,8,-1,-1],"split_conditions":[3.19E-1,3.4E1,4.99E-1,1.3675192E-2,-6.9489814E-2,5.703671E-2,3.24E1,1.2400889E-2,-3.2852583E-2],"split_indices":[6,5,6,0,0,0,5,0,0],"split_type":[0,0,0,0,0,0,0,0,0],"sum_hessian":[1.7032455E1,7.113671E0,9.918784E0,3.8787892E0,3.2348816E0,3.6780906E0,6.2406936E0,3.118567E0,3.1221266E0],"tree_param":{"num_deleted":"0","num_feature":"8","num_nodes":"9","size_leaf_vector":"1"}},{"base_weights":[-1.4930138E-1,-7.427143E-2,5.4821108E-2,2.2413762E-1,-4.2578727E-2,-1.6673518E-2,6.066673E-2],"categories":[],"categories_nodes":[],"categories_segments":[],"categories_sizes":[],"default_left":[0,0,0,0,0,0,0],"id":39,"left_children":[1,-1,3,5,-1,-1,-1],"loss_changes":[2.2577178E0,0E0,1.2794104E0,1.8078299E0,0E0,0E0,0E0],"parents":[2147483647,0,0,2,2,3,3],"right_children":[2,-1,4,6,-1,-1,-1],"split_conditions":[1.07E2,-7.427143E-2,3.81E1,3.33E1,-4.2578727E-2,-1.6673518E-2,6.066673E-2],"split_indices":[1,0,5,5,0,0,0],"split_type":[0,0,0,0,0,0,0],"sum_hessian":[1.7302828E1,3.7531931E0,1.3549635E1,1.041434E1,3.1352947E0,5.430017E0,4.984323E0],"tree_param":{"num_deleted":"0","num_feature":"8","num_nodes":"7","size_leaf_vector":"1"}},{"base_weights":[5.53949E-2,-2.9009534E-2,2.1931157E-1,3.8443172E-1,-2.0235725E-2,7.6404507E-3,7.4034154E-2],"categories":[],"categories_nodes":[],"categories_segments":[],"categories_sizes":[],"default_left":[0,0,0,0,0,0,0],"id":40,"left_children":[1,-1,3,5,-1,-1,-1],"loss_changes":[1.060976E0,0E0,9.4907916E-1,9.6708465E-1,0E0,0E0,0E0],"parents":[2147483647,0,0,2,2,3,3],"right_children":[2,-1,4,6,-1,-1,-1],"split_conditions":[2.54E-1,-2.9009534E-2,1.9E2,5.72E-1,-2.0235725E-2,7.6404507E-3,7.4034154E-2],"split_indices":[6,0,4,6,0,0,0],"split_type":[0,0,0,0,0,0,0],"sum_hessian":[1.6611275E1,5.0974693E0,1.1513806E1,8.337324E0,3.176482E0,5.12044E0,3.216884E0],"tree_param":{"num_deleted":"0","num_feature":"8","num_nodes":"7","size_leaf_vector":"1"}},{"base_weights":[3.4287408E-2,-2.2158715E-1,3.6637238E-1,8.212689E-3,-5.889995E-2,7.83376E-3,5.4559316E-2],"categories":[],"categories_nodes":[],"categories_segments":[],"categories_sizes":[],"default_left":[0,0,0,0,0,0,0],"id":41,"left_children":[1,3,5,-1,-1,-1,-1],"loss_changes":[1.6081829E0,1.2505226E0,3.8042986E-1,0E0,0E0,0E0,0E0],"parents":[2147483647,0,0,1,1,2,2],"right_children":[2,4,6,-1,-1,-1,-1],"split_conditions":[5E0,1.4E2,1.18E2,8.212689E-3,-5.889995E-2,7.83376E-3,5.4559316E-2],"split_indices":[0,4,1,0,0,0,0],"split_type":[0,0,0,0,0,0,0],"sum_hessian":[1.6970598E1,9.773085E0,7.1975126E0,5.775421E0,3.9976635E0,3.3118966E0,3.885616E0],"tree_param":{"num_deleted":"0","num_feature":"8","num_nodes":"7","size_leaf_vector":"1"}},{"base_weights":[-6.7354016E-2,-4.01664E-1,2.194767E-1,-3.253445E-3,-7.431702E-2,-1.9713227E-2,6.015255E-2,3.3097684E-2,-3.5723276E-2],"categories":[],"categories_nodes":[],"categories_segments":[],"categories_sizes":[],"default_left":[0,0,0,0,0,0,0,0,0],"id":42,"left_children":[1,3,5,-1,-1,7,-1,-1,-1],"loss_changes":[1.8371568E0,1.0821288E0,9.6804106E-1,0E0,0E0,9.9450606E-1,0E0,0E0,0E0],"parents":[2147483647,0,0,1,1,2,2,5,5],"right_children":[2,4,6,-1,-1,8,-1,-1,-1],"split_conditions":[3.1E1,7.4E1,8E1,-3.253445E-3,-7.431702E-2,4.1E1,6.015255E-2,3.3097684E-2,-3.5723276E-2],"split_indices":[7,2,2,0,0,7,0,0,0],"split_type":[0,0,0,0,0,0,0,0,0],"sum_hessian":[1.723959E1,7.7760334E0,9.463556E0,4.2632313E0,3.5128021E0,6.403136E0,3.0604208E0,3.1498048E0,3.2533307E0],"tree_param":{"num_deleted":"0","num_feature":"8","num_nodes":"9","size_leaf_vector":"1"}},{"base_weights":[-4.962915E-2,-2.4778149E-1,6.848338E-2,-5.9236344E-2,-8.7739654E-2,-3.3706855E-2,1.4029671E-2],"categories":[],"categories_nodes":[],"categories_segments":[],"categories_sizes":[],"default_left":[0,0,0,0,0,0,0],"id":43,"left_children":[1,3,-1,-1,5,-1,-1],"loss_changes":[2.7359412E0,7.5433636E-1,0E0,0E0,6.8167734E-1,0E0,0E0],"parents":[2147483647,0,0,1,1,4,4],"right_children":[2,4,-1,-1,6,-1,-1],"split_conditions":[1.57E2,2.99E1,6.848338E-2,-5.9236344E-2,3.19E-1,-3.3706855E-2,1.4029671E-2],"split_indices":[1,5,0,0,6,0,0],"split_type":[0,0,0,0,0,0,0],"sum_hessian":[1.6633162E1,1.3620968E1,3.0121942E0,3.4631805E0,1.0157787E1,4.6239495E0,5.533838E0],"tree_param":{"num_deleted":"0","num_feature":"8","num_nodes":"7","size_leaf_vector":"1"}},{"base_weights":[-1.2530424E-1,-3.5122892E-1,3.8133997E-2,1.1753548E-2,-5.2499837E-1,-6.99671E-3,-7.583502E-2],"categories":[],"categories_nodes":[],"categories_segments":[],"categories_sizes":[],"default_left":[0,0,0,0,0,0,0],"id":44,"left_children":[1,3,-1,-1,5,-1,-1],"loss_changes":[2.0759869E0,1.0599287E0,0E0,0E0,9.15679E-1,0E0,0E0],"parents":[2147483647,0,0,1,1,4,4],"right_children":[2,4,-1,-1,6,-1,-1],"split_conditions":[3.8E1,1E0,3.8133997E-2,1.1753548E-2,1.1E2,-6.99671E-3,-7.583502E-2],"split_indices":[7,0,0,0,1,0,0],"split_type":[0,0,0,0,0,0,0],"sum_hessian":[1.5966549E1,1.1254606E1,4.711942E0,3.1312602E0,8.123346E0,3.1943212E0,4.929025E0],"tree_param":{"num_deleted":"0","num_feature":"8","num_nodes":"7","size_leaf_vector":"1"}},{"base_weights":[9.432253E-2,-5.170406E-2,2.8560847E-1,4.9259344E-1,-5.5855056E-3,1.9371439E-2,7.023098E-2],"categories":[],"categories_nodes":[],"categories_segments":[],"categories_sizes":[],"default_left":[0,0,0,0,0,0,0],"id":45,"left_children":[1,-1,3,5,-1,-1,-1],"loss_changes":[2.1633503E0,0E0,1.0009308E0,4.0780306E-1,0E0,0E0,0E0],"parents":[2147483647,0,0,2,2,3,3],"right_children":[2,-1,4,6,-1,-1,-1],"split_conditions":[1.07E2,-5.170406E-2,1.4E2,3.24E1,-5.5855056E-3,1.9371439E-2,7.023098E-2],"split_indices":[1,0,4,5,0,0,0],"split_type":[0,0,0,0,0,0,0],"sum_hessian":[1.6236105E1,3.4635112E0,1.27725935E1,7.676646E0,5.0959473E0,3.9586456E0,3.718001E0],"tree_param":{"num_deleted":"0","num_feature":"8","num_nodes":"7","size_leaf_vector":"1"}},{"base_weights":[-6.1290827E-2,-2.9963112E-1,3.7038624E-2,-4.7284955E-1,2.1395914E-3,-7.665552E-2,-6.052518E-3],"categories":[],"categories_nodes":[],"categories_segments":[],"categories_sizes":[],"default_left":[0,0,0,0,0,0,0],"id":46,"left_children":[1,3,-1,5,-1,-1,-1],"loss_changes":[1.7787682E0,6.216125E-1,0E0,8.2383E-1,0E0,0E0,0E0],"parents":[2147483647,0,0,1,1,3,3],"right_children":[2,4,-1,6,-1,-1,-1],"split_conditions":[1.34E2,7.6E1,3.7038624E-2,3.28E1,2.1395914E-3,-7.665552E-2,-6.052518E-3],"split_indices":[1,2,0,5,0,0,0],"split_type":[0,0,0,0,0,0,0],"sum_hessian":[1.5210061E1,9.996578E0,5.2134833E0,6.185892E0,3.8106856E0,3.110864E0,3.0750284E0],"tree_param":{"num_deleted":"0","num_feature":"8","num_nodes":"7","size_leaf_vector":"1"}},{"base_weights":[1.406248E-1,-9.4547495E-3,5.8229346E-2,1.5753551E-1,-3.686026E-2,3.4438595E-2,-1.1761281E-2],"categories":[],"categories_nodes":[],"categories_segments":[],"categories_sizes":[],"default_left":[0,0,0,0,0,0,0],"id":47,"left_children":[1,3,-1,5,-1,-1,-1],"loss_changes":[1.1809113E0,9.108523E-1,0E0,5.7553214E-1,0E0,0E0,0E0],"parents":[2147483647,0,0,1,1,3,3],"right_children":[2,4,-1,6,-1,-1,-1],"split_conditions":[4.3E1,7.8E1,5.8229346E-2,1.25E2,-3.686026E-2,3.4438595E-2,-1.1761281E-2],"split_indices":[7,2,0,1,0,0,0],"split_type":[0,0,0,0,0,0,0],"sum_hessian":[1.673249E1,1.3219187E1,3.5133035E0,9.40676E0,3.812427E0,5.4524317E0,3.9543283E0],"tree_param":{"num_deleted":"0","num_feature":"8","num_nodes":"7","size_leaf_vector":"1"}},{"base_weights":[-9.597255E-2,-4.5739093E-1,1.6668732E-1,-1.3966532E-2,-7.1450636E-2,6.394809E-2,-1.6472436E-1,4.2448924E-3,-3.326158E-2],"categories":[],"categories_nodes":[],"categories_segments":[],"categories_sizes":[],"default_left":[0,0,0,0,0,0,0,0,0],"id":48,"left_children":[1,3,5,-1,-1,-1,7,-1,-1],"loss_changes":[1.75774E0,5.31042E-1,1.8274995E0,0E0,0E0,0E0,2.6652825E-1,0E0,0E0],"parents":[2147483647,0,0,1,1,2,2,6,6],"right_children":[2,4,6,-1,-1,-1,8,-1,-1],"split_conditions":[3.14E-1,3.4E1,4.99E-1,-1.3966532E-2,-7.1450636E-2,6.394809E-2,3.24E1,4.2448924E-3,-3.326158E-2],"split_indices":[6,5,6,0,0,0,5,0,0],"split_type":[0,0,0,0,0,0,0,0,0],"sum_hessian":[1.6713018E1,6.7220864E0,9.9909315E0,3.696905E0,3.0251815E0,3.734174E0,6.2567573E0,3.135188E0,3.1215692E0],"tree_param":{"num_deleted":"0","num_feature":"8","num_nodes":"9","size_leaf_vector":"1"}},{"base_weights":[1.1178802E-1,2.7160907E-1,-4.2888355E-2,4.8306607E-2,7.5118355E-2,-4.1130953E-2,6.1650183E-2],"categories":[],"categories_nodes":[],"categories_segments":[],"categories_sizes":[],"default_left":[0,0,0,0,0,0,0],"id":49,"left_children":[1,3,-1,5,-1,-1,-1],"loss_changes":[1.5456299E0,1.3963387E0,0E0,2.916379E0,0E0,0E0,0E0],"parents":[2147483647,0,0,1,1,3,3],"right_children":[2,4,-1,6,-1,-1,-1],"split_conditions":[3.75E1,6.14E-1,-4.2888355E-2,3.8E1,7.5118355E-2,-4.1130953E-2,6.1650183E-2],"split_indices":[5,6,0,7,0,0,0],"split_type":[0,0,0,0,0,0,0],"sum_hessian":[1.5538938E1,1.2377752E1,3.161185E0,9.196397E0,3.1813555E0,5.236598E0,3.9597993E0],"tree_param":{"num_deleted":"0","num_feature":"8","num_nodes":"7","size_leaf_vector":"1"}},{"base_weights":[1.09447226E-1,-1.7014873E-1,3.4213826E-1,-5.964905E-2,1.9580316E-2,5.1358707E-2,5.8835456E-3],"categories":[],"categories_nodes":[],"categories_segments":[],"categories_sizes":[],"default_left":[0,0,0,0,0,0,0],"id":50,"left_children":[1,3,5,-1,-1,-1,-1],"loss_changes":[1.1979513E0,1.4624825E0,4.5032024E-1,0E0,0E0,0E0,0E0],"parents":[2147483647,0,0,1,1,2,2],"right_children":[2,4,6,-1,-1,-1,-1],"split_conditions":[3.1E1,3.24E1,3.41E1,-5.964905E-2,1.9580316E-2,5.1358707E-2,5.8835456E-3],"split_indices":[7,5,5,0,0,0,0],"split_type":[0,0,0,0,0,0,0],"sum_hessian":[1.6518383E1,7.625066E0,8.893317E0,3.2309592E0,4.3941064E0,5.0339956E0,3.8593218E0],"tree_param":{"num_deleted":"0","num_feature":"8","num_nodes":"7","size_leaf_vector":"1"}},{"base_weights":[3.793134E-2,-5.4484744E-2,2.3666641E-1,4.0368634E-1,-2.2422032E-2,6.687255E-3,8.478548E-2],"categories":[],"categories_nodes":[],"categories_segments":[],"categories_sizes":[],"default_left":[0,0,0,0,0,0,0],"id":51,"left_children":[1,-1,3,5,-1,-1,-1],"loss_changes":[2.0528197E0,0E0,1.0976963E0,1.433475E0,0E0,0E0,0E0],"parents":[2147483647,0,0,2,2,3,3],"right_children":[2,-1,4,6,-1,-1,-1],"split_conditions":[1.07E2,-5.4484744E-2,3.67E1,5.98E-1,-2.2422032E-2,6.687255E-3,8.478548E-2],"split_indices":[1,0,5,6,0,0,0],"split_type":[0,0,0,0,0,0,0],"sum_hessian":[1.5611087E1,3.5269473E0,1.208414E1,8.960917E0,3.1232219E0,5.750704E0,3.210214E0],"tree_param":{"num_deleted":"0","num_feature":"8","num_nodes":"7","size_leaf_vector":"1"}},{"base_weights":[-2.0741796E-1,-7.5914636E-2,-3.4862574E-2,2.4576367E-1,-5.5325042E-2,-3.5721099E-4,4.69239E-2],"categories":[],"categories_nodes":[],"categories_segments":[],"categories_sizes":[],"default_left":[0,0,0,0,0,0,0],"id":52,"left_children":[1,-1,3,5,-1,-1,-1],"loss_changes":[1.6858592E0,0E0,2.2815578E0,5.734427E-1,0E0,0E0,0E0],"parents":[2147483647,0,0,2,2,3,3],"right_children":[2,-1,4,6,-1,-1,-1],"split_conditions":[2.99E1,-7.5914636E-2,3.67E1,3.42E-1,-5.5325042E-2,-3.5721099E-4,4.69239E-2],"split_indices":[5,0,5,6,0,0,0],"split_type":[0,0,0,0,0,0,0],"sum_hessian":[1.6985909E1,3.2368789E0,1.3749029E1,9.261355E0,4.4876733E0,4.842499E0,4.4188566E0],"tree_param":{"num_deleted":"0","num_feature":"8","num_nodes":"7","size_leaf_vector":"1"}},{"base_weights":[-8.833372E-2,-2.61957E-1,3.7264585E-2,5.9327167E-3,-4.8903883E-1,-9.049071E-3,-7.768481E-2],"categories":[],"categories_nodes":[],"categories_segments":[],"categories_sizes":[],"default_left":[0,0,0,0,0,0,0],"id":53,"left_children":[1,3,-1,-1,5,-1,-1],"loss_changes":[1.4263693E0,9.5169926E-1,0E0,0E0,7.920487E-1,0E0,0E0],"parents":[2147483647,0,0,1,1,4,4],"right_children":[2,4,-1,-1,6,-1,-1],"split_conditions":[4E1,2E0,3.7264585E-2,5.9327167E-3,3.31E1,-9.049071E-3,-7.768481E-2],"split_indices":[7,0,0,0,5,0,0],"split_type":[0,0,0,0,0,0,0],"sum_hessian":[1.560177E1,1.1646844E1,3.9549267E0,5.128949E0,6.5178943E0,3.28431E0,3.2335844E0],"tree_param":{"num_deleted":"0","num_feature":"8","num_nodes":"7","size_leaf_vector":"1"}},{"base_weights":[4.064263E-2,-1.9497831E-1,3.2551974E-1,-6.813968E-2,2.2936909E-2,7.487753E-2,-2.0403821E-2],"categories":[],"categories_nodes":[],"categories_segments":[],"categories_sizes":[],"default_left":[0,0,0,0,0,0,0],"id":54,"left_children":[1,3,5,-1,-1,-1,-1],"loss_changes":[1.1578603E0,2.1273022E0,1.8910322E0,0E0,0E0,0E0,0E0],"parents":[2147483647,0,0,1,1,2,2],"right_children":[2,4,6,-1,-1,-1,-1],"split_conditions":[3.48E1,3.1E1,3.81E1,-6.813968E-2,2.2936909E-2,7.487753E-2,-2.0403821E-2],"split_indices":[5,7,5,0,0,0,0],"split_type":[0,0,0,0,0,0,0],"sum_hessian":[1.5304259E1,8.548989E0,6.7552705E0,3.700942E0,4.848047E0,3.5243936E0,3.230877E0],"tree_param":{"num_deleted":"0","num_feature":"8","num_nodes":"7","size_leaf_vector":"1"}},{"base_weights":[7.947056E-2,-7.2147034E-2,4.846832E-2,-2.3735577E-1,2.8771555E-2,8.75532E-3,-6.279653E-2],"categories":[],"categories_nodes":[],"categories_segments":[],"categories_sizes":[],"default_left":[0,0,0,0,0,0,0],"id":55,"left_children":[1,3,-1,5,-1,-1,-1],"loss_changes":[1.0935123E0,8.6546904E-1,0E0,1.2908183E0,0E0,0E0,0E0],"parents":[2147483647,0,0,1,1,3,3],"right_children":[2,4,-1,6,-1,-1,-1],"split_conditions":[4.3E1,3.9E1,4.846832E-2,7.4E1,2.8771555E-2,8.75532E-3,-6.279653E-2],"split_indices":[7,3,0,2,0,0,0],"split_type":[0,0,0,0,0,0,0],"sum_hessian":[1.6229641E1,1.2408668E1,3.820973E0,8.737712E0,3.6709557E0,5.1935625E0,3.5441494E0],"tree_param":{"num_deleted":"0","num_feature":"8","num_nodes":"7","size_leaf_vector":"1"}},{"base_weights":[-2.8431097E-3,-5.400628E-2,1.7401466E-1,-2.2490194E-2,4.1245636E-1,6.119838E-2,1.6834078E-2],"categories":[],"categories_nodes":[],"categories_segments":[],"categories_sizes":[],"default_left":[0,0,0,0,0,0,0],"id":56,"left_children":[1,-1,3,-1,5,-1,-1],"loss_changes":[1.6944234E0,0E0,1.3701127E0,0E0,3.2356036E-1,0E0,0E0],"parents":[2147483647,0,0,2,2,4,4],"right_children":[2,-1,4,-1,6,-1,-1],"split_conditions":[2.99E1,-5.400628E-2,3.19E-1,-2.2490194E-2,4.99E-1,6.119838E-2,1.6834078E-2],"split_indices":[5,0,6,0,6,0,0],"split_type":[0,0,0,0,0,0,0],"sum_hessian":[1.58447485E1,3.4156823E0,1.2429066E1,4.671073E0,7.7579927E0,3.4396544E0,4.3183384E0],"tree_param":{"num_deleted":"0","num_feature":"8","num_nodes":"7","size_leaf_vector":"1"}},{"base_weights":[-5.4527733E-2,-2.2400697E-1,4.2134743E-2,-5.5297133E-2,7.5946944E-3],"categories":[],"categories_nodes":[],"categories_segments":[],"categories_sizes":[],"default_left":[0,0,0,0,0],"id":57,"left_children":[1,3,-1,-1,-1],"loss_changes":[1.2746917E0,1.1712584E0,0E0,0E0,0E0],"parents":[2147483647,0,0,1,1],"right_children":[2,4,-1,-1,-1],"split_conditions":[1.48E2,3.24E1,4.2134743E-2,-5.5297133E-2,7.5946944E-3],"split_indices":[1,5,0,0,0],"split_type":[0,0,0,0,0],"sum_hessian":[1.3634756E1,1.0444355E1,3.1904018E0,4.578985E0,5.8653693E0],"tree_param":{"num_deleted":"0","num_feature":"8","num_nodes":"5","size_leaf_vector":"1"}},{"base_weights":[-8.374605E-2,-2.677042E-1,5.256886E-2,6.9140936E-3,-5.18268E-1,-1.0036734E-2,-8.341758E-2],"categories":[],"categories_nodes":[],"categories_segments":[],"categories_sizes":[],"default_left":[0,0,0,0,0,0,0],"id":58,"left_children":[1,3,-1,-1,5,-1,-1],"loss_changes":[1.9556496E0,1.1412966E0,0E0,0E0,9.233742E-1,0E0,0E0],"parents":[2147483647,0,0,1,1,4,4],"right_children":[2,4,-1,-1,6,-1,-1],"split_conditions":[1.44E2,1.1E2,5.256886E-2,6.9140936E-3,4E0,-1.0036734E-2,-8.341758E-2],"split_indices":[1,1,0,0,0,0,0],"split_type":[0,0,0,0,0,0,0],"sum_hessian":[1.51886835E1,1.2097715E1,3.0909677E0,5.4692273E0,6.6284885E0,3.4208736E0,3.2076147E0],"tree_param":{"num_deleted":"0","num_feature":"8","num_nodes":"7","size_leaf_vector":"1"}},{"base_weights":[2.2628253E-2,2.4682522E-1,-5.515005E-2,-2.2993837E-2,8.025503E-2,2.3988089E-2,-2.7488753E-2],"categories":[],"categories_nodes":[],"categories_segments":[],"categories_sizes":[],"default_left":[0,0,0,0,0,0,0],"id":59,"left_children":[1,3,-1,5,-1,-1,-1],"loss_changes":[2.2048938E0,1.8551846E0,0E0,6.7632E-1,0E0,0E0,0E0],"parents":[2147483647,0,0,1,1,3,3],"right_children":[2,4,-1,6,-1,-1,-1],"split_conditions":[3.67E1,3.45E1,-5.515005E-2,3.4E1,8.025503E-2,2.3988089E-2,-2.7488753E-2],"split_indices":[5,5,0,7,0,0,0],"split_type":[0,0,0,0,0,0,0],"sum_hessian":[1.5072119E1,1.1249344E1,3.8227751E0,8.217942E0,3.0314016E0,4.044655E0,4.173287E0],"tree_param":{"num_deleted":"0","num_feature":"8","num_nodes":"7","size_leaf_vector":"1"}},{"base_weights":[-6.516886E-2,1.1142043E-1,-3.3134207E-2,-1.8048266E-2,4.00156E-2],"categories":[],"categories_nodes":[],"categories_segments":[],"categories_sizes":[],"default_left":[0,0,0,0,0],"id":60,"left_children":[1,3,-1,-1,-1],"loss_changes":[8.3049196E-1,9.907374E-1,0E0,0E0,0E0],"parents":[2147483647,0,0,1,1],"right_children":[2,4,-1,-1,-1],"split_conditions":[3.51E1,1.19E2,-3.3134207E-2,-1.8048266E-2,4.00156E-2],"split_indices":[5,1,0,0,0],"split_type":[0,0,0,0,0],"sum_hessian":[1.5883348E1,9.8980255E0,5.985323E0,5.1084523E0,4.789573E0],"tree_param":{"num_deleted":"0","num_feature":"8","num_nodes":"5","size_leaf_vector":"1"}},{"base_weights":[-1.7474167E-2,9.935965E-2,-3.045406E-2,-3.3474836E-2,2.7971864E-1,-1.8419203E-3,5.108847E-2],"categories":[],"categories_nodes":[],"categories_segments":[],"categories_sizes":[],"default_left":[0,0,0,0,0,0,0],"id":61,"left_children":[1,3,-1,-1,5,-1,-1],"loss_changes":[6.205554E-1,1.1320765E0,0E0,0E0,6.927391E-1,0E0,0E0],"parents":[2147483647,0,0,1,1,4,4],"right_children":[2,4,-1,-1,6,-1,-1],"split_conditions":[3.67E1,2.99E1,-3.045406E-2,-3.3474836E-2,3.42E-1,-1.8419203E-3,5.108847E-2],"split_indices":[5,5,0,0,6,0,0],"split_type":[0,0,0,0,0,0,0],"sum_hessian":[1.6600262E1,1.2263138E1,4.337123E0,3.3482316E0,8.9149065E0,4.2953978E0,4.6195087E0],"tree_param":{"num_deleted":"0","num_feature":"8","num_nodes":"7","size_leaf_vector":"1"}},{"base_weights":[-5.424433E-2,1.11448474E-1,-5.000931E-2,-2.844351E-2,3.4759712E-1,-7.451994E-3,6.8623975E-2],"categories":[],"categories_nodes":[],"categories_segments":[],"categories_sizes":[],"default_left":[0,0,0,0,0,0,0],"id":62,"left_children":[1,3,-1,-1,5,-1,-1],"loss_changes":[1.2568905E0,1.2835308E0,0E0,0E0,1.2500731E0,0E0,0E0],"parents":[2147483647,0,0,1,1,4,4],"right_children":[2,4,-1,-1,6,-1,-1],"split_conditions":[3.67E1,7.2E1,-5.000931E-2,-2.844351E-2,3.2E1,-7.451994E-3,6.8623975E-2],"split_indices":[5,2,0,0,5,0,0],"split_type":[0,0,0,0,0,0,0],"sum_hessian":[1.525954E1,1.1671892E1,3.5876477E0,4.2846155E0,7.3872766E0,3.635536E0,3.7517407E0],"tree_param":{"num_deleted":"0","num_feature":"8","num_nodes":"7","size_leaf_vector":"1"}},{"base_weights":[2.7824871E-2,-1.269197E-1,4.1446745E-2,2.120652E-2,-3.3252513E-1,-8.897122E-3,-5.3830046E-2],"categories":[],"categories_nodes":[],"categories_segments":[],"categories_sizes":[],"default_left":[0,0,0,0,0,0,0],"id":63,"left_children":[1,3,-1,-1,5,-1,-1],"loss_changes":[1.0331964E0,9.396678E-1,0E0,0E0,3.6064923E-1,0E0,0E0],"parents":[2147483647,0,0,1,1,4,4],"right_children":[2,4,-1,-1,6,-1,-1],"split_conditions":[4.3E1,2.8E1,4.1446745E-2,2.120652E-2,3.41E1,-8.897122E-3,-5.3830046E-2],"split_indices":[7,7,0,0,5,0,0],"split_type":[0,0,0,0,0,0,0],"sum_hessian":[1.5389413E1,1.1470397E1,3.9190166E0,4.3186884E0,7.151708E0,3.9311745E0,3.2205336E0],"tree_param":{"num_deleted":"0","num_feature":"8","num_nodes":"7","size_leaf_vector":"1"}},{"base_weights":[1.3320181E-1,-2.0459099E-2,3.0335066E-1,5.71551E-2,-1.9591067E-3],"categories":[],"categories_nodes":[],"categories_segments":[],"categories_sizes":[],"default_left":[0,0,0,0,0],"id":64,"left_children":[1,-1,3,-1,-1],"loss_changes":[9.656956E-1,0E0,9.516761E-1,0E0,0E0],"parents":[2147483647,0,0,2,2],"right_children":[2,-1,4,-1,-1],"split_conditions":[3.2E1,-2.0459099E-2,7.5E1,5.71551E-2,-1.9591067E-3],"split_indices":[5,0,2,0,0],"split_type":[0,0,0,0,0],"sum_hessian":[1.4722178E1,4.863786E0,9.858393E0,4.965096E0,4.8932967E0],"tree_param":{"num_deleted":"0","num_feature":"8","num_nodes":"5","size_leaf_vector":"1"}},{"base_weights":[6.2147893E-2,-1.7193E-1,6.554972E-2,-5.2816994E-2,8.747159E-2,-1.9552154E-2,3.938008E-2],"categories":[],"categories_nodes":[],"categories_segments":[],"categories_sizes":[],"default_left":[0,0,0,0,0,0,0],"id":65,"left_children":[1,3,-1,-1,5,-1,-1],"loss_changes":[2.2558048E0,1.14192E0,0E0,0E0,7.4615824E-1,0E0,0E0],"parents":[2147483647,0,0,1,1,4,4],"right_children":[2,4,-1,-1,6,-1,-1],"split_conditions":[4E1,3.14E-1,6.554972E-2,-5.2816994E-2,3.1E1,-1.9552154E-2,3.938008E-2],"split_indices":[7,6,0,0,3,0,0],"split_type":[0,0,0,0,0,0,0],"sum_hessian":[1.4430242E1,1.0857261E1,3.5729809E0,4.138159E0,6.719102E0,3.6806085E0,3.0384934E0],"tree_param":{"num_deleted":"0","num_feature":"8","num_nodes":"7","size_leaf_vector":"1"}},{"base_weights":[-5.2632328E-2,-2.0839122E-1,2.7555251E-2,1.264939E-2,-5.0513364E-2],"categories":[],"categories_nodes":[],"categories_segments":[],"categories_sizes":[],"default_left":[0,0,0,0,0],"id":66,"left_children":[1,3,-1,-1,-1],"loss_changes":[8.824393E-1,1.2081325E0,0E0,0E0,0E0],"parents":[2147483647,0,0,1,1],"right_children":[2,4,-1,-1,-1],"split_conditions":[6E0,2E0,2.7555251E-2,1.264939E-2,-5.0513364E-2],"split_indices":[0,0,0,0,0],"split_type":[0,0,0,0,0],"sum_hessian":[1.5139545E1,1.0514369E1,4.6251764E0,5.209254E0,5.3051157E0],"tree_param":{"num_deleted":"0","num_feature":"8","num_nodes":"5","size_leaf_vector":"1"}},{"base_weights":[5.955318E-2,-2.4809928E-1,3.3292574E-1,-5.035911E-2,1.1153067E-2,6.9614284E-2,5.6950663E-5],"categories":[],"categories_nodes":[],"categories_segments":[],"categories_sizes":[],"default_left":[0,0,0,0,0,0,0],"id":67,"left_children":[1,3,5,-1,-1,-1,-1],"loss_changes":[1.3626361E0,7.6677567E-1,1.023994E0,0E0,0E0,0E0,0E0],"parents":[2147483647,0,0,1,1,2,2],"right_children":[2,4,6,-1,-1,-1,-1],"split_conditions":[1.19E2,4.07E-1,7.5E1,-5.035911E-2,1.1153067E-2,6.9614284E-2,5.6950663E-5],"split_indices":[1,6,2,0,0,0,0],"split_type":[0,0,0,0,0,0,0],"sum_hessian":[1.4219745E1,6.733895E0,7.4858503E0,3.7029235E0,3.0309713E0,3.053858E0,4.4319925E0],"tree_param":{"num_deleted":"0","num_feature":"8","num_nodes":"7","size_leaf_vector":"1"}},{"base_weights":[-1.2783714E-1,5.092997E-2,-3.927671E-2,-2.2716564E-1,5.4396626E-2,-9.660689E-3,-2.9902363E-2],"categories":[],"categories_nodes":[],"categories_segments":[],"categories_sizes":[],"default_left":[0,0,0,0,0,0,0],"id":68,"left_children":[1,3,-1,5,-1,-1,-1],"loss_changes":[7.738385E-1,1.5480353E0,0E0,4.0047735E-2,0E0,0E0,0E0],"parents":[2147483647,0,0,1,1,3,3],"right_children":[2,4,-1,6,-1,-1,-1],"split_conditions":[4.96E-1,3.13E-1,-3.927671E-2,1.25E2,5.4396626E-2,-9.660689E-3,-2.9902363E-2],"split_indices":[6,6,0,1,0,0,0],"split_type":[0,0,0,0,0,0,0],"sum_hessian":[1.4916867E1,9.38912E0,5.5277476E0,6.347873E0,3.0412471E0,3.085764E0,3.2621093E0],"tree_param":{"num_deleted":"0","num_feature":"8","num_nodes":"7","size_leaf_vector":"1"}},{"base_weights":[5.659806E-2,-1.6498065E-1,2.0645656E-1,6.1346656E-3,-3.454445E-2,5.108262E-2,-6.3051432E-3],"categories":[],"categories_nodes":[],"categories_segments":[],"categories_sizes":[],"default_left":[0,0,0,0,0,0,0],"id":69,"left_children":[1,3,5,-1,-1,-1,-1],"loss_changes":[5.8352405E-1,3.1657326E-1,8.7838113E-1,0E0,0E0,0E0,0E0],"parents":[2147483647,0,0,1,1,2,2],"right_children":[2,4,6,-1,-1,-1,-1],"split_conditions":[7.2E1,1.16E2,7.8E1,6.1346656E-3,-3.454445E-2,5.108262E-2,-6.3051432E-3],"split_indices":[2,1,2,0,0,0,0],"split_type":[0,0,0,0,0,0,0],"sum_hessian":[1.5547362E1,6.231961E0,9.315401E0,3.0574918E0,3.174469E0,3.9542522E0,5.3611493E0],"tree_param":{"num_deleted":"0","num_feature":"8","num_nodes":"7","size_leaf_vector":"1"}},{"base_weights":[-5.082814E-2,-4.3364666E-2,2.3065044E-1,5.3728797E-4,4.3855418E-2],"categories":[],"categories_nodes":[],"categories_segments":[],"categories_sizes":[],"default_left":[0,0,0,0,0],"id":70,"left_children":[1,-1,3,-1,-1],"loss_changes":[1.7368008E0,0E0,4.3819785E-1,0E0,0E0],"parents":[2147483647,0,0,2,2],"right_children":[2,-1,4,-1,-1],"split_conditions":[1.19E2,-4.3364666E-2,3.06E-1,5.3728797E-4,4.3855418E-2],"split_indices":[1,0,6,0,0],"split_type":[0,0,0,0,0],"sum_hessian":[1.4189798E1,5.783491E0,8.406307E0,4.526925E0,3.8793826E0],"tree_param":{"num_deleted":"0","num_feature":"8","num_nodes":"5","size_leaf_vector":"1"}},{"base_weights":[-1.7373545E-1,-4.518731E-2,-1.578946E-4,3.279965E-2,-2.277243E-2],"categories":[],"categories_nodes":[],"categories_segments":[],"categories_sizes":[],"default_left":[0,0,0,0,0],"id":71,"left_children":[1,-1,3,-1,-1],"loss_changes":[7.634229E-1,0E0,8.7656224E-1,0E0,0E0],"parents":[2147483647,0,0,2,2],"right_children":[2,-1,4,-1,-1],"split_conditions":[3.2E1,-4.518731E-2,3.51E1,3.279965E-2,-2.277243E-2],"split_indices":[5,0,5,0,0],"split_type":[0,0,0,0,0],"sum_hessian":[1.481439E1,5.07654E0,9.73785E0,3.806907E0,5.9309435E0],"tree_param":{"num_deleted":"0","num_feature":"8","num_nodes":"5","size_leaf_vector":"1"}},{"base_weights":[-5.2784304E-3,-2.3192278E-1,5.2649844E-2,-4.8469105E-1,1.798789E-2,-6.748326E-2,-1.8006327E-2],"categories":[],"categories_nodes":[],"categories_segments":[],"categories_sizes":[],"default_left":[0,0,0,0,0,0,0],"id":72,"left_children":[1,3,-1,5,-1,-1,-1],"loss_changes":[1.912259E0,1.2434855E0,0E0,2.928722E-1,0E0,0E0,0E0],"parents":[2147483647,0,0,1,1,3,3],"right_children":[2,4,-1,6,-1,-1,-1],"split_conditions":[3.9E1,1.33E2,5.2649844E-2,3.7E1,1.798789E-2,-6.748326E-2,-1.8006327E-2],"split_indices":[3,1,0,7,0,0,0],"split_type":[0,0,0,0,0,0,0],"sum_hessian":[1.3853047E1,1.010861E1,3.7444375E0,6.154135E0,3.9544752E0,3.0408428E0,3.1132925E0],"tree_param":{"num_deleted":"0","num_feature":"8","num_nodes":"7","size_leaf_vector":"1"}},{"base_weights":[1.8237196E-2,1.744398E-1,-3.982124E-2,-2.5079133E-2,5.8334E-2,-3.6118645E-2,2.2783762E-2],"categories":[],"categories_nodes":[],"categories_segments":[],"categories_sizes":[],"default_left":[0,0,0,0,0,0,0],"id":73,"left_children":[1,3,-1,5,-1,-1,-1],"loss_changes":[1.0930314E0,1.0049133E0,0E0,8.57266E-1,0E0,0E0,0E0],"parents":[2147483647,0,0,1,1,3,3],"right_children":[2,4,-1,6,-1,-1,-1],"split_conditions":[3.67E1,6.05E-1,-3.982124E-2,1.15E2,5.8334E-2,-3.6118645E-2,2.2783762E-2],"split_indices":[5,6,0,1,0,0,0],"split_type":[0,0,0,0,0,0,0],"sum_hessian":[1.47349615E1,1.1138311E1,3.5966504E0,8.116573E0,3.0217378E0,3.301304E0,4.815269E0],"tree_param":{"num_deleted":"0","num_feature":"8","num_nodes":"7","size_leaf_vector":"1"}},{"base_weights":[-4.7957394E-2,9.132148E-2,-2.6091963E-2,-2.3870844E-2,2.8330807E-2],"categories":[],"categories_nodes":[],"categories_segments":[],"categories_sizes":[],"default_left":[0,0,0,0,0],"id":74,"left_children":[1,3,-1,-1,-1],"loss_changes":[4.5381996E-1,6.6990316E-1,0E0,0E0,0E0],"parents":[2147483647,0,0,1,1],"right_children":[2,4,-1,-1,-1],"split_conditions":[4.99E-1,2.32E-1,-2.6091963E-2,-2.3870844E-2,2.8330807E-2],"split_indices":[6,6,0,0,0],"split_type":[0,0,0,0,0],"sum_hessian":[1.3496824E1,8.505409E0,4.9914155E0,3.0386062E0,5.466803E0],"tree_param":{"num_deleted":"0","num_feature":"8","num_nodes":"5","size_leaf_vector":"1"}},{"base_weights":[-1.33832805E-2,-1.7924848E-1,3.7130143E-2,-3.5648417E-2,-1.2664377E-3],"categories":[],"categories_nodes":[],"categories_segments":[],"categories_sizes":[],"default_left":[0,0,0,0,0],"id":75,"left_children":[1,3,-1,-1,-1],"loss_changes":[1.0288965E0,3.265416E-1,0E0,0E0,0E0],"parents":[2147483647,0,0,1,1],"right_children":[2,4,-1,-1,-1],"split_conditions":[3.9E1,3.2E1,3.7130143E-2,-3.5648417E-2,-1.2664377E-3],"split_indices":[3,7,0,0,0],"split_type":[0,0,0,0,0],"sum_hessian":[1.4082344E1,1.0212877E1,3.869467E0,4.395916E0,5.816961E0],"tree_param":{"num_deleted":"0","num_feature":"8","num_nodes":"5","size_leaf_vector":"1"}},{"base_weights":[-8.334476E-2,1.0312004E-1,-3.6538407E-2,-2.362574E-2,2.9671928E-2],"categories":[],"categories_nodes":[],"categories_segments":[],"categories_sizes":[],"default_left":[0,0,0,0,0],"id":76,"left_children":[1,3,-1,-1,-1],"loss_changes":[8.8352466E-1,7.5750595E-1,0E0,0E0,0E0],"parents":[2147483647,0,0,1,1],"right_children":[2,4,-1,-1,-1],"split_conditions":[4.96E-1,7.2E1,-3.6538407E-2,-2.362574E-2,2.9671928E-2],"split_indices":[6,2,0,0,0],"split_type":[0,0,0,0,0],"sum_hessian":[1.5083663E1,9.462255E0,5.621408E0,3.357046E0,6.105209E0],"tree_param":{"num_deleted":"0","num_feature":"8","num_nodes":"5","size_leaf_vector":"1"}},{"base_weights":[-1.5802933E-2,2.948094E-2,-2.1230018E-1,-3.9311863E-2,1.3503027E-2],"categories":[],"categories_nodes":[],"categories_segments":[],"categories_sizes":[],"default_left":[0,0,0,0,0],"id":77,"left_children":[1,-1,3,-1,-1],"loss_changes":[9.932307E-1,0E0,6.761509E-1,0E0,0E0],"parents":[2147483647,0,0,2,2],"right_children":[2,-1,4,-1,-1],"split_conditions":[3E0,2.948094E-2,4.52E-1,-3.9311863E-2,1.3503027E-2],"split_indices":[0,0,6,0,0],"split_type":[0,0,0,0,0],"sum_hessian":[1.4247819E1,5.3269453E0,8.920874E0,5.7800045E0,3.140869E0],"tree_param":{"num_deleted":"0","num_feature":"8","num_nodes":"5","size_leaf_vector":"1"}},{"base_weights":[6.974292E-2,-7.805134E-2,4.9357202E-2,-3.4207683E-2,1.2824811E-1,3.7321538E-2,-1.5128697E-2],"categories":[],"categories_nodes":[],"categories_segments":[],"categories_sizes":[],"default_left":[0,0,0,0,0,0,0],"id":78,"left_children":[1,3,-1,-1,5,-1,-1],"loss_changes":[1.0425988E0,7.3825663E-1,0E0,0E0,5.963273E-1,0E0,0E0],"parents":[2147483647,0,0,1,1,4,4],"right_children":[2,4,-1,-1,6,-1,-1],"split_conditions":[3.9E1,3.16E1,4.9357202E-2,-3.4207683E-2,4E0,3.7321538E-2,-1.5128697E-2],"split_indices":[3,5,0,0,0,0,0],"split_type":[0,0,0,0,0,0,0],"sum_hessian":[1.5029417E1,1.1748439E1,3.2809784E0,4.86455E0,6.8838887E0,3.490181E0,3.3937078E0],"tree_param":{"num_deleted":"0","num_feature":"8","num_nodes":"7","size_leaf_vector":"1"}},{"base_weights":[5.1339667E-2,-2.1337923E-2,2.104914E-1,3.9741686E-1,-1.7448373E-2,6.430682E-2,5.205415E-3],"categories":[],"categories_nodes":[],"categories_segments":[],"categories_sizes":[],"default_left":[0,0,0,0,0,0,0],"id":79,"left_children":[1,-1,3,5,-1,-1,-1],"loss_changes":[7.0302045E-1,0E0,8.0759335E-1,5.782901E-1,0E0,0E0,0E0],"parents":[2147483647,0,0,2,2,3,3],"right_children":[2,-1,4,6,-1,-1,-1],"split_conditions":[7.2E1,-2.1337923E-2,3.58E1,7.8E1,-1.7448373E-2,6.430682E-2,5.205415E-3],"split_indices":[2,0,5,2,0,0,0],"split_type":[0,0,0,0,0,0,0],"sum_hessian":[1.4620666E1,5.361723E0,9.258943E0,6.210906E0,3.0480363E0,3.1256618E0,3.0852442E0],"tree_param":{"num_deleted":"0","num_feature":"8","num_nodes":"7","size_leaf_vector":"1"}},{"base_weights":[-4.6185452E-2,-1.6947614E-1,3.23952E-2,-3.840526E-1,1.3137633E-2,-7.8926034E-2,1.3956733E-2],"categories":[],"categories_nodes":[],"categories_segments":[],"categories_sizes":[],"default_left":[0,0,0,0,0,0,0],"id":80,"left_children":[1,3,-1,5,-1,-1,-1],"loss_changes":[7.994072E-1,8.828788E-1,0E0,1.7611705E0,0E0,0E0,0E0],"parents":[2147483647,0,0,1,1,3,3],"right_children":[2,4,-1,6,-1,-1,-1],"split_conditions":[4.3E1,4.84E-1,3.23952E-2,1.28E2,1.3137633E-2,-7.8926034E-2,1.3956733E-2],"split_indices":[7,6,0,1,0,0,0],"split_type":[0,0,0,0,0,0,0],"sum_hessian":[1.5314525E1,1.189462E1,3.419904E0,6.781392E0,5.1132283E0,3.5369656E0,3.2444265E0],"tree_param":{"num_deleted":"0","num_feature":"8","num_nodes":"7","size_leaf_vector":"1"}},{"base_weights":[4.7996014E-2,-2.9668966E-2,1.651957E-1,3.143497E-1,-1.320142E-2,4.6605766E-2,1.1504359E-2],"categories":[],"categories_nodes":[],"categories_segments":[],"categories_sizes":[],"default_left":[0,0,0,0,0,0,0],"id":81,"left_children":[1,-1,3,5,-1,-1,-1],"loss_changes":[6.432895E-1,0E0,5.566354E-1,1.89278E-1,0E0,0E0,0E0],"parents":[2147483647,0,0,2,2,3,3],"right_children":[2,-1,4,6,-1,-1,-1],"split_conditions":[1.07E2,-2.9668966E-2,1.4E2,2.78E-1,-1.320142E-2,4.6605766E-2,1.1504359E-2],"split_indices":[1,0,4,6,0,0,0],"split_type":[0,0,0,0,0,0,0],"sum_hessian":[1.3710917E1,3.0904317E0,1.0620485E1,7.0332155E0,3.58727E0,3.2335212E0,3.7996943E0],"tree_param":{"num_deleted":"0","num_feature":"8","num_nodes":"7","size_leaf_vector":"1"}},{"base_weights":[-1.1034636E-1,2.1646725E-2,-2.687053E-1,-4.5546955E-1,1.4614915E-2,-2.1615447E-2,-6.1288413E-2],"categories":[],"categories_nodes":[],"categories_segments":[],"categories_sizes":[],"default_left":[0,0,0,0,0,0,0],"id":82,"left_children":[1,-1,3,5,-1,-1,-1],"loss_changes":[8.5187024E-1,0E0,9.015396E-1,1.5661871E-1,0E0,0E0,0E0],"parents":[2147483647,0,0,2,2,3,3],"right_children":[2,-1,4,6,-1,-1,-1],"split_conditions":[1.1E2,2.1646725E-2,1.44E2,3.66E-1,1.4614915E-2,-2.1615447E-2,-6.1288413E-2],"split_indices":[1,0,1,6,0,0,0],"split_type":[0,0,0,0,0,0,0],"sum_hessian":[1.4336139E1,4.5595064E0,9.776632E0,6.6741014E0,3.1025305E0,3.589774E0,3.0843275E0],"tree_param":{"num_deleted":"0","num_feature":"8","num_nodes":"7","size_leaf_vector":"1"}},{"base_weights":[-4.9255874E-2,-2.4814919E-1,2.259696E-2,-4.8980515E-2,3.8085727E-3],"categories":[],"categories_nodes":[],"categories_segments":[],"categories_sizes":[],"default_left":[0,0,0,0,0],"id":83,"left_children":[1,3,-1,-1,-1],"loss_changes":[8.9440477E-1,6.6655517E-1,0E0,0E0,0E0],"parents":[2147483647,0,0,1,1],"right_children":[2,4,-1,-1,-1],"split_conditions":[3E1,3.8E1,2.259696E-2,-4.8980515E-2,3.8085727E-3],"split_indices":[3,7,0,0,0],"split_type":[0,0,0,0,0],"sum_hessian":[1.431463E1,8.366736E0,5.9478927E0,4.151013E0,4.2157235E0],"tree_param":{"num_deleted":"0","num_feature":"8","num_nodes":"5","size_leaf_vector":"1"}},{"base_weights":[1.124899E-1,-1.4519611E-1,3.1374416E-1,-4.521885E-2,2.2827333E-2,4.767775E-2,2.6608943E-3],"categories":[],"categories_nodes":[],"categories_segments":[],"categories_sizes":[],"default_left":[0,0,0,0,0,0,0],"id":84,"left_children":[1,3,5,-1,-1,-1,-1],"loss_changes":[8.6218804E-1,9.733062E-1,4.1601735E-1,0E0,0E0,0E0,0E0],"parents":[2147483647,0,0,1,1,2,2],"right_children":[2,4,6,-1,-1,-1,-1],"split_conditions":[3.1E1,3.48E1,3.41E1,-4.521885E-2,2.2827333E-2,4.767775E-2,2.6608943E-3],"split_indices":[7,5,5,0,0,0,0],"split_type":[0,0,0,0,0,0,0],"sum_hessian":[1.4746763E1,6.5888906E0,8.157873E0,3.500608E0,3.0882826E0,4.782143E0,3.37573E0],"tree_param":{"num_deleted":"0","num_feature":"8","num_nodes":"7","size_leaf_vector":"1"}},{"base_weights":[4.550429E-2,1.6381325E-1,-2.808787E-2,-1.8666312E-2,3.04914E-1,-3.7499226E-3,5.0350655E-2],"categories":[],"categories_nodes":[],"categories_segments":[],"categories_sizes":[],"default_left":[0,0,0,0,0,0,0],"id":85,"left_children":[1,3,-1,-1,5,-1,-1],"loss_changes":[6.748682E-1,6.792542E-1,0E0,0E0,6.548274E-1,0E0,0E0],"parents":[2147483647,0,0,1,1,4,4],"right_children":[2,4,-1,-1,6,-1,-1],"split_conditions":[3.81E1,2.99E1,-2.808787E-2,-1.8666312E-2,1.19E2,-3.7499226E-3,5.0350655E-2],"split_indices":[5,5,0,0,1,0,0],"split_type":[0,0,0,0,0,0,0],"sum_hessian":[1.5285702E1,1.1584565E1,3.7011366E0,3.2325113E0,8.352055E0,3.3636405E0,4.988414E0],"tree_param":{"num_deleted":"0","num_feature":"8","num_nodes":"7","size_leaf_vector":"1"}},{"base_weights":[-1.3766232E-1,-2.821058E-1,1.3896431E-2,-2.0631289E-3,-5.5079605E-2],"categories":[],"categories_nodes":[],"categories_segments":[],"categories_sizes":[],"default_left":[0,0,0,0,0],"id":86,"left_children":[1,3,-1,-1,-1],"loss_changes":[6.2240624E-1,6.854953E-1,0E0,0E0,0E0],"parents":[2147483647,0,0,1,1],"right_children":[2,4,-1,-1,-1],"split_conditions":[6E0,2E0,1.3896431E-2,-2.0631289E-3,-5.5079605E-2],"split_indices":[0,0,0,0,0],"split_type":[0,0,0,0,0],"sum_hessian":[1.3595811E1,8.918904E0,4.6769066E0,5.065867E0,3.8530376E0],"tree_param":{"num_deleted":"0","num_feature":"8","num_nodes":"5","size_leaf_vector":"1"}},{"base_weights":[-3.2613657E-2,1.0468258E-1,-3.877458E-2,-7.1991645E-2,3.9157636E-2,-4.2467337E-2,3.8997825E-2],"categories":[],"categories_nodes":[],"categories_segments":[],"categories_sizes":[],"default_left":[0,0,0,0,0,0,0],"id":87,"left_children":[1,3,-1,5,-1,-1,-1],"loss_changes":[8.0489016E-1,6.411041E-1,0E0,1.5225359E0,0E0,0E0,0E0],"parents":[2147483647,0,0,1,1,3,3],"right_children":[2,4,-1,6,-1,-1,-1],"split_conditions":[3.67E1,5.83E-1,-3.877458E-2,4.1E1,3.9157636E-2,-4.2467337E-2,3.8997825E-2],"split_indices":[5,6,0,7,0,0,0],"split_type":[0,0,0,0,0,0,0],"sum_hessian":[1.4675277E1,1.10921955E1,3.583081E0,7.32834E0,3.7638555E0,4.2015123E0,3.1268277E0],"tree_param":{"num_deleted":"0","num_feature":"8","num_nodes":"7","size_leaf_vector":"1"}},{"base_weights":[5.611735E-2,-1.1517243E-1,4.400961E-2,-4.7999706E-2,2.3865243E-2],"categories":[],"categories_nodes":[],"categories_segments":[],"categories_sizes":[],"default_left":[0,0,0,0,0],"id":88,"left_children":[1,3,-1,-1,-1],"loss_changes":[1.040696E0,1.5604842E0,0E0,0E0,0E0],"parents":[2147483647,0,0,1,1],"right_children":[2,4,-1,-1,-1],"split_conditions":[8E1,3.49E-1,4.400961E-2,-4.7999706E-2,2.3865243E-2],"split_indices":[2,6,0,0,0],"split_type":[0,0,0,0,0],"sum_hessian":[1.40522175E1,1.0201477E1,3.8507402E0,4.8470974E0,5.3543797E0],"tree_param":{"num_deleted":"0","num_feature":"8","num_nodes":"5","size_leaf_vector":"1"}},{"base_weights":[4.7170594E-2,4.001766E-2,-1.2301706E-1,2.5365457E-2,-5.8131773E-2],"categories":[],"categories_nodes":[],"categories_segments":[],"categories_sizes":[],"default_left":[0,0,0,0,0],"id":89,"left_children":[1,-1,3,-1,-1],"loss_changes":[9.094799E-1,0E0,1.9473095E0,0E0,0E0],"parents":[2147483647,0,0,2,2],"right_children":[2,-1,4,-1,-1],"split_conditions":[1.1E2,4.001766E-2,4.27E-1,2.5365457E-2,-5.8131773E-2],"split_indices":[1,0,6,0,0],"split_type":[0,0,0,0,0],"sum_hessian":[1.3319085E1,3.8929276E0,9.426158E0,5.418935E0,4.007223E0],"tree_param":{"num_deleted":"0","num_feature":"8","num_nodes":"5","size_leaf_vector":"1"}},{"base_weights":[1.0649402E-1,2.738141E-1,-3.8478088E-2,-1.907927E-2,4.8284405E-1,7.0881145E-3,7.554396E-2],"categories":[],"categories_nodes":[],"categories_segments":[],"categories_sizes":[],"default_left":[0,0,0,0,0,0,0],"id":90,"left_children":[1,3,-1,-1,5,-1,-1],"loss_changes":[1.3059278E0,1.2069337E0,0E0,0E0,8.6734545E-1,0E0,0E0],"parents":[2147483647,0,0,1,1,4,4],"right_children":[2,4,-1,-1,6,-1,-1],"split_conditions":[3.66E1,2.99E1,-3.8478088E-2,-1.907927E-2,1.18E2,7.0881145E-3,7.554396E-2],"split_indices":[5,5,0,0,1,0,0],"split_type":[0,0,0,0,0,0,0],"sum_hessian":[1.3605435E1,1.047908E1,3.1263552E0,3.2787383E0,7.2003417E0,3.368971E0,3.8313706E0],"tree_param":{"num_deleted":"0","num_feature":"8","num_nodes":"7","size_leaf_vector":"1"}},{"base_weights":[1.4947596E-2,1.3122852E-1,-3.291007E-2,-7.793894E-2,4.061104E-2,1.2265365E-2,-2.4788318E-2],"categories":[],"categories_nodes":[],"categories_segments":[],"categories_sizes":[],"default_left":[0,0,0,0,0,0,0],"id":91,"left_children":[1,3,-1,5,-1,-1,-1],"loss_changes":[6.4231104E-1,7.163034E-1,0E0,2.8952366E-1,0E0,0E0,0E0],"parents":[2147483647,0,0,1,1,3,3],"right_children":[2,4,-1,6,-1,-1,-1],"split_conditions":[1.9E2,4.84E-1,-3.291007E-2,2.51E-1,4.061104E-2,1.2265365E-2,-2.4788318E-2],"split_indices":[4,6,0,6,0,0,0],"split_type":[0,0,0,0,0,0,0],"sum_hessian":[1.397575E1,1.09077425E1,3.0680072E0,6.601153E0,4.3065896E0,3.155202E0,3.445951E0],"tree_param":{"num_deleted":"0","num_feature":"8","num_nodes":"7","size_leaf_vector":"1"}},{"base_weights":[-7.989263E-2,-2.0117328E-1,2.5044248E-2,-3.6517623E-1,1.6984183E-2,-1.445887E-2,-5.1945325E-2],"categories":[],"categories_nodes":[],"categories_segments":[],"categories_sizes":[],"default_left":[0,0,0,0,0,0,0],"id":92,"left_children":[1,3,-1,5,-1,-1,-1],"loss_changes":[6.376531E-1,7.481756E-1,0E0,2.018199E-1,0E0,0E0,0E0],"parents":[2147483647,0,0,1,1,3,3],"right_children":[2,4,-1,6,-1,-1,-1],"split_conditions":[3.7E1,4.2E1,2.5044248E-2,3.25E1,1.6984183E-2,-1.445887E-2,-5.1945325E-2],"split_indices":[3,7,0,5,0,0,0],"split_type":[0,0,0,0,0,0,0],"sum_hessian":[1.3658588E1,1.0276597E1,3.3819919E0,7.137351E0,3.139246E0,3.734669E0,3.402682E0],"tree_param":{"num_deleted":"0","num_feature":"8","num_nodes":"7","size_leaf_vector":"1"}},{"base_weights":[-1.9538356E-2,-2.6458392E-2,1.5955117E-1,2.956391E-2,-3.6534306E-3],"categories":[],"categories_nodes":[],"categories_segments":[],"categories_sizes":[],"default_left":[0,0,0,0,0],"id":93,"left_children":[1,-1,3,-1,-1],"loss_changes":[7.1389806E-1,0E0,2.634166E-1,0E0,0E0],"parents":[2147483647,0,0,2,2],"right_children":[2,-1,4,-1,-1],"split_conditions":[3.1E1,-2.6458392E-2,3.41E1,2.956391E-2,-3.6534306E-3],"split_indices":[7,0,5,0,0],"split_type":[0,0,0,0,0],"sum_hessian":[1.4305501E1,5.8388734E0,8.466627E0,4.6982365E0,3.7683914E0],"tree_param":{"num_deleted":"0","num_feature":"8","num_nodes":"5","size_leaf_vector":"1"}},{"base_weights":[-7.4610405E-2,1.426736E-1,-4.345571E-2,3.458372E-2,-1.4129804E-2],"categories":[],"categories_nodes":[],"categories_segments":[],"categories_sizes":[],"default_left":[0,0,0,0,0],"id":94,"left_children":[1,3,-1,-1,-1],"loss_changes":[1.170392E0,6.021428E-1,0E0,0E0,0E0],"parents":[2147483647,0,0,1,1],"right_children":[2,4,-1,-1,-1],"split_conditions":[4.99E-1,7.5E1,-4.345571E-2,3.458372E-2,-1.4129804E-2],"split_indices":[6,2,0,0,0],"split_type":[0,0,0,0,0],"sum_hessian":[1.3171883E1,8.590064E0,4.5818186E0,4.8805113E0,3.709553E0],"tree_param":{"num_deleted":"0","num_feature":"8","num_nodes":"5","size_leaf_vector":"1"}},{"base_weights":[7.779722E-2,-2.6497813E-2,3.0213077E-2,1.6148172E-2,-2.3446325E-2],"categories":[],"categories_nodes":[],"categories_segments":[],"categories_sizes":[],"default_left":[0,0,0,0,0],"id":95,"left_children":[1,3,-1,-1,-1],"loss_changes":[3.6730865E-1,4.8362288E-1,0E0,0E0,0E0],"parents":[2147483647,0,0,1,1],"right_children":[2,4,-1,-1,-1],"split_conditions":[3.9E1,7.4E1,3.0213077E-2,1.6148172E-2,-2.3446325E-2],"split_indices":[3,2,0,0,0],"split_type":[0,0,0,0,0],"sum_hessian":[1.4356874E1,1.0402516E1,3.954358E0,5.5811987E0,4.8213177E0],"tree_param":{"num_deleted":"0","num_feature":"8","num_nodes":"5","size_leaf_vector":"1"}},{"base_weights":[4.6044923E-2,-1.1792263E-1,4.8566233E-2,-3.0925366E-1,2.0176006E-2,-3.3428606E-3,-5.483191E-2],"categories":[],"categories_nodes":[],"categories_segments":[],"categories_sizes":[],"default_left":[0,0,0,0,0,0,0],"id":96,"left_children":[1,3,-1,5,-1,-1,-1],"loss_changes":[1.1174986E0,7.66861E-1,0E0,4.8281354E-1,0E0,0E0,0E0],"parents":[2147483647,0,0,1,1,3,3],"right_children":[2,4,-1,6,-1,-1,-1],"split_conditions":[4.3E1,5E0,4.8566233E-2,2.8E1,2.0176006E-2,-3.3428606E-3,-5.483191E-2],"split_indices":[7,0,0,7,0,0,0],"split_type":[0,0,0,0,0,0,0],"sum_hessian":[1.3708436E1,1.0517428E1,3.191007E0,6.599958E0,3.917471E0,3.5936103E0,3.0063474E0],"tree_param":{"num_deleted":"0","num_feature":"8","num_nodes":"7","size_leaf_vector":"1"}},{"base_weights":[-1.2393581E-1,-2.704443E-1,3.3471752E-2,-4.91857E-2,6.350215E-3],"categories":[],"categories_nodes":[],"categories_segments":[],"categories_sizes":[],"default_left":[0,0,0,0,0],"id":97,"left_children":[1,3,-1,-1,-1],"loss_changes":[1.0859404E0,9.022689E-1,0E0,0E0,0E0],"parents":[2147483647,0,0,1,1],"right_children":[2,4,-1,-1,-1],"split_conditions":[4.3E1,1.28E2,3.3471752E-2,-4.91857E-2,6.350215E-3],"split_indices":[7,1,0,0,0],"split_type":[0,0,0,0,0],"sum_hessian":[1.3813515E1,1.0780296E1,3.0332184E0,6.198027E0,4.5822687E0],"tree_param":{"num_deleted":"0","num_feature":"8","num_nodes":"5","size_leaf_vector":"1"}},{"base_weights":[1.0566218E-1,-5.6070175E-2,4.9441207E-2,-1.9824554E-1,1.9887265E-2,1.5227224E-3,-3.633951E-2],"categories":[],"categories_nodes":[],"categories_segments":[],"categories_sizes":[],"default_left":[0,0,0,0,0,0,0],"id":98,"left_children":[1,3,-1,5,-1,-1,-1],"loss_changes":[9.793358E-1,4.594054E-1,0E0,2.854319E-1,0E0,0E0,0E0],"parents":[2147483647,0,0,1,1,3,3],"right_children":[2,4,-1,6,-1,-1,-1],"split_conditions":[3.9E1,1.33E2,4.9441207E-2,1.09E2,1.9887265E-2,1.5227224E-3,-3.633951E-2],"split_indices":[3,1,0,1,0,0,0],"split_type":[0,0,0,0,0,0,0],"sum_hessian":[1.4135392E1,1.0586739E1,3.5486531E0,6.93927E0,3.6474688E0,3.4227767E0,3.5164933E0],"tree_param":{"num_deleted":"0","num_feature":"8","num_nodes":"7","size_leaf_vector":"1"}},{"base_weights":[1.0574446E-1,-1.8368972E-2,2.9611063E-1,5.6419183E-2,-5.196936E-4],"categories":[],"categories_nodes":[],"categories_segments":[],"categories_sizes":[],"default_left":[0,0,0,0,0],"id":99,"left_children":[1,-1,3,-1,-1],"loss_changes":[8.227582E-1,0E0,7.1336347E-1,0E0,0E0],"parents":[2147483647,0,0,2,2],"right_children":[2,-1,4,-1,-1],"split_conditions":[7.2E1,-1.8368972E-2,7.8E1,5.6419183E-2,-5.196936E-4],"split_indices":[2,0,2,0,0],"split_type":[0,0,0,0,0],"sum_hessian":[1.2945316E1,5.150114E0,7.795202E0,3.6633477E0,4.131854E0],"tree_param":{"num_deleted":"0","num_feature":"8","num_nodes":"5","size_leaf_vector":"1"}},{"base_weights":[-2.0097332E-1,-5.0329145E-2,-7.697124E-2,1.16122216E-1,-4.441345E-2,2.8747225E-2,-9.696553E-3],"categories":[],"categories_nodes":[],"categories_segments":[],"categories_sizes":[],"default_left":[0,0,0,0,0,0,0],"id":100,"left_children":[1,-1,3,5,-1,-1,-1],"loss_changes":[5.020748E-1,0E0,8.6055756E-1,3.2986057E-1,0E0,0E0,0E0],"parents":[2147483647,0,0,2,2,3,3],"right_children":[2,-1,4,6,-1,-1,-1],"split_conditions":[1.07E2,-5.0329145E-2,1.66E2,1.27E2,-4.441345E-2,2.8747225E-2,-9.696553E-3],"split_indices":[1,0,4,1,0,0,0],"split_type":[0,0,0,0,0,0,0],"sum_hessian":[1.3426286E1,3.015569E0,1.0410717E1,7.2707276E0,3.1399896E0,3.8365598E0,3.4341676E0],"tree_param":{"num_deleted":"0","num_feature":"8","num_nodes":"7","size_leaf_vector":"1"}},{"base_weights":[2.0099737E-1,3.35326E-1,-3.853509E-3,3.8718823E-3,7.224839E-2],"categories":[],"categories_nodes":[],"categories_segments":[],"categories_sizes":[],"default_left":[0,0,0,0,0],"id":101,"left_children":[1,3,-1,-1,-1],"loss_changes":[4.9129248E-1,1.0777067E0,0E0,0E0,0E0],"parents":[2147483647,0,0,1,1],"right_children":[2,4,-1,-1,-1],"split_conditions":[4.99E-1,2.77E-1,-3.853509E-3,3.8718823E-3,7.224839E-2],"split_indices":[6,6,0,0,0],"split_type":[0,0,0,0,0],"sum_hessian":[1.3867281E1,8.628527E0,5.2387543E0,5.5084405E0,3.1200867E0],"tree_param":{"num_deleted":"0","num_feature":"8","num_nodes":"5","size_leaf_vector":"1"}},{"base_weights":[-2.280716E-1,5.936023E-3,-4.780001E-2],"categories":[],"categories_nodes":[],"categories_segments":[],"categories_sizes":[],"default_left":[0,0,0],"id":102,"left_children":[1,-1,-1],"loss_changes":[9.575475E-1,0E0,0E0],"parents":[2147483647,0,0],"right_children":[2,-1,-1],"split_conditions":[7.4E1,5.936023E-3,-4.780001E-2],"split_indices":[2,0,0],"split_type":[0,0,0],"sum_hessian":[1.1934395E1,5.9053736E0,6.029021E0],"tree_param":{"num_deleted":"0","num_feature":"8","num_nodes":"3","size_leaf_vector":"1"}},{"base_weights":[-5.2655123E-2,-1.5083346E-1,2.1340534E-2,-2.811552E-1,1.4667744E-2,6.3629556E-3,-5.128939E-2],"categories":[],"categories_nodes":[],"categories_segments":[],"categories_sizes":[],"default_left":[0,0,0,0,0,0,0],"id":103,"left_children":[1,3,-1,5,-1,-1,-1],"loss_changes":[4.4488147E-1,5.114057E-1,0E0,7.337919E-1,0E0,0E0,0E0],"parents":[2147483647,0,0,1,1,3,3],"right_children":[2,4,-1,6,-1,-1,-1],"split_conditions":[3.9E1,1.25E2,2.1340534E-2,3.08E1,1.4667744E-2,6.3629556E-3,-5.128939E-2],"split_indices":[3,4,0,5,0,0,0],"split_type":[0,0,0,0,0,0,0],"sum_hessian":[1.47990465E1,1.1126405E1,3.6726425E0,7.7754292E0,3.3509755E0,3.4169939E0,4.358435E0],"tree_param":{"num_deleted":"0","num_feature":"8","num_nodes":"7","size_leaf_vector":"1"}},{"base_weights":[-8.615915E-3,-2.4129103E-1,3.953899E-2,8.3388025E-3,-5.05395E-2],"categories":[],"categories_nodes":[],"categories_segments":[],"categories_sizes":[],"default_left":[0,0,0,0,0],"id":104,"left_children":[1,3,-1,-1,-1],"loss_changes":[1.3742695E0,8.3565193E-1,0E0,0E0,0E0],"parents":[2147483647,0,0,1,1],"right_children":[2,4,-1,-1,-1],"split_conditions":[3.8E1,2.8E1,3.953899E-2,8.3388025E-3,-5.05395E-2],"split_indices":[7,7,0,0,0],"split_type":[0,0,0,0,0],"sum_hessian":[1.2604648E1,8.253845E0,4.350803E0,4.009268E0,4.244577E0],"tree_param":{"num_deleted":"0","num_feature":"8","num_nodes":"5","size_leaf_vector":"1"}},{"base_weights":[3.1891666E-2,-1.200047E-1,3.610451E-2,2.1346094E-2,-3.5625584E-2],"categories":[],"categories_nodes":[],"categories_segments":[],"categories_sizes":[],"default_left":[0,0,0,0,0],"id":105,"left_children":[1,3,-1,-1,-1],"loss_changes":[7.1823186E-1,8.628378E-1,0E0,0E0,0E0],"parents":[2147483647,0,0,1,1],"right_children":[2,4,-1,-1,-1],"split_conditions":[3.9E1,2.82E-1,3.610451E-2,2.1346094E-2,-3.5625584E-2],"split_indices":[3,6,0,0,0],"split_type":[0,0,0,0,0],"sum_hessian":[1.2498849E1,8.986986E0,3.5118625E0,3.7667418E0,5.2202444E0],"tree_param":{"num_deleted":"0","num_feature":"8","num_nodes":"5","size_leaf_vector":"1"}},{"base_weights":[1.20888904E-1,2.406489E-1,-2.1195872E-2,3.5469458E-2,5.6375094E-2,3.7232775E-2,-2.9769097E-2],"categories":[],"categories_nodes":[],"categories_segments":[],"categories_sizes":[],"default_left":[0,0,0,0,0,0,0],"id":106,"left_children":[1,3,-1,5,-1,-1,-1],"loss_changes":[6.202193E-1,7.072172E-1,0E0,9.8354644E-1,0E0,0E0,0E0],"parents":[2147483647,0,0,1,1,3,3],"right_children":[2,4,-1,6,-1,-1,-1],"split_conditions":[3.81E1,6.27E-1,-2.1195872E-2,2.6E-1,5.6375094E-2,3.7232775E-2,-2.9769097E-2],"split_indices":[5,6,0,6,0,0,0],"split_type":[0,0,0,0,0,0,0],"sum_hessian":[1.3279616E1,9.969535E0,3.3100815E0,6.7762146E0,3.1933205E0,3.310951E0,3.4652636E0],"tree_param":{"num_deleted":"0","num_feature":"8","num_nodes":"7","size_leaf_vector":"1"}},{"base_weights":[-6.921578E-2,1.690122E-1,-6.3028924E-2,-2.1730788E-2,3.6041263E-1,-8.163254E-3,6.88474E-2],"categories":[],"categories_nodes":[],"categories_segments":[],"categories_sizes":[],"default_left":[0,0,0,0,0,0,0],"id":107,"left_children":[1,3,-1,-1,5,-1,-1],"loss_changes":[1.9702111E0,8.6032844E-1,0E0,0E0,1.1363362E0,0E0,0E0],"parents":[2147483647,0,0,1,1,4,4],"right_children":[2,4,-1,-1,6,-1,-1],"split_conditions":[3.67E1,2.99E1,-6.3028924E-2,-2.1730788E-2,3.52E-1,-8.163254E-3,6.88474E-2],"split_indices":[5,5,0,0,6,0,0],"split_type":[0,0,0,0,0,0,0],"sum_hessian":[1.2943119E1,9.575989E0,3.3671305E0,3.1277075E0,6.448281E0,3.0669272E0,3.3813539E0],"tree_param":{"num_deleted":"0","num_feature":"8","num_nodes":"7","size_leaf_vector":"1"}},{"base_weights":[1.3394943E-1,2.2984003E-1,-7.3621715E-3,1.1677532E-3,5.0225742E-2],"categories":[],"categories_nodes":[],"categories_segments":[],"categories_sizes":[],"default_left":[0,0,0,0,0],"id":108,"left_children":[1,3,-1,-1,-1],"loss_changes":[2.8841516E-1,5.6304526E-1,0E0,0E0,0E0],"parents":[2147483647,0,0,1,1],"right_children":[2,4,-1,-1,-1],"split_conditions":[4.99E-1,3.14E-1,-7.3621715E-3,1.1677532E-3,5.0225742E-2],"split_indices":[6,6,0,0,0],"split_type":[0,0,0,0,0],"sum_hessian":[1.264009E1,8.572577E0,4.067513E0,5.339424E0,3.233153E0],"tree_param":{"num_deleted":"0","num_feature":"8","num_nodes":"5","size_leaf_vector":"1"}},{"base_weights":[-1.16289996E-1,-3.3519708E-2,7.997812E-2,4.069972E-2,-2.8636796E-2],"categories":[],"categories_nodes":[],"categories_segments":[],"categories_sizes":[],"default_left":[0,0,0,0,0],"id":109,"left_children":[1,-1,3,-1,-1],"loss_changes":[6.032355E-1,0E0,1.0607517E0,0E0,0E0],"parents":[2147483647,0,0,2,2],"right_children":[2,-1,4,-1,-1],"split_conditions":[3.33E1,-3.3519708E-2,3.67E1,4.069972E-2,-2.8636796E-2],"split_indices":[5,0,5,0,0],"split_type":[0,0,0,0,0],"sum_hessian":[1.2416364E1,5.535031E0,6.881333E0,3.577189E0,3.3041441E0],"tree_param":{"num_deleted":"0","num_feature":"8","num_nodes":"5","size_leaf_vector":"1"}},{"base_weights":[3.3063825E-2,-3.2781135E-2,1.5030116E-1,3.959183E-2,-3.1037603E-2,-3.311063E-2,3.343458E-2],"categories":[],"categories_nodes":[],"categories_segments":[],"categories_sizes":[],"default_left":[0,0,0,0,0,0,0],"id":110,"left_children":[1,-1,3,-1,5,-1,-1],"loss_changes":[6.9256186E-1,0E0,5.5399156E-1,0E0,9.794829E-1,0E0,0E0],"parents":[2147483647,0,0,2,2,4,4],"right_children":[2,-1,4,-1,6,-1,-1],"split_conditions":[1.07E2,-3.2781135E-2,1.26E2,3.959183E-2,1.48E2,-3.311063E-2,3.343458E-2],"split_indices":[1,0,1,0,1,0,0],"split_type":[0,0,0,0,0,0,0],"sum_hessian":[1.4204945E1,3.0427477E0,1.1162197E1,4.238282E0,6.923915E0,3.853261E0,3.070654E0],"tree_param":{"num_deleted":"0","num_feature":"8","num_nodes":"7","size_leaf_vector":"1"}},{"base_weights":[-4.3278746E-2,1.2863529E-1,-3.3874206E-2,-9.106868E-3,4.179121E-2],"categories":[],"categories_nodes":[],"categories_segments":[],"categories_sizes":[],"default_left":[0,0,0,0,0],"id":111,"left_children":[1,3,-1,-1,-1],"loss_changes":[8.020846E-1,6.840981E-1,0E0,0E0,0E0],"parents":[2147483647,0,0,1,1],"right_children":[2,4,-1,-1,-1],"split_conditions":[4.99E-1,1.33E2,-3.3874206E-2,-9.106868E-3,4.179121E-2],"split_indices":[6,1,0,0,0],"split_type":[0,0,0,0,0],"sum_hessian":[1.3932986E1,9.165002E0,4.7679844E0,5.5983076E0,3.5666947E0],"tree_param":{"num_deleted":"0","num_feature":"8","num_nodes":"5","size_leaf_vector":"1"}},{"base_weights":[3.2193917E-3,-1.2203046E-1,3.4172695E-2,1.302875E-2,-2.3053922E-1,-5.3108115E-2,8.25591E-3],"categories":[],"categories_nodes":[],"categories_segments":[],"categories_sizes":[],"default_left":[0,0,0,0,0,0,0],"id":112,"left_children":[1,3,-1,-1,5,-1,-1],"loss_changes":[7.041977E-1,3.6247948E-1,0E0,0E0,8.7680984E-1,0E0,0E0],"parents":[2147483647,0,0,1,1,4,4],"right_children":[2,4,-1,-1,6,-1,-1],"split_conditions":[3.9E1,2.35E-1,3.4172695E-2,1.302875E-2,4.84E-1,-5.3108115E-2,8.25591E-3],"split_indices":[3,6,0,0,6,0,0],"split_type":[0,0,0,0,0,0,0],"sum_hessian":[1.46256485E1,1.1142398E1,3.4832504E0,3.2904134E0,7.8519845E0,3.6510975E0,4.200887E0],"tree_param":{"num_deleted":"0","num_feature":"8","num_nodes":"7","size_leaf_vector":"1"}},{"base_weights":[-4.2316414E-2,-1.7029466E-1,3.152096E-2,-3.2125324E-1,1.4061454E-2,-7.282376E-3,-5.4818224E-2],"categories":[],"categories_nodes":[],"categories_segments":[],"categories_sizes":[],"default_left":[0,0,0,0,0,0,0],"id":113,"left_children":[1,3,-1,5,-1,-1,-1],"loss_changes":[7.2020894E-1,5.7912457E-1,0E0,4.0898037E-1,0E0,0E0,0E0],"parents":[2147483647,0,0,1,1,3,3],"right_children":[2,4,-1,6,-1,-1,-1],"split_conditions":[3.9E1,4.3E1,3.152096E-2,7.4E1,1.4061454E-2,-7.282376E-3,-5.4818224E-2],"split_indices":[3,7,0,2,0,0,0],"split_type":[0,0,0,0,0,0,0],"sum_hessian":[1.3567204E1,1.0376552E1,3.1906533E0,6.962645E0,3.4139063E0,3.954445E0,3.0082E0],"tree_param":{"num_deleted":"0","num_feature":"8","num_nodes":"7","size_leaf_vector":"1"}},{"base_weights":[4.1808378E-2,-1.335523E-1,3.195141E-2,2.046196E-2,-4.1155558E-2],"categories":[],"categories_nodes":[],"categories_segments":[],"categories_sizes":[],"default_left":[0,0,0,0,0],"id":114,"left_children":[1,3,-1,-1,-1],"loss_changes":[7.1758634E-1,9.4913626E-1,0E0,0E0,0E0],"parents":[2147483647,0,0,1,1],"right_children":[2,4,-1,-1,-1],"split_conditions":[4.84E-1,4E0,3.195141E-2,2.046196E-2,-4.1155558E-2],"split_indices":[6,0,0,0,0],"split_type":[0,0,0,0,0],"sum_hessian":[1.2858995E1,8.200056E0,4.65894E0,3.8187618E0,4.3812943E0],"tree_param":{"num_deleted":"0","num_feature":"8","num_nodes":"5","size_leaf_vector":"1"}},{"base_weights":[2.4243683E-2,1.604049E-1,-2.8100504E-2,-8.184555E-3,3.676898E-2],"categories":[],"categories_nodes":[],"categories_segments":[],"categories_sizes":[],"default_left":[0,0,0,0,0],"id":115,"left_children":[1,3,-1,-1,-1],"loss_changes":[6.503326E-1,5.677427E-1,0E0,0E0,0E0],"parents":[2147483647,0,0,1,1],"right_children":[2,4,-1,-1,-1],"split_conditions":[3.67E1,1.19E2,-2.8100504E-2,-8.184555E-3,3.676898E-2],"split_indices":[5,1,0,0,0],"split_type":[0,0,0,0,0],"sum_hessian":[1.356241E1,9.706968E0,3.8554428E0,4.7550144E0,4.9519534E0],"tree_param":{"num_deleted":"0","num_feature":"8","num_nodes":"5","size_leaf_vector":"1"}},{"base_weights":[3.3280108E-2,-2.2086253E-2,1.9462726E-1,4.3320872E-2,-2.710554E-3],"categories":[],"categories_nodes":[],"categories_segments":[],"categories_sizes":[],"default_left":[0,0,0,0,0],"id":116,"left_children":[1,-1,3,-1,-1],"loss_changes":[6.3949186E-1,0E0,5.1058006E-1,0E0,0E0],"parents":[2147483647,0,0,2,2],"right_children":[2,-1,4,-1,-1],"split_conditions":[7.2E1,-2.2086253E-2,7.8E1,4.3320872E-2,-2.710554E-3],"split_indices":[2,0,2,0,0],"split_type":[0,0,0,0,0],"sum_hessian":[1.3547086E1,5.117498E0,8.429587E0,3.601105E0,4.828482E0],"tree_param":{"num_deleted":"0","num_feature":"8","num_nodes":"5","size_leaf_vector":"1"}},{"base_weights":[-1.9752699E-1,-4.469429E-2,7.204274E-3,3.607906E-2,-2.317175E-2],"categories":[],"categories_nodes":[],"categories_segments":[],"categories_sizes":[],"default_left":[0,0,0,0,0],"id":117,"left_children":[1,-1,3,-1,-1],"loss_changes":[7.589814E-1,0E0,8.5342205E-1,0E0,0E0],"parents":[2147483647,0,0,2,2],"right_children":[2,-1,4,-1,-1],"split_conditions":[3.13E-1,-4.469429E-2,5.01E-1,3.607906E-2,-2.317175E-2],"split_indices":[6,0,6,0,0],"split_type":[0,0,0,0,0],"sum_hessian":[1.3800502E1,5.687986E0,8.112516E0,3.0655916E0,5.0469246E0],"tree_param":{"num_deleted":"0","num_feature":"8","num_nodes":"5","size_leaf_vector":"1"}},{"base_weights":[1.16882436E-1,-1.2809631E-1,3.2056686E-1,2.0029062E-2,-4.158989E-2,-6.963384E-4,5.6355733E-2],"categories":[],"categories_nodes":[],"categories_segments":[],"categories_sizes":[],"default_left":[0,0,0,0,0,0,0],"id":118,"left_children":[1,3,5,-1,-1,-1,-1],"loss_changes":[7.545398E-1,7.643234E-1,6.4800507E-1,0E0,0E0,0E0,0E0],"parents":[2147483647,0,0,1,1,2,2],"right_children":[2,4,6,-1,-1,-1,-1],"split_conditions":[3.14E-1,3.41E1,3E0,2.0029062E-2,-4.158989E-2,-6.963384E-4,5.6355733E-2],"split_indices":[6,5,0,0,0,0,0],"split_type":[0,0,0,0,0,0,0],"sum_hessian":[1.3298596E1,6.20578E0,7.0928164E0,3.0405445E0,3.1652358E0,3.434606E0,3.6582103E0],"tree_param":{"num_deleted":"0","num_feature":"8","num_nodes":"7","size_leaf_vector":"1"}},{"base_weights":[1.2668972E-1,-2.7280213E-2,3.6876746E-2,2.0975338E-2,-1.9262757E-2],"categories":[],"categories_nodes":[],"categories_segments":[],"categories_sizes":[],"default_left":[0,0,0,0,0],"id":119,"left_children":[1,3,-1,-1,-1],"loss_changes":[5.03351E-1,3.9394686E-1,0E0,0E0,0E0],"parents":[2147483647,0,0,1,1],"right_children":[2,4,-1,-1,-1],"split_conditions":[1.25E2,3.3E1,3.6876746E-2,2.0975338E-2,-1.9262757E-2],"split_indices":[4,7,0,0,0],"split_type":[0,0,0,0,0],"sum_hessian":[1.2234647E1,8.020582E0,4.2140646E0,3.1854792E0,4.8351035E0],"tree_param":{"num_deleted":"0","num_feature":"8","num_nodes":"5","size_leaf_vector":"1"}},{"base_weights":[5.310383E-2,-2.8266013E-2,1.7345034E-1,-8.353512E-3,4.096561E-2],"categories":[],"categories_nodes":[],"categories_segments":[],"categories_sizes":[],"default_left":[0,0,0,0,0],"id":120,"left_children":[1,-1,3,-1,-1],"loss_changes":[6.3557434E-1,0E0,7.204703E-1,0E0,0E0],"parents":[2147483647,0,0,2,2],"right_children":[2,-1,4,-1,-1],"split_conditions":[2.6E1,-2.8266013E-2,3.14E-1,-8.353512E-3,4.096561E-2],"split_indices":[7,0,6,0,0],"split_type":[0,0,0,0,0],"sum_hessian":[1.3515605E1,3.21028E0,1.03053255E1,5.2451215E0,5.060204E0],"tree_param":{"num_deleted":"0","num_feature":"8","num_nodes":"5","size_leaf_vector":"1"}},{"base_weights":[1.3716945E-1,-1.4779267E-1,3.6894304E-1,-3.0055104E-2,4.15298E-3,5.6367844E-2,1.0169651E-2],"categories":[],"categories_nodes":[],"categories_segments":[],"categories_sizes":[],"default_left":[0,0,0,0,0,0,0],"id":121,"left_children":[1,3,5,-1,-1,-1,-1],"loss_changes":[9.956234E-1,2.1796636E-1,3.664999E-1,0E0,0E0,0E0,0E0],"parents":[2147483647,0,0,1,1,2,2],"right_children":[2,4,6,-1,-1,-1,-1],"split_conditions":[3.1E1,1.26E2,2.82E-1,-3.0055104E-2,4.15298E-3,5.6367844E-2,1.0169651E-2],"split_indices":[7,1,6,0,0,0,0],"split_type":[0,0,0,0,0,0,0],"sum_hessian":[1.3248957E1,6.1051307E0,7.143826E0,3.0536933E0,3.0514376E0,3.4908957E0,3.6529305E0],"tree_param":{"num_deleted":"0","num_feature":"8","num_nodes":"7","size_leaf_vector":"1"}},{"base_weights":[-9.1367126E-2,1.9790266E-2,-2.309049E-1,-2.6777496E-3,-4.787134E-2],"categories":[],"categories_nodes":[],"categories_segments":[],"categories_sizes":[],"default_left":[0,0,0,0,0],"id":122,"left_children":[1,-1,3,-1,-1],"loss_changes":[6.0803485E-1,0E0,4.859287E-1,0E0,0E0],"parents":[2147483647,0,0,2,2],"right_children":[2,-1,4,-1,-1],"split_conditions":[1.1E2,1.9790266E-2,4.27E-1,-2.6777496E-3,-4.787134E-2],"split_indices":[1,0,6,0,0],"split_type":[0,0,0,0,0],"sum_hessian":[1.2931654E1,4.0719647E0,8.859689E0,5.465581E0,3.394108E0],"tree_param":{"num_deleted":"0","num_feature":"8","num_nodes":"5","size_leaf_vector":"1"}},{"base_weights":[-6.268842E-2,-2.7943803E-2,7.586976E-2,2.893827E-2,-2.1905378E-2],"categories":[],"categories_nodes":[],"categories_segments":[],"categories_sizes":[],"default_left":[0,0,0,0,0],"id":123,"left_children":[1,-1,3,-1,-1],"loss_changes":[4.5017415E-1,0E0,6.6160405E-1,0E0,0E0],"parents":[2147483647,0,0,2,2],"right_children":[2,-1,4,-1,-1],"split_conditions":[3.2E1,-2.7943803E-2,3.67E1,2.893827E-2,-2.1905378E-2],"split_indices":[5,0,5,0,0],"split_type":[0,0,0,0,0],"sum_hessian":[1.3283667E1,4.7836857E0,8.499981E0,4.941395E0,3.5585864E0],"tree_param":{"num_deleted":"0","num_feature":"8","num_nodes":"5","size_leaf_vector":"1"}},{"base_weights":[-1.0730017E-1,-5.0020617E-2,9.4616026E-2,3.4703203E-2,-8.881046E-3],"categories":[],"categories_nodes":[],"categories_segments":[],"categories_sizes":[],"default_left":[0,0,0,0,0],"id":124,"left_children":[1,-1,3,-1,-1],"loss_changes":[1.0804422E0,0E0,4.6801734E-1,0E0,0E0],"parents":[2147483647,0,0,2,2],"right_children":[2,-1,4,-1,-1],"split_conditions":[2E0,-5.0020617E-2,3.4E1,3.4703203E-2,-8.881046E-3],"split_indices":[0,0,7,0,0],"split_type":[0,0,0,0,0],"sum_hessian":[1.2022329E1,3.5795789E0,8.442751E0,3.1777961E0,5.2649546E0],"tree_param":{"num_deleted":"0","num_feature":"8","num_nodes":"5","size_leaf_vector":"1"}}]},"name":"gbtree"},"learner_model_param":{"base_score":"3.276233E-1","boost_from_average":"1","num_class":"0","num_feature":"8","num_target":"1"},"objective":{"name":"binary:logistic","reg_loss_param":{"scale_pos_weight":"1"}}},"version":[2,1,1]}