{"learner":{"attributes":{},"feature_names":[],"feature_types":[],"gradient_booster":{"model":{"gbtree_model_param":{"num_parallel_tree":"1","num_trees":"100"},"iteration_indptr":[0,1,2,3,4,5,6,7,8,9,10,11,12,13,14,15,16,17,18,19,20,21,22,23,24,25,26,27,28,29,30,31,32,33,34,35,36,37,38,39,40,41,42,43,44,45,46,47,48,49,50,51,52,53,54,55,56,57,58,59,60,61,62,63,64,65,66,67,68,69,70,71,72,73,74,75,76,77,78,79,80,81,82,83,84,85,86,87,88,89,90,91,92,93,94,95,96,97,98,99,100],"tree_info":[0,0,0,0,0,0,0,0,0,0,0,0,0,0,0,0,0,0,0,0,0,0,0,0,0,0,0,0,0,0,0,0,0,0,0,0,0,0,0,0,0,0,0,0,0,0,0,0,0,0,0,0,0,0,0,0,0,0,0,0,0,0,0,0,0,0,0,0,0,0,0,0,0,0,0,0,0,0,0,0,0,0,0,0,0,0,0,0,0,0,0,0,0,0,0,0,0,0,0,0],"trees":[{"base_weights":[-6.4428344E-2,-9.4892E-1,1.4730153E0,-1.2285486E0,-8.977438E-2,1.7744445E0,-2.032916E-2,-1.4197389E0,-7.5881593E-3,-4.0021185E-2,2.4980421E-1,1.8641334E-2,2.0658529E0,-7.661282E-2,-4.002344E-2,3.1662576E-2,-1.6938657E-2,4.790714E-2,1.1089863E-1],"categories":[],"categories_nodes":[],"categories_segments":[],"categories_sizes":[],"default_left":[0,0,0,0,0,0,0,0,0,0,0,0,0,0,0,0,0,0,0],"id":0,"left_children":[1,3,5,7,9,11,-1,13,-1,-1,15,-1,17,-1,-1,-1,-1,-1,-1],"loss_changes":[1.0115424E2,1.1223331E1,1.6121971E1,7.0956078E0,3.2557974E0,8.873924E0,0E0,8.6652374E-1,0E0,0E0,2.3203597E0,0E0,1.1316376E0,0E0,0E0,0E0,0E0,0E0,0E0],"parents":[2147483647,0,0,1,1,2,2,3,3,4,4,5,5,7,7,10,10,12,12],"right_children":[2,4,6,8,10,12,-1,14,-1,-1,16,-1,18,-1,-1,-1,-1,-1,-1],"split_conditions":[1.3E2,5E0,2.55E2,8E1,9.7E1,2.98E1,-2.032916E-2,3.48E1,-7.5881593E-3,-4.0021185E-2,1.15E2,1.8641334E-2,2.82E-1,-7.661282E-2,-4.002344E-2,3.1662576E-2,-1.6938657E-2,4.790714E-2,1.1089863E-1],"split_indices":[1,0,4,2,1,5,0,5,0,0,1,0,6,0,0,0,0,0,0],"split_type":[0,0,0,0,0,0,0,0,0,0,0,0,0,0,0,0,0,0,0],"sum_hessian":[7.235811E1,4.61759E1,2.618221E1,3.4512913E1,1.1662985E1,2.2611908E1,3.5703013E0,2.9038452E1,5.474462E0,3.3322814E0,8.330703E0,4.284362E0,1.8327547E1,2.332597E1,5.7124825E0,4.998422E0,3.3322814E0,3.0942612E0,1.5233286E1],"tree_param":{"num_deleted":"0","num_feature":"8","num_nodes":"19","size_leaf_vector":"1"}},{"base_weights":[-3.8316634E-2,-8.868683E-1,9.7494644E-1,-1.3364178E0,-2.377941E-1,-4.9374786E-1,1.4499522E0,-7.322722E-2,-3.9794754E-2,4.6910614E-2,-5.3938466E-1,1.0709448E-2,-4.4106167E-2,5.6711596E-1,1.06111966E-1,-5.8767118E-2,-1.1857665E-1,-1.9747904E-2,9.7444975E-1,-2.6156891E-2,1.8027121E-2,6.0712196E-2,2.2911554E-2],"categories":[],"categories_nodes":[],"categories_segments":[],"categories_sizes":[],"default_left":[0,0,0,0,0,0,0,0,0,0,0,0,0,0,0,0,0,0,0,0,0,0,0],"id":1,"left_children":[1,3,5,7,9,11,13,-1,-1,-1,15,-1,-1,17,-1,-1,19,-1,21,-1,-1,-1,-1],"loss_changes":[6.6093056E1,1.1882423E1,2.516996E1,5.3017044E-1,7.005581E0,2.7492902E0,1.4667397E1,0E0,0E0,0E0,3.9337497E0,0E0,0E0,5.4498577E0,0E0,0E0,2.179578E0,0E0,6.033001E-1,0E0,0E0,0E0,0E0],"parents":[2147483647,0,0,1,1,2,2,3,3,4,4,5,5,6,6,10,10,13,13,16,16,18,18],"right_children":[2,4,6,8,10,12,14,-1,-1,-1,16,-1,-1,18,-1,-1,20,-1,22,-1,-1,-1,-1],"split_conditions":[3.2E1,3.05E1,2.97E1,2.8E1,1.2E1,2.6E-1,4.66E-1,-7.322722E-2,-3.9794754E-2,4.6910614E-2,3E1,1.0709448E-2,-4.4106167E-2,3.36E1,1.06111966E-1,-5.8767118E-2,1.25E2,-1.9747904E-2,3.72E1,-2.6156891E-2,1.8027121E-2,6.0712196E-2,2.2911554E-2],"split_indices":[7,5,5,7,3,6,6,0,0,0,3,0,0,5,0,0,4,0,5,0,0,0,0],"split_type":[0,0,0,0,0,0,0,0,0,0,0,0,0,0,0,0,0,0,0,0,0,0,0],"sum_hessian":[7.48641E1,4.081148E1,3.4052616E1,2.3486055E1,1.7325426E1,8.312213E0,2.5740402E1,1.7603735E1,5.8823204E0,3.1054227E0,1.4220003E1,3.1035373E0,5.2086754E0,1.1924677E1,1.3815725E1,4.948455E0,9.271548E0,3.556062E0,8.368614E0,4.977091E0,4.2944574E0,4.7909374E0,3.577677E0],"tree_param":{"num_deleted":"0","num_feature":"8","num_nodes":"23","size_leaf_vector":"1"}},{"base_weights":[-6.042178E-2,-1.1554581E0,6.5765643E-1,-7.0455775E-2,-2.7715468E-1,-1.3776588E-1,1.3442011E0,7.14269E-3,-3.0695332E-2,4.2509083E-2,-4.665764E-1,3.811902E-1,9.9862635E-2,-9.3365914E-1,-3.854847E-3,-7.906686E-3,3.5908062E-2,-6.281705E-2,-1.8759847E-2,-2.7776992E-2,1.8912409E-2],"categories":[],"categories_nodes":[],"categories_segments":[],"categories_sizes":[],"default_left":[0,0,0,0,0,0,0,0,0,0,0,0,0,0,0,0,0,0,0,0,0],"id":2,"left_children":[1,3,5,-1,7,9,11,-1,-1,-1,13,15,-1,17,19,-1,-1,-1,-1,-1,-1],"loss_changes":[5.871332E1,6.193321E0,2.484117E1,0E0,1.2004086E0,7.4859495E0,1.453743E1,0E0,0E0,0E0,3.6748106E0,2.1246948E0,0E0,1.0541883E0,2.224079E0,0E0,0E0,0E0,0E0,0E0,0E0],"parents":[2147483647,0,0,1,1,2,2,4,4,5,5,6,6,10,10,11,11,13,13,14,14],"right_children":[2,4,6,-1,8,10,12,-1,-1,-1,14,16,-1,18,20,-1,-1,-1,-1,-1,-1],"split_conditions":[2.89E1,6E0,3.5E1,-7.0455775E-2,8E0,1.5E1,3.89E-1,7.14269E-3,-3.0695332E-2,4.2509083E-2,3.2E1,4.1E1,9.9862635E-2,2.5E1,2.85E-1,-7.906686E-3,3.5908062E-2,-6.281705E-2,-1.8759847E-2,-2.7776992E-2,1.8912409E-2],"split_indices":[5,0,7,0,0,3,6,0,0,0,3,7,0,7,6,0,0,0,0,0,0],"split_type":[0,0,0,0,0,0,0,0,0,0,0,0,0,0,0,0,0,0,0,0,0],"sum_hessian":[7.270192E1,2.8552132E1,4.4149788E1,2.168505E1,6.8670835E0,2.0823393E1,2.3326395E1,3.312015E0,3.5550683E0,4.803904E0,1.601949E1,1.0066183E1,1.3260213E1,7.465684E0,8.553805E0,4.07494E0,5.9912434E0,3.939678E0,3.5260062E0,3.3144546E0,5.239351E0],"tree_param":{"num_deleted":"0","num_feature":"8","num_nodes":"21","size_leaf_vector":"1"}},{"base_weights":[-5.0575964E-2,-8.374618E-1,1.3201942E0,-1.2422212E0,-4.570491E-2,3.692068E-3,1.5748094E0,-6.9076344E-2,-6.407268E-3,-4.5335975E-2,4.5126235E-1,9.613305E-3,1.805142E0,-2.0222625E-2,9.292205E-1,4.486164E-2,9.648361E-2,6.99624E-2,1.0009936E-2],"categories":[],"categories_nodes":[],"categories_segments":[],"categories_sizes":[],"default_left":[0,0,0,0,0,0,0,0,0,0,0,0,0,0,0,0,0,0,0],"id":3,"left_children":[1,3,5,7,9,-1,11,-1,-1,-1,13,-1,15,-1,17,-1,-1,-1,-1],"loss_changes":[7.848227E1,1.4744419E1,8.3089905E0,4.5601616E0,7.5387654E0,0E0,6.657688E0,0E0,0E0,0E0,4.969691E0,0E0,3.8698578E-1,0E0,2.2932525E0,0E0,0E0,0E0,0E0],"parents":[2147483647,0,0,1,1,2,2,3,3,4,4,6,6,10,10,12,12,14,14],"right_children":[2,4,6,8,10,-1,12,-1,-1,-1,14,-1,16,-1,18,-1,-1,-1,-1],"split_conditions":[1.3E2,3.1E1,2.63E-1,6.82E-1,1E2,3.692068E-3,2.98E1,-6.9076344E-2,-6.407268E-3,-4.5335975E-2,2.79E1,9.613305E-3,3E1,-2.0222625E-2,1.17E2,4.486164E-2,9.648361E-2,6.99624E-2,1.0009936E-2],"split_indices":[1,7,6,6,1,0,5,0,0,0,5,0,7,0,1,0,0,0,0],"split_type":[0,0,0,0,0,0,0,0,0,0,0,0,0,0,0,0,0,0,0],"sum_hessian":[7.0735405E1,4.518574E1,2.554966E1,2.9523758E1,1.5661985E1,4.5529194E0,2.099674E1,2.6028992E1,3.4947655E0,5.429927E0,1.0232059E1,3.2605324E0,1.7736208E1,3.7220528E0,6.5100055E0,3.1289556E0,1.4607253E1,3.399118E0,3.1108875E0],"tree_param":{"num_deleted":"0","num_feature":"8","num_nodes":"19","size_leaf_vector":"1"}},{"base_weights":[-3.012576E-2,-8.8745064E-1,1.2093179E0,-1.2487731E0,-4.3786183E-1,1.4219621E0,-1.3480154E-2,-6.857188E-2,-2.807942E-2,6.0600184E-2,-8.6067337E-1,4.2741483E-1,8.6682275E-2,-4.1696647E-1,3.762911E-2,-1.04228E0,-1.2819317E-2,-2.3374783E-2,6.792979E-2,-3.5461407E-2,-1.3224202E-3,-6.444924E-2,-2.323787E-2],"categories":[],"categories_nodes":[],"categories_segments":[],"categories_sizes":[],"default_left":[0,0,0,0,0,0,0,0,0,0,0,0,0,0,0,0,0,0,0,0,0,0,0],"id":4,"left_children":[1,3,5,7,9,11,-1,-1,-1,13,15,17,-1,19,-1,21,-1,-1,-1,-1,-1,-1,-1],"loss_changes":[8.179171E1,6.8412704E0,1.0284218E1,1.3097649E0,4.6476235E0,7.8407784E0,0E0,0E0,0E0,3.9295578E0,1.0346909E0,7.2459784E0,0E0,7.935406E-1,0E0,6.5413094E-1,0E0,0E0,0E0,0E0,0E0,0E0,0E0],"parents":[2147483647,0,0,1,1,2,2,3,3,4,4,5,5,9,9,10,10,11,11,13,13,15,15],"right_children":[2,4,6,8,10,12,-1,-1,-1,14,16,18,-1,20,-1,22,-1,-1,-1,-1,-1,-1,-1],"split_conditions":[1.28E2,2.97E1,2.28E2,6E0,1.4E1,3.15E-1,-1.3480154E-2,-6.857188E-2,-2.807942E-2,1.14E2,1.44E2,1.45E2,8.6682275E-2,3.19E-1,3.762911E-2,4.83E-1,-1.2819317E-2,-2.3374783E-2,6.792979E-2,-3.5461407E-2,-1.3224202E-3,-6.444924E-2,-2.323787E-2],"split_indices":[1,5,4,0,4,6,0,0,0,1,4,1,0,6,0,6,0,0,0,0,0,0,0],"split_type":[0,0,0,0,0,0,0,0,0,0,0,0,0,0,0,0,0,0,0,0,0,0,0],"sum_hessian":[7.496278E1,4.447994E1,3.0482841E1,2.3675213E1,2.0804728E1,2.6684559E1,3.7982821E0,1.9244316E1,4.430897E0,9.941337E0,1.0863391E1,6.933102E0,1.9751457E1,6.117096E0,3.8242407E0,7.7957287E0,3.067662E0,3.7893271E0,3.143775E0,3.0319097E0,3.085186E0,4.599151E0,3.1965778E0],"tree_param":{"num_deleted":"0","num_feature":"8","num_nodes":"23","size_leaf_vector":"1"}},{"base_weights":[-3.520272E-2,-8.9277905E-1,8.1694686E-1,-1.2813692E0,-2.7428907E-1,1.6674852E-1,1.5191355E0,-6.9390744E-2,-3.5038788E-2,-3.6856536E-2,5.107024E-2,-2.6103614E-2,4.271544E-1,3.3612907E-2,8.4834985E-2,-1.6901678E-1,2.1466812E-2,6.631342E-1,-1.7973829E-2,-2.6026769E-2,1.2066265E-2,1.8870004E-2,5.567741E-2],"categories":[],"categories_nodes":[],"categories_segments":[],"categories_sizes":[],"default_left":[0,0,0,0,0,0,0,0,0,0,0,0,0,0,0,0,0,0,0,0,0,0,0],"id":5,"left_children":[1,3,5,7,9,11,13,-1,-1,-1,15,-1,17,-1,-1,19,-1,21,-1,-1,-1,-1,-1],"loss_changes":[5.6490574E1,8.90361E0,1.7458984E1,4.7220993E-1,2.466832E0,4.0376368E0,1.6456032E0,0E0,0E0,0E0,9.390142E-1,0E0,3.2051678E0,0E0,0E0,1.1781591E0,0E0,1.2072382E0,0E0,0E0,0E0,0E0,0E0],"parents":[2147483647,0,0,1,1,2,2,3,3,4,4,5,5,6,6,10,10,12,12,15,15,17,17],"right_children":[2,4,6,8,10,12,14,-1,-1,-1,16,-1,18,-1,-1,20,-1,22,-1,-1,-1,-1,-1],"split_conditions":[3.1E1,3.05E1,1.1E2,2.8E1,3.37E-1,2.83E1,7.4E1,-6.9390744E-2,-3.5038788E-2,-3.6856536E-2,1.56E2,-2.6103614E-2,3.6E1,3.3612907E-2,8.4834985E-2,3.58E1,2.1466812E-2,8E0,-1.7973829E-2,-2.6026769E-2,1.2066265E-2,1.8870004E-2,5.567741E-2],"split_indices":[7,5,4,7,6,5,2,0,0,0,4,0,3,0,0,5,0,3,0,0,0,0,0],"split_type":[0,0,0,0,0,0,0,0,0,0,0,0,0,0,0,0,0,0,0,0,0,0,0],"sum_hessian":[7.530336E1,3.7508408E1,3.7794952E1,2.2377262E1,1.5131145E1,2.026648E1,1.7528473E1,1.7735334E1,4.6419272E0,5.723525E0,9.407619E0,5.2841372E0,1.4982343E1,3.8677206E0,1.3660752E1,6.2970047E0,3.110615E0,1.1645752E1,3.336591E0,3.2469623E0,3.0500426E0,8.250002E0,3.39575E0],"tree_param":{"num_deleted":"0","num_feature":"8","num_nodes":"23","size_leaf_vector":"1"}},{"base_weights":[5.567166E-3,-8.5054266E-1,1.2180351E0,-1.1863142E0,-1.9773695E-1,3.717773E-4,1.3787555E0,-6.273401E-2,-2.3633996E-2,-5.4919507E-2,2.6120493E-1,1.5579864E0,1.5818926E-2,-2.1880759E-2,6.452543E-1,3.576145E-2,1.7237949E0,5.4099E-2,-1.5843284E-3,9.235633E-2,4.2414647E-2],"categories":[],"categories_nodes":[],"categories_segments":[],"categories_sizes":[],"default_left":[0,0,0,0,0,0,0,0,0,0,0,0,0,0,0,0,0,0,0,0,0],"id":6,"left_children":[1,3,5,7,9,-1,11,-1,-1,-1,13,15,-1,-1,17,-1,19,-1,-1,-1,-1],"loss_changes":[7.970143E1,9.631157E0,6.172325E0,8.472519E-1,7.1019583E0,0E0,4.847416E0,0E0,0E0,0E0,3.4304545E0,2.084835E0,0E0,0E0,2.391667E0,0E0,4.9874115E-1,0E0,0E0,0E0,0E0],"parents":[2147483647,0,0,1,1,2,2,3,3,4,4,6,6,10,10,11,11,14,14,16,16],"right_children":[2,4,6,8,10,-1,12,-1,-1,-1,14,16,-1,-1,18,-1,20,-1,-1,-1,-1],"split_conditions":[1.28E2,3.1E1,2.87E1,6.55E-1,2.7E1,3.717773E-4,2.05E2,-6.273401E-2,-2.3633996E-2,-5.4919507E-2,1E2,3.06E-1,1.5818926E-2,-2.1880759E-2,1.17E2,3.576145E-2,1.022E0,5.4099E-2,-1.5843284E-3,9.235633E-2,4.2414647E-2],"split_indices":[1,7,5,6,5,0,4,0,0,0,1,6,0,0,1,0,6,0,0,0,0],"split_type":[0,0,0,0,0,0,0,0,0,0,0,0,0,0,0,0,0,0,0,0,0],"sum_hessian":[7.478517E1,4.4009243E1,3.0775925E1,2.8521774E1,1.548747E1,3.7296002E0,2.7046326E1,2.5336397E1,3.1853774E0,4.757593E0,1.07298765E1,2.2742914E1,4.30341E0,3.7559807E0,6.9738955E0,4.612497E0,1.8130419E1,3.8753755E0,3.0985203E0,1.4918994E1,3.2114239E0],"tree_param":{"num_deleted":"0","num_feature":"8","num_nodes":"21","size_leaf_vector":"1"}},{"base_weights":[4.083046E-2,-7.320231E-1,1.1414177E0,-1.0648755E0,-1.9530501E-2,3.9399055E-1,1.3539934E0,-1.1881498E0,-1.0770996E-2,-2.7454061E-2,1.9669257E-1,-1.240932E-2,4.2209856E-2,8.376311E-3,1.5332392E0,-2.159691E-2,-6.592107E-2,5.959284E-1,-2.248447E-2,8.183837E-2,4.0915303E-2,7.6458664E-3,4.479074E-2],"categories":[],"categories_nodes":[],"categories_segments":[],"categories_sizes":[],"default_left":[0,0,0,0,0,0,0,0,0,0,0,0,0,0,0,0,0,0,0,0,0,0,0],"id":7,"left_children":[1,3,5,7,9,11,13,15,-1,-1,17,-1,-1,-1,19,-1,-1,21,-1,-1,-1,-1,-1],"loss_changes":[6.1073456E1,9.990231E0,4.170437E0,2.754963E0,1.7636746E0,2.5126057E0,4.5578957E0,1.8822899E0,0E0,0E0,3.107606E0,0E0,0E0,0E0,1.07307434E-1,0E0,0E0,8.2386136E-1,0E0,0E0,0E0,0E0,0E0],"parents":[2147483647,0,0,1,1,2,2,3,3,4,4,5,5,6,6,7,7,10,10,14,14,17,17],"right_children":[2,4,6,8,10,12,14,16,-1,-1,18,-1,-1,-1,20,-1,-1,22,-1,-1,-1,-1,-1],"split_conditions":[1.28E2,3.3E1,3.06E-1,6.26E-1,9.1E1,1.42E2,2.6E1,8E0,-1.0770996E-2,-2.7454061E-2,1.2E2,-1.240932E-2,4.2209856E-2,8.376311E-3,1.076E0,-2.159691E-2,-6.592107E-2,1.07E2,-2.248447E-2,8.183837E-2,4.0915303E-2,7.6458664E-3,4.479074E-2],"split_indices":[1,7,6,6,1,1,7,3,0,0,1,0,0,0,6,0,0,1,0,0,0,0,0],"split_type":[0,0,0,0,0,0,0,0,0,0,0,0,0,0,0,0,0,0,0,0,0,0,0],"sum_hessian":[6.981874E1,4.1213036E1,2.8605707E1,2.7753134E1,1.3459902E1,6.966066E0,2.163964E1,2.3887783E1,3.8653502E0,3.4561193E0,1.0003783E1,3.055876E0,3.9101899E0,3.094052E0,1.854559E1,4.1445885E0,1.9743195E1,6.23241E0,3.771373E0,1.5073433E1,3.4721558E0,3.1253557E0,3.1070542E0],"tree_param":{"num_deleted":"0","num_feature":"8","num_nodes":"23","size_leaf_vector":"1"}},{"base_weights":[-5.3560425E-2,-7.423257E-1,9.866615E-1,-1.1511533E0,-2.7912658E-1,1.1753484E0,-2.4722885E-2,-6.346689E-2,-2.5475038E-2,-4.2408028E-1,2.3845147E-2,8.08944E-3,1.389781E0,-8.3864284E-1,-3.65948E-2,1.2196629E-2,7.938554E-2,-5.3632062E-2,-1.5605311E-2,2.1657703E-2,-1.9118657E-2],"categories":[],"categories_nodes":[],"categories_segments":[],"categories_sizes":[],"default_left":[0,0,0,0,0,0,0,0,0,0,0,0,0,0,0,0,0,0,0,0,0],"id":8,"left_children":[1,3,5,7,9,11,-1,-1,-1,13,-1,-1,15,17,19,-1,-1,-1,-1,-1,-1],"loss_changes":[5.3445797E1,8.169094E0,8.892107E0,1.1350021E0,2.6504717E0,5.5725136E0,0E0,0E0,0E0,3.0656173E0,0E0,0E0,4.5760727E0,8.0694866E-1,1.9537393E0,0E0,0E0,0E0,0E0,0E0,0E0],"parents":[2147483647,0,0,1,1,2,2,3,3,4,4,5,5,9,9,12,12,13,13,14,14],"right_children":[2,4,6,8,10,12,-1,-1,-1,14,-1,-1,16,18,20,-1,-1,-1,-1,-1,-1],"split_conditions":[1.3E2,2.97E1,2.85E2,6E0,4.05E1,2.98E1,-2.4722885E-2,-6.346689E-2,-2.5475038E-2,1.08E2,2.3845147E-2,8.08944E-3,2.63E-1,5E0,1.22E2,1.2196629E-2,7.938554E-2,-5.3632062E-2,-1.5605311E-2,2.1657703E-2,-1.9118657E-2],"split_indices":[1,5,4,0,5,5,0,0,0,1,0,0,6,0,1,0,0,0,0,0,0],"split_type":[0,0,0,0,0,0,0,0,0,0,0,0,0,0,0,0,0,0,0,0,0],"sum_hessian":[7.257386E1,4.383538E1,2.8738476E1,2.2495361E1,2.134002E1,2.5674166E1,3.0643108E0,1.817037E1,4.324991E0,1.8275185E1,3.0648363E0,4.7896056E0,2.088456E1,8.266602E0,1.0008582E1,3.4049819E0,1.7479578E1,5.0051126E0,3.2614887E0,4.1364355E0,5.872147E0],"tree_param":{"num_deleted":"0","num_feature":"8","num_nodes":"21","size_leaf_vector":"1"}},{"base_weights":[-1.848786E-2,-7.9598004E-1,1.0164255E0,-1.056137E0,-1.7328754E-1,-6.0277213E-3,1.1555278E0,-1.1635888E0,-2.707125E-2,-4.6049505E-2,1.4739627E-1,7.06302E-1,1.2742102E0,-2.7455518E-2,-6.497913E-2,2.3450136E-2,-1.8311188E-2,4.534685E-2,1.6715316E-2,2.4153816E-2,7.215522E-2],"categories":[],"categories_nodes":[],"categories_segments":[],"categories_sizes":[],"default_left":[0,0,0,0,0,0,0,0,0,0,0,0,0,0,0,0,0,0,0,0,0],"id":9,"left_children":[1,3,5,7,9,-1,11,13,-1,-1,15,17,19,-1,-1,-1,-1,-1,-1,-1,-1],"loss_changes":[5.821434E1,6.507309E0,5.0491524E0,9.701767E-1,3.3406427E0,0E0,5.797653E-1,1.213871E0,0E0,0E0,1.8593193E0,2.971635E-1,2.0701942E0,0E0,0E0,0E0,0E0,0E0,0E0,0E0,0E0],"parents":[2147483647,0,0,1,1,2,2,3,3,4,4,6,6,7,7,10,10,11,11,12,12],"right_children":[2,4,6,8,10,-1,12,14,-1,-1,16,18,20,-1,-1,-1,-1,-1,-1,-1,-1],"split_conditions":[1.28E2,3.3E1,2.4E1,3E1,9.1E1,-6.0277213E-3,1.7E1,8E0,-2.707125E-2,-4.6049505E-2,4.4E1,7.4E1,3.2E1,-2.7455518E-2,-6.497913E-2,2.3450136E-2,-1.8311188E-2,4.534685E-2,1.6715316E-2,2.4153816E-2,7.215522E-2],"split_indices":[1,7,7,3,1,0,3,3,0,0,7,2,7,0,0,0,0,0,0,0,0],"split_type":[0,0,0,0,0,0,0,0,0,0,0,0,0,0,0,0,0,0,0,0,0],"sum_hessian":[7.034308E1,4.0298885E1,3.0044193E1,2.7932701E1,1.2366186E1,3.2895737E0,2.675462E1,2.2065607E1,5.8670945E0,3.1499178E0,9.216269E0,7.043895E0,1.9710726E1,4.9114294E0,1.7154177E1,5.720936E0,3.4953322E0,3.6417134E0,3.4021814E0,4.1467514E0,1.5563974E1],"tree_param":{"num_deleted":"0","num_feature":"8","num_nodes":"21","size_leaf_vector":"1"}},{"base_weights":[-2.3762872E-2,-7.032288E-1,9.8236185E-1,-1.0936552E0,-2.871315E-1,1.1403177E0,-1.4587188E-2,-6.12611E-2,-1.7582662E-2,-5.504201E-1,2.5297523E-2,9.614839E-3,1.3037064E0,1.0136432E-3,-7.10697E-1,3.4664606E-3,7.5149745E-2,-5.7558276E-2,-2.311412E-2],"categories":[],"categories_nodes":[],"categories_segments":[],"categories_sizes":[],"default_left":[0,0,0,0,0,0,0,0,0,0,0,0,0,0,0,0,0,0,0],"id":10,"left_children":[1,3,5,7,9,11,-1,-1,-1,13,-1,-1,15,-1,17,-1,-1,-1,-1],"loss_changes":[5.0467987E1,6.841305E0,6.3236485E0,1.7527103E0,5.0137596E0,3.8832703E0,0E0,0E0,0E0,1.6155095E0,0E0,0E0,5.4534073E0,0E0,9.662132E-1,0E0,0E0,0E0,0E0],"parents":[2147483647,0,0,1,1,2,2,3,3,4,4,5,5,9,9,12,12,14,14],"right_children":[2,4,6,8,10,12,-1,-1,-1,14,-1,-1,16,-1,18,-1,-1,-1,-1],"split_conditions":[1.3E2,2.96E1,2.85E2,6E0,6.55E-1,2.98E1,-1.4587188E-2,-6.12611E-2,-1.7582662E-2,3.25E1,2.5297523E-2,9.614839E-3,2.6E-1,1.0136432E-3,2.2E-1,3.4664606E-3,7.5149745E-2,-5.7558276E-2,-2.311412E-2],"split_indices":[1,5,4,0,6,5,0,0,0,5,0,0,6,0,6,0,0,0,0],"split_type":[0,0,0,0,0,0,0,0,0,0,0,0,0,0,0,0,0,0,0],"sum_hessian":[7.1813286E1,4.3044865E1,2.8768421E1,2.136737E1,2.1677492E1,2.5688698E1,3.0797231E0,1.759611E1,3.771261E0,1.6504332E1,5.173161E0,4.0965357E0,2.1592163E1,3.8103724E0,1.2693959E1,3.188809E0,1.8403353E1,3.2670476E0,9.426911E0],"tree_param":{"num_deleted":"0","num_feature":"8","num_nodes":"19","size_leaf_vector":"1"}},{"base_weights":[-1.923733E-2,-7.136983E-1,8.7959474E-1,-1.0922805E0,-2.4148774E-1,1.3500248E-1,1.1559845E0,-3.1696003E-2,-6.0496546E-2,2.2455648E-1,-6.4903176E-1,-3.6259092E-2,4.2097572E-2,6.564563E-2,5.0300783E-3,-1.5986811E-2,2.874366E-2,-5.0899573E-2,8.506356E-3],"categories":[],"categories_nodes":[],"categories_segments":[],"categories_sizes":[],"default_left":[0,0,0,0,0,0,0,0,0,0,0,0,0,0,0,0,0,0,0],"id":11,"left_children":[1,3,5,7,9,11,13,-1,-1,15,17,-1,-1,-1,-1,-1,-1,-1,-1],"loss_changes":[4.6335274E1,7.21974E0,6.5044403E0,4.7061157E-1,3.9275055E0,6.6269045E0,3.755125E0,0E0,0E0,2.0966125E0,3.4612832E0,0E0,0E0,0E0,0E0,0E0,0E0,0E0,0E0],"parents":[2147483647,0,0,1,1,2,2,3,3,4,4,5,5,6,6,9,9,10,10],"right_children":[2,4,6,8,10,12,14,-1,-1,16,18,-1,-1,-1,-1,-1,-1,-1,-1],"split_conditions":[1.28E2,2.97E1,3.15E-1,8E0,1.4E1,1.45E2,2.4E2,-3.1696003E-2,-6.0496546E-2,1E2,1.44E2,-3.6259092E-2,4.2097572E-2,6.564563E-2,5.0300783E-3,-1.5986811E-2,2.874366E-2,-5.0899573E-2,8.506356E-3],"split_indices":[1,5,6,3,4,1,4,0,0,1,4,0,0,0,0,0,0,0,0],"split_type":[0,0,0,0,0,0,0,0,0,0,0,0,0,0,0,0,0,0,0],"sum_hessian":[7.2225296E1,4.0861E1,3.1364298E1,2.1950031E1,1.891097E1,8.893559E0,2.247074E1,5.7880874E0,1.6161943E1,9.031761E0,9.879209E0,4.000336E0,4.893224E0,1.9349577E1,3.121161E0,3.5708966E0,5.4608645E0,6.643957E0,3.2352514E0],"tree_param":{"num_deleted":"0","num_feature":"8","num_nodes":"19","size_leaf_vector":"1"}},{"base_weights":[5.9905507E-2,-6.0253084E-1,9.717685E-1,-9.76032E-1,4.8010454E-2,1.1205673E0,-2.782004E-3,-1.1101365E0,-9.753238E-3,-2.9628215E-2,4.1875234E-1,7.316698E-2,8.438728E-1,-2.7075088E-2,-5.88119E-2,3.536841E-2,-3.464392E-3,2.8393966E-1,6.4126275E-2,3.3025496E-2,-2.6085714E-3],"categories":[],"categories_nodes":[],"categories_segments":[],"categories_sizes":[],"default_left":[0,0,0,0,0,0,0,0,0,0,0,0,0,0,0,0,0,0,0,0,0],"id":12,"left_children":[1,3,5,7,9,11,-1,13,-1,-1,15,-1,17,-1,-1,-1,-1,19,-1,-1,-1],"loss_changes":[4.1159004E1,9.650015E0,4.441696E0,2.4179058E0,3.8979304E0,1.1428032E0,0E0,1.6198349E-1,0E0,0E0,1.5026945E0,0E0,3.6231966E0,0E0,0E0,0E0,0E0,1.0996119E0,0E0,0E0,0E0],"parents":[2147483647,0,0,1,1,2,2,3,3,4,4,5,5,7,7,10,10,12,12,17,17],"right_children":[2,4,6,8,10,12,-1,14,-1,-1,16,-1,18,-1,-1,-1,-1,20,-1,-1,-1],"split_conditions":[1.3E2,3.1E1,2.55E2,1.21E2,1E2,4E0,-2.782004E-3,5.4E1,-9.753238E-3,-2.9628215E-2,8E0,7.316698E-2,4.1E1,-2.7075088E-2,-5.88119E-2,3.536841E-2,-3.464392E-3,1.37E2,6.4126275E-2,3.3025496E-2,-2.6085714E-3],"split_indices":[1,7,4,1,1,0,0,2,0,0,0,0,7,0,0,0,0,1,0,0,0],"split_type":[0,0,0,0,0,0,0,0,0,0,0,0,0,0,0,0,0,0,0,0,0],"sum_hessian":[6.6168945E1,3.852275E1,2.7646193E1,2.4154419E1,1.4368332E1,2.4069546E1,3.5766473E0,2.0254848E1,3.8995705E0,5.047994E0,9.320338E0,8.835449E0,1.5234096E1,3.0665913E0,1.7188257E1,5.574375E0,3.745963E0,7.415556E0,7.81854E0,3.0421054E0,4.3734503E0],"tree_param":{"num_deleted":"0","num_feature":"8","num_nodes":"21","size_leaf_vector":"1"}},{"base_weights":[-4.4047948E-2,-6.9357514E-1,8.9425355E-1,-9.639338E-1,-2.2092581E-1,-5.2454374E-3,1.1155888E0,-1.1334418E0,-2.663381E-3,-6.052628E-1,2.7634093E-1,4.7945566E-3,1.2721606E0,-3.4102038E-2,-6.1520483E-2,-4.653173E-2,2.5555918E-3,4.265629E-2,-1.6764086E-2,7.1511716E-2,2.4254024E-2],"categories":[],"categories_nodes":[],"categories_segments":[],"categories_sizes":[],"default_left":[0,0,0,0,0,0,0,0,0,0,0,0,0,0,0,0,0,0,0,0,0],"id":13,"left_children":[1,3,5,7,9,-1,11,13,-1,15,17,-1,19,-1,-1,-1,-1,-1,-1,-1,-1],"loss_changes":[4.1855488E1,4.9681377E0,6.33445E0,3.875143E0,3.2348266E0,0E0,3.566311E0,9.947586E-2,0E0,2.047991E0,2.996709E0,0E0,1.7877121E0,0E0,0E0,0E0,0E0,0E0,0E0,0E0,0E0],"parents":[2147483647,0,0,1,1,2,2,3,3,4,4,6,6,7,7,9,9,10,10,12,12],"right_children":[2,4,6,8,10,-1,12,14,-1,16,18,-1,20,-1,-1,-1,-1,-1,-1,-1,-1],"split_conditions":[1.28E2,3.23E1,2.96E1,7E0,1.07E2,-5.2454374E-3,2.63E-1,8E0,-2.663381E-3,3.79E1,1.22E2,4.7945566E-3,4E1,-3.4102038E-2,-6.1520483E-2,-4.653173E-2,2.5555918E-3,4.265629E-2,-1.6764086E-2,7.1511716E-2,2.4254024E-2],"split_indices":[1,5,5,0,1,0,6,3,0,5,1,0,5,0,0,0,0,0,0,0,0],"split_type":[0,0,0,0,0,0,0,0,0,0,0,0,0,0,0,0,0,0,0,0,0],"sum_hessian":[6.665952E1,3.9545486E1,2.7114038E1,2.4494843E1,1.5050646E1,5.0124803E0,2.2101559E1,2.0444712E1,4.050131E0,8.366785E0,6.6838603E0,3.156542E0,1.8945017E1,5.035822E0,1.5408889E1,5.3144946E0,3.0522907E0,3.236682E0,3.4471784E0,1.5096054E1,3.848963E0],"tree_param":{"num_deleted":"0","num_feature":"8","num_nodes":"21","size_leaf_vector":"1"}},{"base_weights":[4.9148537E-2,-8.4371024E-1,5.521746E-1,-1.0060446E0,7.5325347E-3,-1.9675069E-1,9.8193157E-1,-6.1769474E-2,-4.5810977E-1,-6.441607E-1,2.2518536E-1,1.1610613E0,-2.5054982E-3,-3.9991293E-2,6.5226416E-4,-3.9984178E-2,-1.4780156E-2,-6.0490924E-3,2.575763E-2,6.490594E-1,1.3510967E0,4.6887096E-2,1.4026463E-2,3.3880197E-2,7.426474E-2],"categories":[],"categories_nodes":[],"categories_segments":[],"categories_sizes":[],"default_left":[0,0,0,0,0,0,0,0,0,0,0,0,0,0,0,0,0,0,0,0,0,0,0,0,0],"id":14,"left_children":[1,3,5,7,-1,9,11,-1,13,15,17,19,-1,-1,-1,-1,-1,-1,-1,21,23,-1,-1,-1,-1],"loss_changes":[2.9893232E1,4.026716E0,1.3876512E1,2.043871E0,0E0,3.2285516E0,5.082901E0,0E0,1.2529067E0,2.074008E-1,9.804995E-1,1.3805199E0,0E0,0E0,0E0,0E0,0E0,0E0,0E0,6.098459E-1,4.3933678E-1,0E0,0E0,0E0,0E0],"parents":[2147483647,0,0,1,1,2,2,3,3,5,5,6,6,8,8,9,9,10,10,11,11,19,19,20,20],"right_children":[2,4,6,8,-1,10,12,-1,14,16,18,20,-1,-1,-1,-1,-1,-1,-1,22,24,-1,-1,-1,-1],"split_conditions":[2.95E1,4.9E1,3.1E1,2.68E1,7.5325347E-3,3.47E1,9E0,-6.1769474E-2,3E0,9.4E1,4.3E-1,1.6E1,-2.5054982E-3,-3.9991293E-2,6.5226416E-4,-3.9984178E-2,-1.4780156E-2,-6.0490924E-3,2.575763E-2,2.84E-1,8.4E1,4.6887096E-2,1.4026463E-2,3.3880197E-2,7.426474E-2],"split_indices":[5,7,7,5,0,5,0,0,0,4,6,3,0,0,0,0,0,0,0,6,4,0,0,0,0],"split_type":[0,0,0,0,0,0,0,0,0,0,0,0,0,0,0,0,0,0,0,0,0,0,0,0,0],"sum_hessian":[6.4520615E1,2.3006817E1,4.1513798E1,1.9767864E1,3.2389526E0,1.5333946E1,2.6179852E1,1.3050704E1,6.7171607E0,7.186689E0,8.147257E0,2.2201382E1,3.9784715E0,3.4890566E0,3.228104E0,4.0744467E0,3.1122422E0,3.9793832E0,4.1678734E0,7.20495E0,1.4996431E1,3.174056E0,4.030894E0,3.4967506E0,1.14996805E1],"tree_param":{"num_deleted":"0","num_feature":"8","num_nodes":"25","size_leaf_vector":"1"}},{"base_weights":[4.260569E-2,-6.179715E-1,6.1120605E-1,-5.1098358E-2,-4.830471E-2,1.5763593E-1,1.1440237E0,-2.8642842E-1,2.893051E-2,-2.198861E-2,4.2711833E-1,2.0845583E-2,7.226065E-2,-4.940408E-1,8.557977E-3,5.9389347E-1,-6.954228E-3,-8.478397E-3,-3.4542087E-2,4.216413E-2,1.4075895E-2],"categories":[],"categories_nodes":[],"categories_segments":[],"categories_sizes":[],"default_left":[0,0,0,0,0,0,0,0,0,0,0,0,0,0,0,0,0,0,0,0,0],"id":15,"left_children":[1,3,5,-1,7,9,11,13,-1,-1,15,-1,-1,17,-1,19,-1,-1,-1,-1,-1],"loss_changes":[2.4420912E1,6.8798523E0,8.254848E0,0E0,2.1873653E0,3.4098716E0,2.877346E0,1.080483E0,0E0,0E0,1.432889E0,0E0,0E0,3.5978198E-1,0E0,6.378982E-1,0E0,0E0,0E0,0E0,0E0],"parents":[2147483647,0,0,1,1,2,2,4,4,5,5,6,6,7,7,10,10,13,13,15,15],"right_children":[2,4,6,-1,8,10,12,14,-1,-1,16,-1,-1,18,-1,20,-1,-1,-1,-1,-1],"split_conditions":[3.1E1,3.2E1,1.12E2,-5.1098358E-2,4.05E1,2.83E1,3.8E1,6E-1,2.893051E-2,-2.198861E-2,3.7E1,2.0845583E-2,7.226065E-2,3.45E1,8.557977E-3,3.41E1,-6.954228E-3,-8.478397E-3,-3.4542087E-2,4.216413E-2,1.4075895E-2],"split_indices":[7,5,4,0,5,5,7,6,0,0,3,0,0,5,0,5,0,0,0,0,0],"split_type":[0,0,0,0,0,0,0,0,0,0,0,0,0,0,0,0,0,0,0,0,0],"sum_hessian":[6.301204E1,2.9108324E1,3.3903717E1,1.6566053E1,1.254227E1,1.9013771E1,1.4889944E1,9.483301E0,3.058968E0,5.714202E0,1.329957E1,5.059599E0,9.830345E0,6.4687157E0,3.0145857E0,1.0235729E1,3.063841E0,3.145023E0,3.3236928E0,4.7466235E0,5.4891057E0],"tree_param":{"num_deleted":"0","num_feature":"8","num_nodes":"21","size_leaf_vector":"1"}},{"base_weights":[-1.9124862E-2,-6.560919E-1,8.2699174E-1,-5.574563E-2,-3.9312494E-1,-2.8385574E-2,1.0293628E0,-6.5177774E-1,1.2832074E-1,1.0475746E-2,1.2530681E0,-4.559863E-3,-8.9695925E-1,-1.940907E-2,2.5110716E-2,7.0151605E-2,3.0949363E-2,-6.023795E-2,-7.0898603E-3],"categories":[],"categories_nodes":[],"categories_segments":[],"categories_sizes":[],"default_left":[0,0,0,0,0,0,0,0,0,0,0,0,0,0,0,0,0,0,0],"id":16,"left_children":[1,3,5,-1,7,-1,9,11,13,-1,15,-1,17,-1,-1,-1,-1,-1,-1],"loss_changes":[3.558081E1,4.1040897E0,8.590157E0,0E0,3.519719E0,0E0,4.345621E0,2.2813845E0,1.987568E0,0E0,9.894676E-1,0E0,2.5832882E0,0E0,0E0,0E0,0E0,0E0,0E0],"parents":[2147483647,0,0,1,1,2,2,4,4,6,6,7,7,8,8,10,10,12,12],"right_children":[2,4,6,-1,8,-1,10,12,14,-1,16,-1,18,-1,-1,-1,-1,-1,-1],"split_conditions":[1.28E2,2.7E1,2.83E1,-5.574563E-2,5E0,-2.8385574E-2,2.96E-1,6.5E1,2.92E-1,1.0475746E-2,4E1,-4.559863E-3,8E1,-1.940907E-2,2.5110716E-2,7.0151605E-2,3.0949363E-2,-6.023795E-2,-7.0898603E-3],"split_indices":[1,5,5,0,0,0,6,2,6,0,5,0,2,0,0,0,0,0,0],"split_type":[0,0,0,0,0,0,0,0,0,0,0,0,0,0,0,0,0,0,0],"sum_hessian":[6.4012215E1,3.6647846E1,2.7364368E1,1.2171486E1,2.4476358E1,3.2386832E0,2.4125685E1,1.6193802E1,8.2825575E0,5.5869327E0,1.8538752E1,5.345002E0,1.0848799E1,3.461952E0,4.8206058E0,1.4012101E1,4.526651E0,7.284367E0,3.5644314E0],"tree_param":{"num_deleted":"0","num_feature":"8","num_nodes":"19","size_leaf_vector":"1"}},{"base_weights":[1.1613359E-1,-7.6762915E-1,5.632693E-1,-9.287931E-1,-5.15216E-3,1.1562106E-1,7.750693E-1,-1.2238487E-2,-5.5149626E-2,3.902271E-2,-1.9393255E-1,3.71093E-1,5.7455417E-2,-2.4583831E-2,7.664489E-3,6.008127E-1,1.4606941E-3,4.729098E-2,3.2792648E-3],"categories":[],"categories_nodes":[],"categories_segments":[],"categories_sizes":[],"default_left":[0,0,0,0,0,0,0,0,0,0,0,0,0,0,0,0,0,0,0],"id":17,"left_children":[1,3,5,7,-1,9,11,-1,-1,-1,13,15,-1,-1,-1,17,-1,-1,-1],"loss_changes":[2.4452806E1,2.1369781E0,3.792078E0,1.7142267E0,0E0,3.0993915E0,3.746481E0,0E0,0E0,0E0,1.1686293E0,1.1411586E0,0E0,0E0,0E0,1.5580204E0,0E0,0E0,0E0],"parents":[2147483647,0,0,1,1,2,2,3,3,5,5,6,6,10,10,11,11,15,15],"right_children":[2,4,6,8,-1,10,12,-1,-1,-1,14,16,-1,-1,-1,18,-1,-1,-1],"split_conditions":[2.97E1,6E0,3E0,8E0,-5.15216E-3,6.8E1,5E-1,-1.2238487E-2,-5.5149626E-2,3.902271E-2,8E1,1.4E1,5.7455417E-2,-2.4583831E-2,7.664489E-3,7.8E1,1.4606941E-3,4.729098E-2,3.2792648E-3],"split_indices":[5,0,0,3,0,2,6,0,0,0,2,4,0,0,0,2,0,0,0],"split_type":[0,0,0,0,0,0,0,0,0,0,0,0,0,0,0,0,0,0,0],"sum_hessian":[5.978629E1,1.9845308E1,3.994098E1,1.5652084E1,4.193225E0,1.3324656E1,2.6616325E1,3.6651945E0,1.198689E1,3.7498403E0,9.574816E0,1.3753811E1,1.2862514E1,4.9306993E0,4.644116E0,7.7732973E0,5.9805136E0,4.260103E0,3.5131938E0],"tree_param":{"num_deleted":"0","num_feature":"8","num_nodes":"19","size_leaf_vector":"1"}},{"base_weights":[2.5880804E-2,-7.758023E-1,4.8321262E-1,-5.357647E-2,-3.886325E-1,-2.0729494E-1,9.3445283E-1,2.4907745E-3,-3.657535E-2,2.4131948E-2,-4.9693248E-1,3.4161052E-1,1.1511039E0,6.550211E-3,-7.3433965E-1,3.166719E-2,2.683914E-4,6.522711E-2,2.6717875E-2,-5.3729285E-2,-1.2839071E-2],"categories":[],"categories_nodes":[],"categories_segments":[],"categories_sizes":[],"default_left":[0,0,0,0,0,0,0,0,0,0,0,0,0,0,0,0,0,0,0,0,0],"id":18,"left_children":[1,3,5,-1,7,9,11,-1,-1,-1,13,15,17,-1,19,-1,-1,-1,-1,-1,-1],"loss_changes":[2.228899E1,2.1134071E0,1.2244425E1,0E0,1.7107593E0,3.4578638E0,2.6343307E0,0E0,0E0,0E0,1.8605134E0,7.549307E-1,8.966255E-1,0E0,1.1441097E0,0E0,0E0,0E0,0E0,0E0,0E0],"parents":[2147483647,0,0,1,1,2,2,4,4,5,5,6,6,10,10,11,11,12,12,14,14],"right_children":[2,4,6,-1,8,10,12,-1,-1,-1,14,16,18,-1,20,-1,-1,-1,-1,-1,-1],"split_conditions":[2.97E1,2.8E1,3.1E1,-5.357647E-2,3.51E-1,1E0,1.6E1,2.4907745E-3,-3.657535E-2,2.4131948E-2,2E1,3.41E1,3.6E1,6.550211E-3,3.2E1,3.166719E-2,2.683914E-4,6.522711E-2,2.6717875E-2,-5.3729285E-2,-1.2839071E-2],"split_indices":[5,7,7,0,6,0,3,0,0,0,3,5,3,0,3,0,0,0,0,0,0],"split_type":[0,0,0,0,0,0,0,0,0,0,0,0,0,0,0,0,0,0,0,0,0],"sum_hessian":[5.8770885E1,2.1095322E1,3.7675564E1,1.0957894E1,1.0137428E1,1.5103751E1,2.2571812E1,4.823776E0,5.3136525E0,4.268818E0,1.0834933E1,6.730714E0,1.5841099E1,3.0955253E0,7.739408E0,3.1307762E0,3.5999374E0,1.1792164E1,4.048935E0,3.7894037E0,3.9500043E0],"tree_param":{"num_deleted":"0","num_feature":"8","num_nodes":"21","size_leaf_vector":"1"}},{"base_weights":[-3.7936494E-2,-6.130569E-1,7.8635806E-1,-5.746861E-2,-3.50652E-1,9.0587467E-1,-5.536184E-3,-7.704369E-1,-7.3970236E-2,9.969842E-1,1.241915E-2,-5.3221922E-2,-6.2932386E-3,-4.8337796E-1,2.1787934E-1,7.005496E-1,5.979192E-2,-8.406566E-3,-3.3574827E-2,4.0286835E-2,-9.436297E-3,4.7076095E-2,1.9028867E-2],"categories":[],"categories_nodes":[],"categories_segments":[],"categories_sizes":[],"default_left":[0,0,0,0,0,0,0,0,0,0,0,0,0,0,0,0,0,0,0,0,0,0,0],"id":19,"left_children":[1,3,5,-1,7,9,-1,11,13,15,-1,-1,-1,17,19,21,-1,-1,-1,-1,-1,-1,-1],"loss_changes":[3.0761864E1,4.970728E0,2.9616585E0,0E0,3.0881076E0,1.1696377E0,0E0,1.88448E0,2.187645E0,3.6759758E-1,0E0,0E0,0E0,3.356539E-1,2.74879E0,4.6084023E-1,0E0,0E0,0E0,0E0,0E0,0E0,0E0],"parents":[2147483647,0,0,1,1,2,2,4,4,5,5,7,7,8,8,9,9,13,13,14,14,15,15],"right_children":[2,4,6,-1,8,10,-1,12,14,16,-1,-1,-1,18,20,22,-1,-1,-1,-1,-1,-1,-1],"split_conditions":[1.3E2,2.65E1,2.91E2,-5.746861E-2,1.05E2,9E0,-5.536184E-3,3.6E1,2.9E1,1.47E2,1.241915E-2,-5.3221922E-2,-6.2932386E-3,8.3E1,1.2E2,3.6E1,5.979192E-2,-8.406566E-3,-3.3574827E-2,4.0286835E-2,-9.436297E-3,4.7076095E-2,1.9028867E-2],"split_indices":[1,5,4,0,1,0,0,7,7,1,0,0,0,4,1,7,0,0,0,0,0,0,0],"split_type":[0,0,0,0,0,0,0,0,0,0,0,0,0,0,0,0,0,0,0,0,0,0,0],"sum_hessian":[6.2872147E1,3.71844E1,2.5687746E1,1.1105767E1,2.6078632E1,2.2659111E1,3.028636E0,9.651183E0,1.6427448E1,1.9447851E1,3.2112594E0,6.1806726E0,3.4705102E0,6.5636616E0,9.863788E0,9.6240635E0,9.823789E0,3.1607196E0,3.4029417E0,3.6316462E0,6.2321415E0,4.381688E0,5.242375E0],"tree_param":{"num_deleted":"0","num_feature":"8","num_nodes":"23","size_leaf_vector":"1"}},{"base_weights":[6.4937234E-2,-5.2456725E-1,8.966604E-1,-7.271575E-1,3.0020514E-1,2.1268837E-1,1.107088E0,-9.0152586E-1,-1.8077525E-1,-8.990249E-3,3.305522E-2,2.4554057E-3,1.6424147E-2,1.1849623E0,3.035362E-2,-1.646029E-2,-5.233304E-2,-2.7399896E-2,9.709253E-3,3.3976443E-2,6.528621E-2],"categories":[],"categories_nodes":[],"categories_segments":[],"categories_sizes":[],"default_left":[0,0,0,0,0,0,0,0,0,0,0,0,0,0,0,0,0,0,0,0,0],"id":20,"left_children":[1,3,5,7,9,11,13,15,17,-1,-1,-1,-1,19,-1,-1,-1,-1,-1,-1,-1],"loss_changes":[3.0845234E1,6.3815346E0,3.5160484E0,2.6860466E0,1.5015333E0,1.2347466E-1,4.7542572E-2,1.5176163E0,1.274802E0,0E0,0E0,0E0,0E0,8.874512E-2,0E0,0E0,0E0,0E0,0E0,0E0,0E0],"parents":[2147483647,0,0,1,1,2,2,3,3,4,4,5,5,6,6,7,7,8,8,13,13],"right_children":[2,4,6,8,10,12,14,16,18,-1,-1,-1,-1,20,-1,-1,-1,-1,-1,-1,-1],"split_conditions":[1.3E2,6.6E-1,3.1E1,3.6E1,3E1,1.47E2,8E0,8E0,1.11E2,-8.990249E-3,3.305522E-2,2.4554057E-3,1.6424147E-2,2.96E-1,3.035362E-2,-1.646029E-2,-5.233304E-2,-2.7399896E-2,9.709253E-3,3.3976443E-2,6.528621E-2],"split_indices":[1,6,7,7,7,1,0,3,1,0,0,0,0,6,0,0,0,0,0,0,0],"split_type":[0,0,0,0,0,0,0,0,0,0,0,0,0,0,0,0,0,0,0,0,0],"sum_hessian":[6.095104E1,3.588556E1,2.5065481E1,2.890414E1,6.981418E0,6.3702893E0,1.8695192E1,2.1418732E1,7.4854074E0,3.211622E0,3.7697961E0,3.2305968E0,3.1396923E0,1.4990642E1,3.7045493E0,4.993969E0,1.6424763E1,3.5485766E0,3.9368305E0,4.168969E0,1.0821672E1],"tree_param":{"num_deleted":"0","num_feature":"8","num_nodes":"21","size_leaf_vector":"1"}},{"base_weights":[1.8978184E-2,-4.661248E-1,6.3148284E-1,-5.2009143E-2,-2.0409977E-1,-1.9137338E-2,8.278037E-1,-4.9200466E-1,2.1044444E-1,9.762719E-1,1.19067235E-2,1.5967496E-2,-7.160556E-1,5.827427E-1,-1.891583E-2,2.2132756E-2,5.717968E-2,-4.8050147E-2,3.8113194E-5,2.3767366E-3,4.774667E-2],"categories":[],"categories_nodes":[],"categories_segments":[],"categories_sizes":[],"default_left":[0,0,0,0,0,0,0,0,0,0,0,0,0,0,0,0,0,0,0,0,0],"id":21,"left_children":[1,3,5,-1,7,-1,9,11,13,15,-1,-1,17,19,-1,-1,-1,-1,-1,-1,-1],"loss_changes":[1.9089401E1,5.1838293E0,5.9679937E0,0E0,3.1917715E0,0E0,1.8769531E0,3.0590298E0,2.6986203E0,1.183588E0,0E0,0E0,2.197115E0,1.4126945E0,0E0,0E0,0E0,0E0,0E0,0E0,0E0],"parents":[2147483647,0,0,1,1,2,2,4,4,6,6,7,7,8,8,9,9,12,12,13,13],"right_children":[2,4,6,-1,8,-1,10,12,14,16,-1,-1,18,20,-1,-1,-1,-1,-1,-1,-1],"split_conditions":[1.28E2,2.65E1,2.87E1,-5.2009143E-2,5E0,-1.9137338E-2,3.85E1,8E0,8E0,2.96E-1,1.19067235E-2,1.5967496E-2,1.25E2,1.06E2,-1.891583E-2,2.2132756E-2,5.717968E-2,-4.8050147E-2,3.8113194E-5,2.3767366E-3,4.774667E-2],"split_indices":[1,5,5,0,0,0,5,3,0,6,0,0,4,1,0,0,0,0,0,0,0],"split_type":[0,0,0,0,0,0,0,0,0,0,0,0,0,0,0,0,0,0,0,0,0],"sum_hessian":[6.2255775E1,3.487433E1,2.7381445E1,9.998755E0,2.4875574E1,4.286581E0,2.3094864E1,1.4569831E1,1.0305743E1,1.792583E1,5.1690326E0,3.0607185E0,1.1509112E1,6.3197327E0,3.9860103E0,5.1493196E0,1.2776511E1,8.324019E0,3.1850927E0,3.0547447E0,3.2649882E0],"tree_param":{"num_deleted":"0","num_feature":"8","num_nodes":"21","size_leaf_vector":"1"}},{"base_weights":[3.299594E-2,-5.0059235E-1,6.825271E-1,-5.1934E-2,-2.2196493E-1,8.323795E-1,-1.4708899E-2,-6.479135E-1,9.4928704E-2,1.1091613E-2,9.877212E-1,-4.550651E-2,-1.1115522E-2,-1.9871218E-2,3.820657E-1,6.6194357E-3,5.7503026E-2,4.4242475E-2,-8.332801E-3],"categories":[],"categories_nodes":[],"categories_segments":[],"categories_sizes":[],"default_left":[0,0,0,0,0,0,0,0,0,0,0,0,0,0,0,0,0,0,0],"id":22,"left_children":[1,3,5,-1,7,9,-1,11,13,-1,15,-1,-1,-1,17,-1,-1,-1,-1],"loss_changes":[2.1412949E1,4.860121E0,4.3199835E0,0E0,3.2527838E0,2.0951023E0,0E0,9.3750906E-1,2.1916997E0,0E0,2.5084248E0,0E0,0E0,0E0,2.8025222E0,0E0,0E0,0E0,0E0],"parents":[2147483647,0,0,1,1,2,2,4,4,5,5,7,7,8,8,10,10,14,14],"right_children":[2,4,6,-1,8,10,-1,12,14,-1,16,-1,-1,-1,18,-1,-1,-1,-1],"split_conditions":[1.28E2,2.64E1,2.55E2,-5.1934E-2,2.9E1,2.98E1,-1.4708899E-2,4.87E-1,1E2,1.1091613E-2,2.77E-1,-4.550651E-2,-1.1115522E-2,-1.9871218E-2,2.5E1,6.6194357E-3,5.7503026E-2,4.4242475E-2,-8.332801E-3],"split_indices":[1,5,4,0,7,5,0,6,1,0,6,0,0,0,3,0,0,0,0],"split_type":[0,0,0,0,0,0,0,0,0,0,0,0,0,0,0,0,0,0,0],"sum_hessian":[5.979735E1,3.2954563E1,2.684279E1,1.0312033E1,2.2642529E1,2.3400328E1,3.4424622E0,9.213603E0,1.34289255E1,5.2386436E0,1.8161684E1,4.996673E0,4.2169304E0,4.805262E0,8.623664E0,3.1867678E0,1.4974916E1,4.180543E0,4.443121E0],"tree_param":{"num_deleted":"0","num_feature":"8","num_nodes":"19","size_leaf_vector":"1"}},{"base_weights":[5.3172752E-2,-4.2507002E-1,7.5816655E-1,-5.079934E-2,-1.6024251E-1,-3.4036287E-4,9.3164754E-1,-4.0637583E-2,4.8583105E-2,6.627318E-1,6.6200785E-2,-2.627225E-2,2.0658849E-1,-1.235131E-2,9.50959E-1,3.7164506E-2,-1.0875651E-2,5.368383E-2,2.5804607E-2],"categories":[],"categories_nodes":[],"categories_segments":[],"categories_sizes":[],"default_left":[0,0,0,0,0,0,0,0,0,0,0,0,0,0,0,0,0,0,0],"id":23,"left_children":[1,3,5,-1,7,-1,9,-1,11,13,-1,-1,15,-1,17,-1,-1,-1,-1],"loss_changes":[2.0329727E1,5.470476E0,3.2369928E0,0E0,3.5883358E0,0E0,1.2170963E0,0E0,1.983656E0,3.8484392E0,0E0,0E0,4.015048E0,0E0,1.5367508E-2,0E0,0E0,0E0,0E0],"parents":[2147483647,0,0,1,1,2,2,4,4,6,6,8,8,9,9,12,12,14,14],"right_children":[2,4,6,-1,8,-1,10,-1,12,14,-1,-1,16,-1,18,-1,-1,-1,-1],"split_conditions":[1.3E2,2.65E1,2.98E1,-5.079934E-2,2.5E1,-3.4036287E-4,1.66E2,-4.0637583E-2,9.2E1,3.1E1,6.6200785E-2,-2.627225E-2,1.17E2,-1.235131E-2,3.37E1,3.7164506E-2,-1.0875651E-2,5.368383E-2,2.5804607E-2],"split_indices":[1,5,5,0,7,0,1,0,1,7,0,0,1,0,5,0,0,0,0],"split_type":[0,0,0,0,0,0,0,0,0,0,0,0,0,0,0,0,0,0,0],"sum_hessian":[5.8341446E1,3.4997467E1,2.334398E1,9.952893E0,2.5044573E1,4.4929295E0,1.8851051E1,5.37076E0,1.9673813E1,1.2780672E1,6.0703793E0,3.7445402E0,1.5929273E1,3.1093354E0,9.671336E0,6.6990204E0,9.230252E0,6.3971195E0,3.2742167E0],"tree_param":{"num_deleted":"0","num_feature":"8","num_nodes":"19","size_leaf_vector":"1"}},{"base_weights":[-2.227185E-2,-5.428074E-1,4.1633734E-1,-7.0837516E-1,2.5646014E-2,-1.052569E-2,9.565034E-1,-9.5141816E-1,-3.1208414E-1,2.210516E-1,-3.326163E-2,2.133203E-2,6.405575E-2,-2.6541332E-2,-5.480904E-2,-5.2328795E-1,6.1893123E-3,5.9887874E-1,-1.0313675E-1,-1.3299398E-2,-3.2833327E-2,4.5922574E-2,6.8767876E-3,-3.5445802E-2,1.6307395E-2],"categories":[],"categories_nodes":[],"categories_segments":[],"categories_sizes":[],"default_left":[0,0,0,0,0,0,0,0,0,0,0,0,0,0,0,0,0,0,0,0,0,0,0,0,0],"id":24,"left_children":[1,3,5,7,-1,9,11,13,15,17,-1,-1,-1,-1,-1,19,-1,21,23,-1,-1,-1,-1,-1,-1],"loss_changes":[1.4082018E1,5.290221E0,7.734943E0,2.0903091E0,0E0,3.1343226E0,1.9989157E0,3.2380486E-1,1.0691551E0,1.9364777E0,0E0,0E0,0E0,0E0,0E0,8.411288E-2,0E0,9.373896E-1,2.595208E0,0E0,0E0,0E0,0E0,0E0,0E0],"parents":[2147483647,0,0,1,1,2,2,3,3,5,5,6,6,7,7,8,8,9,9,15,15,17,17,18,18],"right_children":[2,4,6,8,-1,10,12,14,16,18,-1,-1,-1,-1,-1,20,-1,22,24,-1,-1,-1,-1,-1,-1],"split_conditions":[3.1E1,4.09E1,1.1E2,3.05E1,2.5646014E-2,9E0,4E1,1.4E1,1.56E2,2.84E-1,-3.326163E-2,2.133203E-2,6.405575E-2,-2.6541332E-2,-5.480904E-2,2.3E1,6.1893123E-3,7.6E1,2.99E1,-1.3299398E-2,-3.2833327E-2,4.5922574E-2,6.8767876E-3,-3.5445802E-2,1.6307395E-2],"split_indices":[7,5,4,5,0,0,7,4,4,6,0,0,0,0,0,4,0,2,5,0,0,0,0,0,0],"split_type":[0,0,0,0,0,0,0,0,0,0,0,0,0,0,0,0,0,0,0,0,0,0,0,0,0],"sum_hessian":[5.9689083E1,2.7186703E1,3.250238E1,2.3785486E1,3.4012165E0,1.8702976E1,1.3799403E1,1.3875138E1,9.910348E0,1.4305369E1,4.397607E0,6.1215386E0,7.677865E0,4.7478037E0,9.127335E0,6.5405326E0,3.3698158E0,6.214883E0,8.0904875E0,3.2551918E0,3.2853408E0,3.0862281E0,3.1286545E0,3.0853074E0,5.00518E0],"tree_param":{"num_deleted":"0","num_feature":"8","num_nodes":"25","size_leaf_vector":"1"}},{"base_weights":[-5.55891E-2,-5.240705E-1,6.589887E-1,-8.278689E-1,-7.520449E-2,3.759728E-1,5.7785463E-2,-5.420497E-2,-4.6391615E-1,-3.766119E-2,1.4927632E-1,6.955918E-1,-2.2335667E-2,-3.9865594E-2,-1.987299E-1,-2.0006893E-2,4.3688995E-1,4.380852E-2,8.397785E-3,4.4476483E-3,-2.1418234E-2,4.039107E-2,-4.9549663E-3],"categories":[],"categories_nodes":[],"categories_segments":[],"categories_sizes":[],"default_left":[0,0,0,0,0,0,0,0,0,0,0,0,0,0,0,0,0,0,0,0,0,0,0],"id":25,"left_children":[1,3,5,7,9,11,-1,-1,13,-1,15,17,-1,-1,19,-1,21,-1,-1,-1,-1,-1,-1],"loss_changes":[2.0552597E1,4.9854603E0,2.9880266E0,1.5464096E0,2.55389E0,4.778554E0,0E0,0E0,7.988095E-1,0E0,2.210979E0,1.0560584E0,0E0,0E0,5.2448726E-1,0E0,1.8566592E0,0E0,0E0,0E0,0E0,0E0,0E0],"parents":[2147483647,0,0,1,1,2,2,3,3,4,4,5,5,8,8,10,10,11,11,14,14,16,16],"right_children":[2,4,6,8,10,12,-1,-1,14,-1,16,18,-1,-1,20,-1,22,-1,-1,-1,-1,-1,-1],"split_conditions":[1.3E2,3.1E1,1.66E2,3.05E1,2.68E1,1.52E2,5.7785463E-2,-5.420497E-2,1.03E2,-3.766119E-2,1E2,3E1,-2.2335667E-2,-3.9865594E-2,1.08E2,-2.0006893E-2,1.2E2,4.380852E-2,8.397785E-3,4.4476483E-3,-2.1418234E-2,4.039107E-2,-4.9549663E-3],"split_indices":[1,7,1,5,5,4,0,0,1,0,1,3,0,0,4,0,1,0,0,0,0,0,0],"split_type":[0,0,0,0,0,0,0,0,0,0,0,0,0,0,0,0,0,0,0,0,0,0,0],"sum_hessian":[5.93622E1,3.6016304E1,2.3345898E1,2.0975473E1,1.5040831E1,1.5991403E1,7.3544955E0,1.11482115E1,9.827262E0,3.1552737E0,1.1885557E1,1.1628241E1,4.363162E0,3.464737E0,6.3625245E0,3.9495988E0,7.935958E0,8.171174E0,3.4570665E0,3.0962381E0,3.2662864E0,4.390413E0,3.5455453E0],"tree_param":{"num_deleted":"0","num_feature":"8","num_nodes":"23","size_leaf_vector":"1"}},{"base_weights":[3.786134E-2,-4.263628E-1,6.458731E-1,-6.8374634E-1,6.9126174E-2,1.04477875E-1,9.01328E-1,-8.0935067E-1,2.9522819E-3,3.9184177E-1,-1.710358E-2,-1.7274758E-2,3.6918882E-2,1.8185405E-2,5.656838E-2,-9.364986E-1,-6.630571E-3,2.7109746E-2,6.782667E-3,-5.5792976E-2,-2.7391464E-2],"categories":[],"categories_nodes":[],"categories_segments":[],"categories_sizes":[],"default_left":[0,0,0,0,0,0,0,0,0,0,0,0,0,0,0,0,0,0,0,0,0],"id":26,"left_children":[1,3,5,7,9,11,13,15,-1,17,-1,-1,-1,-1,-1,19,-1,-1,-1,-1,-1],"loss_changes":[1.6825329E1,4.3643527E0,3.4717617E0,2.1349058E0,1.7902533E0,2.935445E0,1.7388039E0,1.5281343E0,0E0,2.1375716E-1,0E0,0E0,0E0,0E0,0E0,5.041361E-1,0E0,0E0,0E0,0E0,0E0],"parents":[2147483647,0,0,1,1,2,2,3,3,4,4,5,5,6,6,7,7,9,9,15,15],"right_children":[2,4,6,8,10,12,14,16,-1,18,-1,-1,-1,-1,-1,20,-1,-1,-1,-1,-1],"split_conditions":[1.28E2,5E0,3.1E1,1.21E2,7.5E1,1.58E2,6.3E1,9.9E1,2.9522819E-3,7E1,-1.710358E-2,-1.7274758E-2,3.6918882E-2,1.8185405E-2,5.656838E-2,1.06E2,-6.630571E-3,2.7109746E-2,6.782667E-3,-5.5792976E-2,-2.7391464E-2],"split_indices":[1,0,7,1,2,1,4,4,0,2,0,0,0,0,0,1,0,0,0,0,0],"split_type":[0,0,0,0,0,0,0,0,0,0,0,0,0,0,0,0,0,0,0,0,0],"sum_hessian":[5.7635017E1,3.2851368E1,2.4783648E1,2.1370464E1,1.14809065E1,8.396857E0,1.6386791E1,1.8202806E1,3.1676579E0,6.4589086E0,5.021998E0,5.1769643E0,3.2198932E0,5.6839757E0,1.0702815E1,1.5000606E1,3.2021997E0,3.3666694E0,3.092239E0,8.983826E0,6.0167804E0],"tree_param":{"num_deleted":"0","num_feature":"8","num_nodes":"21","size_leaf_vector":"1"}},{"base_weights":[-1.3040344E-1,-6.248E-1,3.7314776E-1,1.783659E-2,-8.0100673E-1,8.23858E-2,8.4634525E-1,-1.5011569E-2,1.6394049E-2,-9.523667E-1,5.214027E-3,2.7768523E-1,-3.2649823E-2,1.3985032E-2,5.588901E-2,-5.311457E-2,-2.4353389E-2,1.4916392E-2,4.8207946E-2,2.3559006E-2,-1.0163218E-2],"categories":[],"categories_nodes":[],"categories_segments":[],"categories_sizes":[],"default_left":[0,0,0,0,0,0,0,0,0,0,0,0,0,0,0,0,0,0,0,0,0],"id":27,"left_children":[1,3,5,7,9,11,13,-1,-1,15,-1,17,-1,-1,-1,-1,-1,19,-1,-1,-1],"loss_changes":[1.4085032E1,3.235798E0,3.8090196E0,7.986293E-1,3.1616802E0,2.8482623E0,1.3210411E0,0E0,0E0,4.6700287E-1,0E0,2.7589016E0,0E0,0E0,0E0,0E0,0E0,1.3037028E0,0E0,0E0,0E0],"parents":[2147483647,0,0,1,1,2,2,3,3,4,4,5,5,6,6,9,9,11,11,17,17],"right_children":[2,4,6,8,10,12,14,-1,-1,16,-1,18,-1,-1,-1,-1,-1,20,-1,-1,-1],"split_conditions":[3.2E1,8E0,1.1E2,3.15E-1,4.1E1,3.6E1,4.66E-1,-1.5011569E-2,1.6394049E-2,3.2E1,5.214027E-3,3.55E1,-3.2649823E-2,1.3985032E-2,5.588901E-2,-5.311457E-2,-2.4353389E-2,2.38E-1,4.8207946E-2,2.3559006E-2,-1.0163218E-2],"split_indices":[7,3,4,6,3,4,6,0,0,3,0,5,0,0,0,0,0,6,0,0,0],"split_type":[0,0,0,0,0,0,0,0,0,0,0,0,0,0,0,0,0,0,0,0,0],"sum_hessian":[5.464036E1,2.7449303E1,2.719106E1,6.1002164E0,2.1349087E1,1.7569418E1,9.62164E0,3.026769E0,3.0734475E0,1.824637E1,3.102717E0,1.4374341E1,3.1950781E0,3.7738488E0,5.847791E0,1.3721662E1,4.5247083E0,1.1134137E1,3.2402034E0,3.2267373E0,7.9074E0],"tree_param":{"num_deleted":"0","num_feature":"8","num_nodes":"21","size_leaf_vector":"1"}},{"base_weights":[2.3181016E-2,-5.11722E-1,5.0767463E-1,-8.1042165E-1,2.4001893E-1,3.1337115E-1,1.0153219E0,-9.8195875E-1,5.6548445E-3,-8.47515E-3,3.727479E-2,5.63934E-1,-3.099436E-1,6.339741E-2,2.3578158E-2,-6.523289E-1,-5.583868E-2,1.2128374E-1,8.51724E-1,-3.1874746E-2,3.6503326E-3,-4.451131E-2,-1.1980309E-2,4.0267114E-2,-3.1685997E-2,2.0606985E-2,5.569308E-2],"categories":[],"categories_nodes":[],"categories_segments":[],"categories_sizes":[],"default_left":[0,0,0,0,0,0,0,0,0,0,0,0,0,0,0,0,0,0,0,0,0,0,0,0,0,0,0],"id":28,"left_children":[1,3,5,7,9,11,13,15,-1,-1,-1,17,19,-1,-1,21,-1,23,25,-1,-1,-1,-1,-1,-1,-1,-1],"loss_changes":[1.5153305E1,6.439469E0,2.7058039E0,3.300273E0,1.923141E0,3.8633955E0,5.064802E-1,3.0578613E-2,0E0,0E0,0E0,2.087891E0,9.769154E-1,0E0,0E0,5.096147E-1,0E0,4.6126575E0,7.229347E-1,0E0,0E0,0E0,0E0,0E0,0E0,0E0,0E0],"parents":[2147483647,0,0,1,1,2,2,3,3,4,4,5,5,6,6,7,7,11,11,12,12,15,15,17,17,18,18],"right_children":[2,4,6,8,10,12,14,16,-1,-1,-1,18,20,-1,-1,22,-1,24,26,-1,-1,-1,-1,-1,-1,-1,-1],"split_conditions":[1.24E2,3.48E1,1.66E2,2.9E1,1.03E2,3.51E1,5.12E-1,6.2E1,5.6548445E-3,-8.47515E-3,3.727479E-2,7.5E1,3.6E1,6.339741E-2,2.3578158E-2,9.7E1,-5.583868E-2,2E1,3.16E1,-3.1874746E-2,3.6503326E-3,-4.451131E-2,-1.1980309E-2,4.0267114E-2,-3.1685997E-2,2.0606985E-2,5.569308E-2],"split_indices":[1,5,1,3,1,5,6,2,0,0,0,2,3,0,0,1,0,3,5,0,0,0,0,0,0,0,0],"split_type":[0,0,0,0,0,0,0,0,0,0,0,0,0,0,0,0,0,0,0,0,0,0,0,0,0,0,0],"sum_hessian":[5.6469067E1,2.6811619E1,2.9657448E1,1.9131699E1,7.6799216E0,2.2617743E1,7.0397067E0,1.608141E1,3.050289E0,4.6098385E0,3.0700831E0,1.6200613E1,6.417129E0,3.8972516E0,3.142455E0,6.3627734E0,9.718636E0,6.9430017E0,9.257611E0,3.1004806E0,3.3166482E0,3.3023233E0,3.06045E0,3.6076643E0,3.3353374E0,4.4191933E0,4.838418E0],"tree_param":{"num_deleted":"0","num_feature":"8","num_nodes":"27","size_leaf_vector":"1"}},{"base_weights":[-6.8008214E-2,-5.432158E-1,3.1512767E-1,-5.0434228E-2,-1.3576624E-1,-1.2106685E-1,6.007156E-1,-3.5955135E-2,8.137218E-2,-5.429011E-1,3.1198758E-1,7.644171E-1,-8.887957E-3,3.6398184E-1,-2.3267267E-2,-1.3353233E-2,-3.409692E-2,-2.3499844E-3,3.002735E-2,7.254608E-3,5.0883412E-2,3.4537826E-2,-1.8019514E-3],"categories":[],"categories_nodes":[],"categories_segments":[],"categories_sizes":[],"default_left":[0,0,0,0,0,0,0,0,0,0,0,0,0,0,0,0,0,0,0,0,0,0,0],"id":29,"left_children":[1,3,5,-1,7,9,11,-1,13,15,17,19,-1,21,-1,-1,-1,-1,-1,-1,-1,-1,-1],"loss_changes":[1.02801485E1,4.6329947E0,3.9808059E0,0E0,1.9035983E0,2.588987E0,2.5733557E0,0E0,1.9483209E0,8.919644E-2,7.7103966E-1,2.3606434E0,0E0,1.0903975E0,0E0,0E0,0E0,0E0,0E0,0E0,0E0,0E0,0E0],"parents":[2147483647,0,0,1,1,2,2,4,4,5,5,6,6,8,8,9,9,10,10,11,11,13,13],"right_children":[2,4,6,-1,8,10,12,-1,14,16,18,20,-1,22,-1,-1,-1,-1,-1,-1,-1,-1,-1],"split_conditions":[3.1E1,3.05E1,1.25E2,-5.0434228E-2,1.03E2,2E1,3.81E1,-3.5955135E-2,1.92E2,2.68E-1,3.45E1,3.8E1,-8.887957E-3,2.6E1,-2.3267267E-2,-1.3353233E-2,-3.409692E-2,-2.3499844E-3,3.002735E-2,7.254608E-3,5.0883412E-2,3.4537826E-2,-1.8019514E-3],"split_indices":[7,5,1,0,1,3,5,0,4,6,5,7,0,7,0,0,0,0,0,0,0,0,0],"split_type":[0,0,0,0,0,0,0,0,0,0,0,0,0,0,0,0,0,0,0,0,0,0,0],"sum_hessian":[5.4522697E1,2.4150616E1,3.0372084E1,1.0583949E1,1.3566666E1,1.224527E1,1.8126814E1,3.053038E0,1.0513628E1,6.074501E0,6.170769E0,1.499223E1,3.134583E0,7.151243E0,3.362385E0,3.0146139E0,3.059887E0,3.1228535E0,3.0479157E0,4.807768E0,1.0184463E1,3.5359478E0,3.6152954E0],"tree_param":{"num_deleted":"0","num_feature":"8","num_nodes":"23","size_leaf_vector":"1"}},{"base_weights":[5.4979E-2,-3.7898195E-1,5.6358135E-1,-8.3972454E-1,-9.326306E-2,7.1870255E-1,-7.6779537E-3,-5.4365434E-2,-9.118391E-3,4.7800726E-1,-4.0923262E-1,3.6175197E-1,9.4628805E-1,1.0610791E-2,3.240576E-2,-7.7895033E-1,8.083816E-3,-1.4528264E-2,3.4754317E-2,5.399794E-2,1.91259E-2,-4.91501E-2,-2.018851E-2],"categories":[],"categories_nodes":[],"categories_segments":[],"categories_sizes":[],"default_left":[0,0,0,0,0,0,0,0,0,0,0,0,0,0,0,0,0,0,0,0,0,0,0],"id":30,"left_children":[1,3,5,7,9,11,-1,-1,-1,13,15,17,19,-1,-1,21,-1,-1,-1,-1,-1,-1,-1],"loss_changes":[1.2843818E1,4.0652742E0,3.08597E0,1.7421827E0,3.9055235E0,1.4585104E0,0E0,0E0,0E0,2.1425116E-1,3.0329316E0,2.4306645E0,5.603876E-1,0E0,0E0,2.5618744E-1,0E0,0E0,0E0,0E0,0E0,0E0,0E0],"parents":[2147483647,0,0,1,1,2,2,3,3,4,4,5,5,9,9,10,10,11,11,12,12,15,15],"right_children":[2,4,6,8,10,12,-1,-1,-1,14,16,18,20,-1,-1,22,-1,-1,-1,-1,-1,-1,-1],"split_conditions":[1.28E2,1E2,2.05E2,3.1E1,8E0,1.4E1,-7.6779537E-3,-5.4365434E-2,-9.118391E-3,1.19E2,3.2E1,1.42E2,6E0,1.0610791E-2,3.240576E-2,2.4E1,8.083816E-3,-1.4528264E-2,3.4754317E-2,5.399794E-2,1.91259E-2,-4.91501E-2,-2.018851E-2],"split_indices":[1,1,4,3,3,4,0,0,0,1,3,1,0,0,0,3,0,0,0,0,0,0,0],"split_type":[0,0,0,0,0,0,0,0,0,0,0,0,0,0,0,0,0,0,0,0,0,0,0],"sum_hessian":[5.6224537E1,3.047599E1,2.5748545E1,1.0922949E1,1.9553041E1,2.1167685E1,4.58086E0,7.459408E0,3.4635413E0,6.7807236E0,1.2772318E1,9.24972E0,1.1917965E1,3.5232406E0,3.257483E0,7.5309253E0,5.241393E0,3.1715245E0,6.078195E0,8.893662E0,3.0243032E0,3.8285742E0,3.7023513E0],"tree_param":{"num_deleted":"0","num_feature":"8","num_nodes":"23","size_leaf_vector":"1"}},{"base_weights":[-5.259417E-2,-4.692178E-1,6.0665274E-1,-8.533055E-1,-7.695406E-2,8.5387036E-2,8.210025E-1,-5.2602924E-2,-9.395651E-3,-4.3693814E-1,1.9530678E-1,-1.1666659E-2,2.0033697E-2,1.8207733E-2,4.6623044E-2,-4.206438E-2,7.484305E-3,4.1044798E-2,-1.4372304E-1,1.3241134E-2,-2.4636146E-2],"categories":[],"categories_nodes":[],"categories_segments":[],"categories_sizes":[],"default_left":[0,0,0,0,0,0,0,0,0,0,0,0,0,0,0,0,0,0,0,0,0],"id":31,"left_children":[1,3,5,7,9,11,13,-1,-1,15,17,-1,-1,-1,-1,-1,-1,-1,19,-1,-1],"loss_changes":[1.546008E1,5.1201754E0,2.3692713E0,2.0891647E0,1.8620417E0,8.449126E-1,4.4227982E-1,0E0,0E0,2.0508723E0,2.4536886E0,0E0,0E0,0E0,0E0,0E0,0E0,0E0,1.2701573E0,0E0,0E0],"parents":[2147483647,0,0,1,1,2,2,3,3,4,4,5,5,6,6,9,9,10,10,18,18],"right_children":[2,4,6,8,10,12,14,-1,-1,16,18,-1,-1,-1,-1,-1,-1,-1,20,-1,-1],"split_conditions":[1.3E2,3.2E1,3.2E1,6.26E-1,1.04E2,1.58E2,2.58E-1,-5.2602924E-2,-9.395651E-3,3.6E1,1.17E2,-1.1666659E-2,2.0033697E-2,1.8207733E-2,4.6623044E-2,-4.206438E-2,7.484305E-3,4.1044798E-2,3.52E1,1.3241134E-2,-2.4636146E-2],"split_indices":[1,5,7,6,1,1,6,0,0,7,1,0,0,0,0,0,0,0,5,0,0],"split_type":[0,0,0,0,0,0,0,0,0,0,0,0,0,0,0,0,0,0,0,0,0],"sum_hessian":[5.425212E1,3.3419983E1,2.0832142E1,1.6292112E1,1.7127869E1,6.477706E0,1.4354435E1,1.2097482E1,4.19463E0,7.1152344E0,1.0012635E1,3.3505769E0,3.1271293E0,3.6521428E0,1.0702292E1,3.9550047E0,3.1602297E0,3.0195506E0,6.9930844E0,3.3328195E0,3.660265E0],"tree_param":{"num_deleted":"0","num_feature":"8","num_nodes":"21","size_leaf_vector":"1"}},{"base_weights":[-4.7550872E-2,-5.8054626E-1,2.11246E-1,-8.047329E-1,6.669829E-4,-2.5426596E-1,4.3983078E-1,-4.6722095E-2,-1.5163893E-2,2.0200834E-2,-5.0190556E-1,1.5624341E-1,7.000877E-1,-8.778013E-3,-4.1624885E-2,-2.1354192E-1,3.0296495E-2,5.2545667E-2,2.7032012E-1,1.178475E-2,-2.7245654E-2,3.829899E-2,-1.407336E-2],"categories":[],"categories_nodes":[],"categories_segments":[],"categories_sizes":[],"default_left":[0,0,0,0,0,0,0,0,0,0,0,0,0,0,0,0,0,0,0,0,0,0,0],"id":32,"left_children":[1,3,5,7,-1,9,11,-1,-1,-1,13,15,17,-1,-1,19,-1,-1,21,-1,-1,-1,-1],"loss_changes":[7.5562515E0,2.3914466E0,4.0500364E0,5.6198597E-1,0E0,2.2929947E0,1.749629E0,0E0,0E0,0E0,9.07156E-1,2.3478346E0,1.6528993E0,0E0,0E0,1.3283255E0,0E0,0E0,2.1629567E0,0E0,0E0,0E0,0E0],"parents":[2147483647,0,0,1,1,2,2,3,3,5,5,6,6,10,10,11,11,12,12,15,15,18,18],"right_children":[2,4,6,8,-1,10,12,-1,-1,-1,14,16,18,-1,-1,20,-1,-1,22,-1,-1,-1,-1],"split_conditions":[2.97E1,6E0,2.96E-1,1.26E2,6.669829E-4,6.8E1,1.3E2,-4.6722095E-2,-1.5163893E-2,2.0200834E-2,2.4E-1,6.1E-1,6.45E-1,-8.778013E-3,-4.1624885E-2,2.3E1,3.0296495E-2,5.2545667E-2,3.31E1,1.178475E-2,-2.7245654E-2,3.829899E-2,-1.407336E-2],"split_indices":[5,0,6,1,0,2,1,0,0,0,6,6,6,0,0,4,0,0,5,0,0,0,0],"split_type":[0,0,0,0,0,0,0,0,0,0,0,0,0,0,0,0,0,0,0,0,0,0,0],"sum_hessian":[5.289116E1,1.688109E1,3.6010067E1,1.1997217E1,4.883873E0,1.1822088E1,2.4187979E1,8.845686E0,3.1515312E0,3.0590267E0,8.763062E0,1.2341012E1,1.1846967E1,5.1803284E0,3.5827332E0,7.060317E0,5.280695E0,5.726794E0,6.120173E0,3.119698E0,3.940619E0,3.0195715E0,3.1006014E0],"tree_param":{"num_deleted":"0","num_feature":"8","num_nodes":"23","size_leaf_vector":"1"}},{"base_weights":[3.429175E-2,-5.569617E-1,3.3942494E-1,-8.2192147E-1,-2.5740733E-2,-1.7627388E-2,7.057275E-1,-5.019468E-2,-2.2892369E-2,-1.4130798E-2,1.268909E-2,-4.852979E-1,2.3918569E-1,3.154226E-1,5.0789814E-2,2.2064766E-3,-4.586184E-2,-1.3755816E-2,4.7613943E-1,2.6190355E-2,-4.723885E-3,4.2377967E-2,8.0252765E-3],"categories":[],"categories_nodes":[],"categories_segments":[],"categories_sizes":[],"default_left":[0,0,0,0,0,0,0,0,0,0,0,0,0,0,0,0,0,0,0,0,0,0,0],"id":33,"left_children":[1,3,5,7,9,11,13,-1,-1,-1,-1,15,17,19,-1,-1,-1,-1,21,-1,-1,-1,-1],"loss_changes":[9.953051E0,2.6252098E0,4.7626095E0,3.6932755E-1,5.951111E-1,2.4421883E0,1.8521452E0,0E0,0E0,0E0,0E0,1.6859432E0,1.7362111E0,8.522324E-1,0E0,0E0,0E0,0E0,9.640305E-1,0E0,0E0,0E0,0E0],"parents":[2147483647,0,0,1,1,2,2,3,3,4,4,5,5,6,6,11,11,12,12,13,13,18,18],"right_children":[2,4,6,8,10,12,14,-1,-1,-1,-1,16,18,20,-1,-1,-1,-1,22,-1,-1,-1,-1],"split_conditions":[2.98E1,6E0,3.5E1,2.69E1,2.62E1,3.19E-1,1.1E2,-5.019468E-2,-2.2892369E-2,-1.4130798E-2,1.268909E-2,2.6E1,2.5E1,7E0,5.0789814E-2,2.2064766E-3,-4.586184E-2,-1.3755816E-2,2E0,2.6190355E-2,-4.723885E-3,4.2377967E-2,8.0252765E-3],"split_indices":[5,0,7,5,5,6,4,0,0,0,0,7,7,0,0,0,0,0,0,0,0,0,0],"split_type":[0,0,0,0,0,0,0,0,0,0,0,0,0,0,0,0,0,0,0,0,0,0,0],"sum_hessian":[5.312088E1,1.78016E1,3.5319283E1,1.1512313E1,6.2892857E0,1.8367496E1,1.6951784E1,6.5040565E0,5.0082564E0,3.271646E0,3.0176394E0,6.195487E0,1.2172009E1,8.39796E0,8.553824E0,3.1870072E0,3.0084798E0,3.7883775E0,8.383632E0,5.3833113E0,3.0146484E0,3.077245E0,5.306387E0],"tree_param":{"num_deleted":"0","num_feature":"8","num_nodes":"23","size_leaf_vector":"1"}},{"base_weights":[2.6914272E-2,-4.5350075E-2,2.3580644E-1,-1.8226427E-1,5.7329595E-1,-3.6983097E-1,2.9552672E-2,7.403384E-1,-1.4821905E-2,-3.0960396E-2,-6.323312E-1,3.1479153E-1,4.9178723E-2,1.2729603E-2,-1.7915864E-2,-4.6825867E-2,-7.6104025E-3,3.047998E-2,-8.979813E-3],"categories":[],"categories_nodes":[],"categories_segments":[],"categories_sizes":[],"default_left":[0,0,0,0,0,0,0,0,0,0,0,0,0,0,0,0,0,0,0],"id":34,"left_children":[1,-1,3,5,7,9,-1,11,-1,13,15,17,-1,-1,-1,-1,-1,-1,-1],"loss_changes":[1.0477186E1,0E0,6.282467E0,3.1655293E0,3.7744102E0,1.4896197E0,0E0,1.8446693E0,0E0,8.817873E-1,1.2461946E0,1.4270964E0,0E0,0E0,0E0,0E0,0E0,0E0,0E0],"parents":[2147483647,0,0,2,2,3,3,4,4,5,5,7,7,9,9,10,10,11,11],"right_children":[2,-1,4,6,8,10,-1,12,-1,14,16,18,-1,-1,-1,-1,-1,-1,-1],"split_conditions":[2.65E1,-4.5350075E-2,3.2E1,4.09E1,1E1,3.74E-1,2.9552672E-2,3.4E-1,-1.4821905E-2,1.4E1,6.1E-1,2.4E1,4.9178723E-2,1.2729603E-2,-1.7915864E-2,-4.6825867E-2,-7.6104025E-3,3.047998E-2,-8.979813E-3],"split_indices":[5,0,7,5,0,6,0,6,0,4,6,3,0,0,0,0,0,0,0],"split_type":[0,0,0,0,0,0,0,0,0,0,0,0,0,0,0,0,0,0,0],"sum_hessian":[5.16087E1,8.822606E0,4.2786095E1,1.9316902E1,2.3469193E1,1.5966114E1,3.350789E0,1.981271E1,3.656483E0,7.4572444E0,8.508869E0,8.040267E0,1.1772442E1,4.101659E0,3.3555856E0,4.6268873E0,3.8819818E0,4.8907986E0,3.149468E0],"tree_param":{"num_deleted":"0","num_feature":"8","num_nodes":"19","size_leaf_vector":"1"}},{"base_weights":[-1.6364629E-3,-3.8304263E-1,5.094878E-1,-9.358155E-1,6.981031E-2,2.009919E-1,4.8477456E-2,-5.2932035E-2,-2.0865288E-2,-2.341733E-2,2.4500893E-1,-1.6908728E-2,5.246877E-1,6.358527E-1,-1.3411666E-2,4.671013E-2,-1.2344127E-3,3.4666092E-3,5.7459254E-2],"categories":[],"categories_nodes":[],"categories_segments":[],"categories_sizes":[],"default_left":[0,0,0,0,0,0,0,0,0,0,0,0,0,0,0,0,0,0,0],"id":35,"left_children":[1,3,5,7,9,11,-1,-1,-1,-1,13,-1,15,17,-1,-1,-1,-1,-1],"loss_changes":[1.0203033E1,7.5675006E0,2.979601E0,4.2214775E-1,1.755708E0,2.7343192E0,0E0,0E0,0E0,0E0,2.9360802E0,0E0,2.1707842E0,2.2826395E0,0E0,0E0,0E0,0E0,0E0],"parents":[2147483647,0,0,1,1,2,2,3,3,4,4,5,5,10,10,12,12,13,13],"right_children":[2,4,6,8,10,12,-1,-1,-1,-1,14,-1,16,18,-1,-1,-1,-1,-1],"split_conditions":[1.29E2,2.9E1,1.58E2,1.18E2,9.3E1,3.15E-1,4.8477456E-2,-5.2932035E-2,-2.0865288E-2,-2.341733E-2,1.2E2,-1.6908728E-2,6.47E-1,2E1,-1.3411666E-2,4.671013E-2,-1.2344127E-3,3.4666092E-3,5.7459254E-2],"split_indices":[1,7,1,1,1,6,0,0,0,0,1,0,6,3,0,0,0,0,0],"split_type":[0,0,0,0,0,0,0,0,0,0,0,0,0,0,0,0,0,0,0],"sum_hessian":[5.0336674E1,2.8969742E1,2.136693E1,1.256538E1,1.6404362E1,1.3650449E1,7.716482E0,9.316726E0,3.2486541E0,3.6179347E0,1.27864275E1,5.1040754E0,8.546373E0,7.1231327E0,5.663295E0,4.4951363E0,4.0512366E0,3.9257193E0,3.1974134E0],"tree_param":{"num_deleted":"0","num_feature":"8","num_nodes":"19","size_leaf_vector":"1"}},{"base_weights":[-4.0753838E-2,-3.74172E-1,4.3285745E-1,-5.896206E-1,2.1834718E-1,5.636685E-1,-8.519904E-3,-7.6882684E-1,-9.4319366E-2,-2.9774741E-3,2.5961418E-2,7.617149E-1,2.71155E-3,-1.13476915E-2,-4.8888173E-2,-1.9948993E-2,1.22089805E-2,4.6205008E-1,5.5701505E-2,3.507438E-2,1.5557766E-3],"categories":[],"categories_nodes":[],"categories_segments":[],"categories_sizes":[],"default_left":[0,0,0,0,0,0,0,0,0,0,0,0,0,0,0,0,0,0,0,0,0],"id":36,"left_children":[1,3,5,7,9,11,-1,13,15,-1,-1,17,-1,-1,-1,-1,-1,19,-1,-1,-1],"loss_changes":[8.331111E0,4.0728593E0,1.819231E0,1.9625754E0,7.807987E-1,1.7926569E0,0E0,1.6684065E0,8.4317553E-1,0E0,0E0,8.590636E-1,0E0,0E0,0E0,0E0,0E0,8.800117E-1,0E0,0E0,0E0],"parents":[2147483647,0,0,1,1,2,2,3,3,4,4,5,5,7,7,8,8,11,11,17,17],"right_children":[2,4,6,8,10,12,-1,14,16,-1,-1,18,-1,-1,-1,-1,-1,20,-1,-1,-1],"split_conditions":[1.3E2,6E0,2.28E2,9.9E1,2E1,6E0,-8.519904E-3,8E0,2.9E1,-2.9774741E-3,2.5961418E-2,1.47E2,2.71155E-3,-1.13476915E-2,-4.8888173E-2,-1.9948993E-2,1.22089805E-2,3.6E1,5.5701505E-2,3.507438E-2,1.5557766E-3],"split_indices":[1,0,4,4,3,0,0,3,3,0,0,1,0,0,0,0,0,7,0,0,0],"split_type":[0,0,0,0,0,0,0,0,0,0,0,0,0,0,0,0,0,0,0,0,0],"sum_hessian":[5.0732735E1,2.9896103E1,2.0836632E1,2.1927746E1,7.968355E0,1.7177462E1,3.65917E0,1.5696363E1,6.2313833E0,4.5593657E0,3.4089894E0,1.2012381E1,5.1650815E0,4.948573E0,1.074779E1,3.1855803E0,3.045803E0,7.740283E0,4.272098E0,4.572091E0,3.168192E0],"tree_param":{"num_deleted":"0","num_feature":"8","num_nodes":"21","size_leaf_vector":"1"}},{"base_weights":[-2.88115E-2,-5.0153685E-1,4.2879248E-1,3.6357548E-3,-6.512905E-1,5.821918E-1,-8.248849E-3,-4.565787E-2,-2.290851E-1,9.064701E-3,7.218192E-1,1.0831042E-2,-2.5906092E-2,4.3309307E-1,5.110497E-2,4.3825638E-2,-1.090953E-2],"categories":[],"categories_nodes":[],"categories_segments":[],"categories_sizes":[],"default_left":[0,0,0,0,0,0,0,0,0,0,0,0,0,0,0,0,0],"id":37,"left_children":[1,3,5,-1,7,9,-1,-1,11,-1,13,-1,-1,15,-1,-1,-1],"loss_changes":[1.1357548E1,2.2657914E0,2.5291014E0,0E0,2.0641146E0,1.0697656E0,0E0,0E0,1.2981925E0,0E0,9.0747833E-1,0E0,0E0,2.9851456E0,0E0,0E0,0E0],"parents":[2147483647,0,0,1,1,2,2,4,4,5,5,8,8,10,10,13,13],"right_children":[2,4,6,-1,8,10,-1,-1,12,-1,14,-1,-1,16,-1,-1,-1],"split_conditions":[3.3E1,8E0,9E0,3.6357548E-3,3.2E1,3.8E1,-8.248849E-3,-4.565787E-2,3.64E-1,9.064701E-3,1.1E2,1.0831042E-2,-2.5906092E-2,2.84E-1,5.110497E-2,4.3825638E-2,-1.090953E-2],"split_indices":[7,3,0,0,3,7,0,0,6,0,4,0,0,6,0,0,0],"split_type":[0,0,0,0,0,0,0,0,0,0,0,0,0,0,0,0,0],"sum_hessian":[5.050907E1,2.4796831E1,2.571224E1,5.235394E0,1.9561438E1,2.044882E1,5.26342E0,1.1355514E1,8.205924E0,5.876021E0,1.4572799E1,3.3266466E0,4.879277E0,8.674432E0,5.8983665E0,4.955029E0,3.7194033E0],"tree_param":{"num_deleted":"0","num_feature":"8","num_nodes":"17","size_leaf_vector":"1"}},{"base_weights":[9.069696E-2,-2.5780454E-1,7.3211277E-1,-8.124118E-1,-6.330735E-2,3.7887502E-1,5.939107E-2,-2.1545233E-2,-4.7576614E-2,-4.4578728E-1,1.2214951E-1,3.622837E-2,1.1184701E-1,-3.3373687E-2,-3.7299048E-3,-5.2855708E-2,3.3355102E-2,2.0231096E-2,-9.581233E-3,1.9381275E-2,-1.4590107E-2],"categories":[],"categories_nodes":[],"categories_segments":[],"categories_sizes":[],"default_left":[0,0,0,0,0,0,0,0,0,0,0,0,0,0,0,0,0,0,0,0,0],"id":38,"left_children":[1,3,5,7,9,11,-1,-1,-1,13,15,-1,17,-1,-1,19,-1,-1,-1,-1,-1],"loss_changes":[1.109432E1,3.438264E0,2.3566904E0,3.1308174E-2,1.8303418E0,9.6119475E-1,0E0,0E0,0E0,6.406373E-1,1.7181053E0,0E0,7.4858E-1,0E0,0E0,1.6164036E0,0E0,0E0,0E0,0E0,0E0],"parents":[2147483647,0,0,1,1,2,2,3,3,4,4,5,5,9,9,10,10,12,12,15,15],"right_children":[2,4,6,8,10,12,-1,-1,-1,14,16,-1,18,-1,-1,20,-1,-1,-1,-1,-1],"split_conditions":[1.35E2,2.65E1,1.63E2,1.4E1,1.05E2,1.43E2,5.939107E-2,-2.1545233E-2,-4.7576614E-2,4E0,3.8E1,3.622837E-2,3.6E1,-3.3373687E-2,-3.7299048E-3,1.2E2,3.3355102E-2,2.0231096E-2,-9.581233E-3,1.9381275E-2,-1.4590107E-2],"split_indices":[1,5,1,3,1,1,0,0,0,0,3,0,4,0,0,1,0,0,0,0,0],"split_type":[0,0,0,0,0,0,0,0,0,0,0,0,0,0,0,0,0,0,0,0,0],"sum_hessian":[4.778703E1,3.135107E1,1.6435959E1,7.3151083E0,2.4035963E1,1.0290659E1,6.1453E0,3.0496004E0,4.265508E0,7.3904424E0,1.6645521E1,3.7380092E0,6.55265E0,4.1272864E0,3.2631557E0,1.3282884E1,3.3626366E0,3.165458E0,3.3871918E0,4.4525986E0,8.830285E0],"tree_param":{"num_deleted":"0","num_feature":"8","num_nodes":"21","size_leaf_vector":"1"}},{"base_weights":[-3.8524903E-2,-3.933702E-1,3.3421645E-1,-5.8674943E-1,1.9468568E-2,-1.440843E-1,6.7008466E-1,-4.2617726E-3,-7.09125E-1,1.341899E-2,-3.444313E-2,-1.6764792E-2,9.9715495E-1,-4.4961996E-2,-9.44773E-3,5.860082E-2,2.7840352E-2],"categories":[],"categories_nodes":[],"categories_segments":[],"categories_sizes":[],"default_left":[0,0,0,0,0,0,0,0,0,0,0,0,0,0,0,0,0],"id":39,"left_children":[1,3,5,7,-1,9,11,-1,13,-1,-1,-1,15,-1,-1,-1,-1],"loss_changes":[6.751524E0,4.1791916E0,4.104784E0,1.24856E0,0E0,2.6826417E0,5.2124715E0,0E0,1.512085E0,0E0,0E0,0E0,2.286787E-1,0E0,0E0,0E0,0E0],"parents":[2147483647,0,0,1,1,2,2,3,3,5,5,6,6,8,8,12,12],"right_children":[2,4,6,8,-1,10,12,-1,14,-1,-1,-1,16,-1,-1,-1,-1],"split_conditions":[3.3E1,4.09E1,2.96E-1,8E0,1.9468568E-2,2.4E-1,2.95E1,-4.2617726E-3,3.2E1,1.341899E-2,-3.444313E-2,-1.6764792E-2,8.4E1,-4.4961996E-2,-9.44773E-3,5.860082E-2,2.7840352E-2],"split_indices":[7,5,6,3,0,6,5,0,3,0,0,0,2,0,0,0,0],"split_type":[0,0,0,0,0,0,0,0,0,0,0,0,0,0,0,0,0],"sum_hessian":[4.9051235E1,2.5100508E1,2.3950727E1,2.0328636E1,4.771873E0,1.0115926E1,1.3834803E1,4.320219E0,1.6008417E1,6.0458403E0,4.070085E0,3.3897893E0,1.0445014E1,1.11899185E1,4.8184977E0,6.286919E0,4.1580944E0],"tree_param":{"num_deleted":"0","num_feature":"8","num_nodes":"17","size_leaf_vector":"1"}},{"base_weights":[-6.273281E-3,-3.8273704E-1,3.4579962E-1,-5.991075E-1,7.74894E-3,1.6446504E-1,4.510465E-2,-7.753184E-1,3.1968083E-3,-1.8690022E-2,1.9103123E-2,-2.502234E-1,3.993081E-1,-1.7069455E-2,-5.1859345E-2,7.935426E-3,-2.8081015E-2,-3.6949273E-3,7.0187163E-1,4.509391E-2,1.7611792E-2],"categories":[],"categories_nodes":[],"categories_segments":[],"categories_sizes":[],"default_left":[0,0,0,0,0,0,0,0,0,0,0,0,0,0,0,0,0,0,0,0,0],"id":40,"left_children":[1,3,5,7,9,11,-1,13,-1,-1,-1,15,17,-1,-1,-1,-1,-1,19,-1,-1],"loss_changes":[6.388228E0,1.9719024E0,2.3649354E0,1.8015242E0,1.4694606E0,2.0489094E0,0E0,1.0007377E0,0E0,0E0,0E0,1.0888293E0,1.9363868E0,0E0,0E0,0E0,0E0,0E0,2.5043774E-1,0E0,0E0],"parents":[2147483647,0,0,1,1,2,2,3,3,4,4,5,5,7,7,11,11,12,12,18,18],"right_children":[2,4,6,8,10,12,-1,14,-1,-1,-1,16,18,-1,-1,-1,-1,-1,20,-1,-1],"split_conditions":[1.24E2,3.4E1,1.66E2,6.27E-1,2E1,2.9E1,4.510465E-2,6.2E1,3.1968083E-3,-1.8690022E-2,1.9103123E-2,2.1E1,3.06E-1,-1.7069455E-2,-5.1859345E-2,7.935426E-3,-2.8081015E-2,-3.6949273E-3,3E1,4.509391E-2,1.7611792E-2],"split_indices":[1,7,1,6,3,7,0,2,0,0,0,3,6,0,0,0,0,0,3,0,0],"split_type":[0,0,0,0,0,0,0,0,0,0,0,0,0,0,0,0,0,0,0,0,0],"sum_hessian":[4.619896E1,2.2284037E1,2.3914923E1,1.3995044E1,8.288992E0,1.9012934E1,4.90199E0,1.0922849E1,3.0721955E0,4.1054997E0,4.183492E0,6.850591E0,1.2162342E1,4.977893E0,5.944956E0,3.173469E0,3.6771224E0,5.038279E0,7.124063E0,3.526994E0,3.5970688E0],"tree_param":{"num_deleted":"0","num_feature":"8","num_nodes":"21","size_leaf_vector":"1"}},{"base_weights":[-2.7447452E-3,-3.7615806E-1,4.2947987E-1,-5.624653E-1,1.0318441E-1,5.698717E-1,-1.6162701E-2,-2.9221675E-1,-4.2783972E-2,-1.3026505E-2,2.2692738E-2,9.1716754E-1,2.218698E-1,-4.772557E-1,4.923626E-3,2.3648476E-2,5.4240584E-2,-1.0052385E-2,2.8429994E-2,-9.729008E-3,-3.1739395E-2],"categories":[],"categories_nodes":[],"categories_segments":[],"categories_sizes":[],"default_left":[0,0,0,0,0,0,0,0,0,0,0,0,0,0,0,0,0,0,0,0,0],"id":41,"left_children":[1,3,5,7,9,11,-1,13,-1,-1,-1,15,17,19,-1,-1,-1,-1,-1,-1,-1],"loss_changes":[7.8401985E0,2.3850982E0,2.5638914E0,1.2491345E0,1.1562142E0,2.1339946E0,0E0,8.68518E-1,0E0,0E0,0E0,1.8400288E-1,1.7243352E0,2.2749567E-1,0E0,0E0,0E0,0E0,0E0,0E0,0E0],"parents":[2147483647,0,0,1,1,2,2,3,3,4,4,5,5,7,7,11,11,12,12,13,13],"right_children":[2,4,6,8,10,12,-1,14,-1,-1,-1,16,18,20,-1,-1,-1,-1,-1,-1,-1],"split_conditions":[1.28E2,3.1E1,2.55E2,1.4E1,4E0,4E0,-1.6162701E-2,1.18E2,-4.2783972E-2,-1.3026505E-2,2.2692738E-2,1.38E2,6.3E1,6.8E1,4.923626E-3,2.3648476E-2,5.4240584E-2,-1.0052385E-2,2.8429994E-2,-9.729008E-3,-3.1739395E-2],"split_indices":[1,3,4,4,0,0,0,1,0,0,0,1,4,2,0,0,0,0,0,0,0],"split_type":[0,0,0,0,0,0,0,0,0,0,0,0,0,0,0,0,0,0,0,0,0],"sum_hessian":[4.6575718E1,2.5057457E1,2.1518261E1,1.7919306E1,7.138151E0,1.8340515E1,3.1777458E0,1.0363818E1,7.555488E0,3.6300857E0,3.5080657E0,8.360978E0,9.979538E0,6.882529E0,3.4812894E0,3.3379238E0,5.023054E0,4.6851163E0,5.2944217E0,3.2628503E0,3.6196785E0],"tree_param":{"num_deleted":"0","num_feature":"8","num_nodes":"21","size_leaf_vector":"1"}},{"base_weights":[4.458582E-2,-7.3789334E-1,2.7897924E-1,-4.511018E-2,-1.8112525E-2,3.9036992E-1,-2.6920477E-2,-1.360496E-2,5.02335E-1,1.412936E-1,6.22462E-1,2.7805036E-2,-2.4555635E-2,4.854916E-2,2.3713367E-2],"categories":[],"categories_nodes":[],"categories_segments":[],"categories_sizes":[],"default_left":[0,0,0,0,0,0,0,0,0,0,0,0,0,0,0],"id":42,"left_children":[1,3,5,-1,-1,7,-1,-1,9,11,13,-1,-1,-1,-1],"loss_changes":[9.469046E0,4.0866613E-1,3.8148048E0,0E0,0E0,2.7640085E0,0E0,0E0,1.2414346E0,2.6198897E0,7.122154E-1,0E0,0E0,0E0,0E0],"parents":[2147483647,0,0,1,1,2,2,5,5,8,8,9,9,10,10],"right_children":[2,4,6,-1,-1,8,-1,-1,10,12,14,-1,-1,-1,-1],"split_conditions":[1.05E2,5E0,9E0,-4.511018E-2,-1.8112525E-2,2.4E1,-2.6920477E-2,-1.360496E-2,1.21E2,1.15E2,2E0,2.7805036E-2,-2.4555635E-2,4.854916E-2,2.3713367E-2],"split_indices":[1,0,0,0,0,7,0,0,1,1,0,0,0,0,0],"split_type":[0,0,0,0,0,0,0,0,0,0,0,0,0,0,0],"sum_hessian":[4.9505924E1,1.091618E1,3.8589745E1,6.619138E0,4.297042E0,3.4421352E1,4.168394E0,4.769748E0,2.9651604E1,7.946028E0,2.1705576E1,4.8714266E0,3.0746014E0,4.8193784E0,1.6886196E1],"tree_param":{"num_deleted":"0","num_feature":"8","num_nodes":"15","size_leaf_vector":"1"}},{"base_weights":[6.392567E-2,-5.766306E-1,2.1279584E-1,-4.813983E-2,1.0530908E-2,9.6379444E-2,4.2234167E-2,2.0428595E-1,-3.405728E-2,-2.3836805E-2,6.571522E-1,7.44201E-3,-2.3329673E-2,4.337777E-2,9.571835E-3],"categories":[],"categories_nodes":[],"categories_segments":[],"categories_sizes":[],"default_left":[0,0,0,0,0,0,0,0,0,0,0,0,0,0,0],"id":43,"left_children":[1,3,5,-1,-1,7,-1,9,-1,11,13,-1,-1,-1,-1],"loss_changes":[4.893629E0,3.1529968E0,2.9586477E0,0E0,0E0,3.161724E0,0E0,3.3633718E0,0E0,1.7907748E0,9.010267E-1,0E0,0E0,0E0,0E0],"parents":[2147483647,0,0,1,1,2,2,5,5,7,7,9,9,10,10],"right_children":[2,4,6,-1,-1,8,-1,10,-1,12,14,-1,-1,-1,-1],"split_conditions":[2.65E1,1.25E2,1.66E2,-4.813983E-2,1.0530908E-2,2.25E2,4.2234167E-2,6E-1,-3.405728E-2,4.07E-1,7.87E-1,7.44201E-3,-2.3329673E-2,4.337777E-2,9.571835E-3],"split_indices":[5,1,1,0,0,4,0,6,0,6,6,0,0,0,0],"split_type":[0,0,0,0,0,0,0,0,0,0,0,0,0,0,0],"sum_hessian":[4.903081E1,8.704376E0,4.0326435E1,5.690198E0,3.0141788E0,3.502593E1,5.3005085E0,3.140477E1,3.6211567E0,2.1514576E1,9.890194E0,1.5955641E1,5.5589356E0,6.218105E0,3.672089E0],"tree_param":{"num_deleted":"0","num_feature":"8","num_nodes":"15","size_leaf_vector":"1"}},{"base_weights":[-8.1046835E-2,-4.922571E-1,1.263289E-1,-7.1685356E-1,1.6303236E-2,2.3462456E-1,-3.1218125E-2,-1.06681995E-2,-4.2878676E-2,-8.950721E-2,5.4619265E-1,-2.4338487E-1,1.6534317E-2,9.903942E-2,4.786323E-2,-2.2060111E-2,1.1316502E-3,1.5722282E-2,-5.4276516E-3],"categories":[],"categories_nodes":[],"categories_segments":[],"categories_sizes":[],"default_left":[0,0,0,0,0,0,0,0,0,0,0,0,0,0,0,0,0,0,0],"id":44,"left_children":[1,3,5,7,-1,9,-1,-1,-1,11,13,15,-1,17,-1,-1,-1,-1,-1],"loss_changes":[3.9529238E0,3.0824966E0,2.6769202E0,7.0085955E-1,0E0,2.869372E0,0E0,0E0,0E0,1.0211028E0,2.5486097E0,6.00633E-1,0E0,3.9203036E-1,0E0,0E0,0E0,0E0,0E0],"parents":[2147483647,0,0,1,1,2,2,3,3,5,5,9,9,10,10,11,11,13,13],"right_children":[2,4,6,8,-1,10,-1,-1,-1,12,14,16,-1,18,-1,-1,-1,-1,-1],"split_conditions":[2.98E1,4.9E1,9E0,5.8E1,1.6303236E-2,3.3E1,-3.1218125E-2,-1.06681995E-2,-4.2878676E-2,4.09E1,3.89E-1,1.25E2,1.6534317E-2,2.39E-1,4.786323E-2,-2.2060111E-2,1.1316502E-3,1.5722282E-2,-5.4276516E-3],"split_indices":[5,7,0,2,0,7,0,0,0,5,6,4,0,6,0,0,0,0,0],"split_type":[0,0,0,0,0,0,0,0,0,0,0,0,0,0,0,0,0,0,0],"sum_hessian":[4.462576E1,1.4499873E1,3.0125887E1,1.1474562E1,3.025311E0,2.692859E1,3.1972964E0,3.0561235E0,8.418439E0,1.354751E1,1.3381081E1,1.0224141E1,3.3233693E0,7.0036383E0,6.377443E0,5.486043E0,4.738098E0,3.1845236E0,3.819115E0],"tree_param":{"num_deleted":"0","num_feature":"8","num_nodes":"19","size_leaf_vector":"1"}},{"base_weights":[4.6539404E-3,-3.4041122E-1,5.2350336E-1,-8.0430657E-1,-8.919637E-2,6.5068257E-1,-3.657582E-3,-4.9699984E-2,-1.5234641E-2,-3.5054594E-1,3.4114203E-1,5.4355383E-2,3.362805E-1,-4.202062E-2,5.909364E-3,3.2875862E-2,-4.3812734E-3,-3.5562513E-3,2.8944585E-2],"categories":[],"categories_nodes":[],"categories_segments":[],"categories_sizes":[],"default_left":[0,0,0,0,0,0,0,0,0,0,0,0,0,0,0,0,0,0,0],"id":45,"left_children":[1,3,5,7,9,11,-1,-1,-1,13,15,-1,17,-1,-1,-1,-1,-1,-1],"loss_changes":[7.999077E0,3.0562496E0,1.4014807E0,5.7894564E-1,2.2043827E0,1.6662927E0,0E0,0E0,0E0,2.8606777E0,1.0764596E0,0E0,1.0350446E0,0E0,0E0,0E0,0E0,0E0,0E0],"parents":[2147483647,0,0,1,1,2,2,3,3,4,4,5,5,9,9,10,10,12,12],"right_children":[2,4,6,8,10,12,-1,-1,-1,14,16,-1,18,-1,-1,-1,-1,-1,-1],"split_conditions":[1.3E2,1E2,2.8E2,3.36E1,6E0,4E0,-3.657582E-3,-4.9699984E-2,-1.5234641E-2,3.2E1,1.15E2,5.4355383E-2,7.5E1,-4.202062E-2,5.909364E-3,3.2875862E-2,-4.3812734E-3,-3.5562513E-3,2.8944585E-2],"split_indices":[1,1,4,5,0,0,0,0,0,5,1,0,2,0,0,0,0,0,0],"split_type":[0,0,0,0,0,0,0,0,0,0,0,0,0,0,0,0,0,0,0],"sum_hessian":[4.2683014E1,2.5841091E1,1.6841923E1,8.304419E0,1.7536673E1,1.3808121E1,3.0338016E0,5.3018703E0,3.0025482E0,1.102592E1,6.5107527E0,4.7528863E0,9.055235E0,5.0036907E0,6.0222297E0,3.4394076E0,3.0713453E0,3.6435792E0,5.4116554E0],"tree_param":{"num_deleted":"0","num_feature":"8","num_nodes":"19","size_leaf_vector":"1"}},{"base_weights":[1.1572443E-3,-3.8894254E-1,3.297213E-1,1.3705897E-2,-6.016095E-1,4.866612E-1,-2.9156689E-2,-7.608933E-1,2.08536E-3,-1.9534012E-2,6.5479296E-1,-5.176835E-2,-4.2431337E-1,9.897183E-3,7.688743E-1,-3.595881E-2,-1.2679014E-3,5.0858524E-2,2.5658274E-2],"categories":[],"categories_nodes":[],"categories_segments":[],"categories_sizes":[],"default_left":[0,0,0,0,0,0,0,0,0,0,0,0,0,0,0,0,0,0,0],"id":46,"left_children":[1,3,5,-1,7,9,-1,11,-1,-1,13,-1,15,-1,17,-1,-1,-1,-1],"loss_changes":[5.9638915E0,3.164829E0,3.9019372E0,0E0,1.7143898E0,3.5150752E0,0E0,7.8142405E-1,0E0,0E0,8.336544E-1,0E0,8.793212E-1,0E0,4.170189E-1,0E0,0E0,0E0,0E0],"parents":[2147483647,0,0,1,1,2,2,4,4,5,5,7,7,10,10,12,12,14,14],"right_children":[2,4,6,-1,8,10,-1,12,-1,-1,14,-1,16,-1,18,-1,-1,-1,-1],"split_conditions":[3.1E1,8E0,1E1,1.3705897E-2,1.44E2,1E2,-2.9156689E-2,2.5E1,2.08536E-3,-1.9534012E-2,2.97E1,-5.176835E-2,3E1,9.897183E-3,1.4E1,-3.595881E-2,-1.2679014E-3,5.0858524E-2,2.5658274E-2],"split_indices":[7,3,0,0,1,1,0,7,0,0,5,0,3,0,4,0,0,0,0],"split_type":[0,0,0,0,0,0,0,0,0,0,0,0,0,0,0,0,0,0,0],"sum_hessian":[4.4529556E1,2.0274338E1,2.4255219E1,4.8533726E0,1.5420964E1,2.1095345E1,3.1598752E0,1.2214032E1,3.2069323E0,3.1796591E0,1.7915686E1,5.5841427E0,6.6298895E0,4.1263685E0,1.3789316E1,3.3507466E0,3.2791429E0,5.485239E0,8.304078E0],"tree_param":{"num_deleted":"0","num_feature":"8","num_nodes":"19","size_leaf_vector":"1"}},{"base_weights":[-1.4465126E-2,-2.7500597E-1,4.353467E-1,-4.9091645E-2,-6.3890755E-2,1.0439069E-1,8.092078E-1,-4.7725978E-1,1.7418458E-1,2.688366E-2,-2.3852391E-2,1.4929307E-2,5.3992487E-2,2.7015354E-3,-4.018186E-2,-9.113299E-2,4.346323E-2,5.9960824E-3,-2.879095E-2],"categories":[],"categories_nodes":[],"categories_segments":[],"categories_sizes":[],"default_left":[0,0,0,0,0,0,0,0,0,0,0,0,0,0,0,0,0,0,0],"id":47,"left_children":[1,3,5,-1,7,9,11,13,15,-1,-1,-1,-1,-1,-1,17,-1,-1,-1],"loss_changes":[5.6773458E0,4.5096893E0,2.1155388E0,0E0,2.510402E0,2.9217741E0,8.109093E-1,1.652771E0,3.1005309E0,0E0,0E0,0E0,0E0,0E0,0E0,1.3745667E0,0E0,0E0,0E0],"parents":[2147483647,0,0,1,1,2,2,4,4,5,5,6,6,7,7,8,8,15,15],"right_children":[2,4,6,-1,8,10,12,14,16,-1,-1,-1,-1,-1,-1,18,-1,-1,-1],"split_conditions":[1.34E2,2.65E1,4.1E1,-4.9091645E-2,2.9E1,4E0,1.4E1,2E0,5.87E-1,2.688366E-2,-2.3852391E-2,1.4929307E-2,5.3992487E-2,2.7015354E-3,-4.018186E-2,3.82E-1,4.346323E-2,5.9960824E-3,-2.879095E-2],"split_indices":[1,5,7,0,7,0,4,0,6,0,0,0,0,0,0,6,0,0,0],"split_type":[0,0,0,0,0,0,0,0,0,0,0,0,0,0,0,0,0,0,0],"sum_hessian":[4.6422276E1,2.9641748E1,1.6780527E1,5.977617E0,2.3664131E1,9.579561E0,7.200967E0,8.281077E0,1.5383054E1,5.532251E0,4.0473104E0,3.2231264E0,3.9778402E0,3.4688292E0,4.8122487E0,1.1762212E1,3.6208415E0,8.718398E0,3.0438137E0],"tree_param":{"num_deleted":"0","num_feature":"8","num_nodes":"19","size_leaf_vector":"1"}},{"base_weights":[-4.0443383E-2,-2.2260202E-1,4.2901358E-1,-7.064728E-1,6.87541E-2,3.6097102E-2,5.4314595E-2,-5.184726E-2,-1.274919E-2,-2.4527067E-1,4.8055395E-1,2.041764E-2,-2.6851559E-2,-4.4831014E-1,1.479165E-2,4.2298056E-2,-4.587231E-3,-3.5001498E-2,3.75122E-3],"categories":[],"categories_nodes":[],"categories_segments":[],"categories_sizes":[],"default_left":[0,0,0,0,0,0,0,0,0,0,0,0,0,0,0,0,0,0,0],"id":48,"left_children":[1,3,5,7,9,11,-1,-1,-1,13,15,-1,-1,17,-1,-1,-1,-1,-1],"loss_changes":[4.042245E0,4.829001E0,3.3809853E0,1.6503038E0,2.9726436E0,2.208356E0,0E0,0E0,0E0,1.5814255E0,2.1456292E0,0E0,0E0,1.3680794E0,0E0,0E0,0E0,0E0,0E0],"parents":[2147483647,0,0,1,1,2,2,3,3,4,4,5,5,9,9,10,10,13,13],"right_children":[2,4,6,8,10,12,-1,-1,-1,14,16,-1,-1,18,-1,-1,-1,-1,-1],"split_conditions":[4.1E1,3.19E-1,1.1E2,3.29E1,7.5E1,8E0,5.4314595E-2,-5.184726E-2,-1.274919E-2,3.2E1,1.35E2,2.041764E-2,-2.6851559E-2,3.44E1,1.479165E-2,4.2298056E-2,-4.587231E-3,-3.5001498E-2,3.75122E-3],"split_indices":[7,6,4,5,2,0,0,0,0,7,4,0,0,5,0,0,0,0,0],"split_type":[0,0,0,0,0,0,0,0,0,0,0,0,0,0,0,0,0,0,0],"sum_hessian":[4.5152325E1,3.2908863E1,1.2243463E1,1.183277E1,2.1076094E1,8.3229685E0,3.9204943E0,6.083305E0,5.7494655E0,1.218705E1,8.889043E0,5.22E0,3.1029687E0,8.986511E0,3.2005384E0,5.133299E0,3.7557437E0,5.839921E0,3.1465905E0],"tree_param":{"num_deleted":"0","num_feature":"8","num_nodes":"19","size_leaf_vector":"1"}},{"base_weights":[-1.5067047E-3,-6.6508615E-1,1.5067454E-1,-4.68161E-2,-7.3313476E-3,-2.3344109E-2,2.5236535E-1,-9.6552195E-3,5.9207827E-1,1.5460938E-1,-2.7336467E-2,-5.7755475E-4,9.091566E-1,-5.4241954E-3,4.4831406E-2,2.4997337E-2,5.6475516E-2],"categories":[],"categories_nodes":[],"categories_segments":[],"categories_sizes":[],"default_left":[0,0,0,0,0,0,0,0,0,0,0,0,0,0,0,0,0],"id":49,"left_children":[1,3,5,-1,-1,-1,7,9,11,13,-1,-1,15,-1,-1,-1,-1],"loss_changes":[4.7077456E0,1.0856302E0,2.4998157E0,0E0,0E0,0E0,2.9623582E0,1.8257238E0,2.7819118E0,3.1999843E0,0E0,0E0,2.9244566E-1,0E0,0E0,0E0,0E0],"parents":[2147483647,0,0,1,1,2,2,6,6,7,7,8,8,9,9,12,12],"right_children":[2,4,6,-1,-1,-1,8,10,12,14,-1,-1,16,-1,-1,-1,-1],"split_conditions":[1E2,3.3E1,2.65E1,-4.68161E-2,-7.3313476E-3,-2.3344109E-2,5.26E-1,4.07E-1,2.9E1,3.19E-1,-2.7336467E-2,-5.7755475E-4,5E0,-5.4241954E-3,4.4831406E-2,2.4997337E-2,5.6475516E-2],"split_indices":[1,7,5,0,0,0,6,6,7,6,0,0,0,0,0,0,0],"split_type":[0,0,0,0,0,0,0,0,0,0,0,0,0,0,0,0,0],"sum_hessian":[4.462622E1,7.6963367E0,3.6929882E1,4.5237384E0,3.1725984E0,4.7135906E0,3.2216293E1,1.8736448E1,1.3479844E1,1.4893412E1,3.8430371E0,4.974102E0,8.505742E0,1.1625297E1,3.2681153E0,4.1212234E0,4.384519E0],"tree_param":{"num_deleted":"0","num_feature":"8","num_nodes":"17","size_leaf_vector":"1"}},{"base_weights":[-5.9747063E-2,-5.774092E-1,1.671481E-1,-2.9587832E-1,-4.2298324E-2,2.974278E-1,-2.4712978E-2,-3.7803795E-2,1.5049676E-2,5.956818E-2,6.1948484E-1,-2.0796598E-1,2.6169753E-1,8.0954105E-1,5.0803334E-3,7.987045E-4,-1.979052E-2,2.5466163E-2,-3.9738356E-3,1.4924878E-2,6.367681E-2],"categories":[],"categories_nodes":[],"categories_segments":[],"categories_sizes":[],"default_left":[0,0,0,0,0,0,0,0,0,0,0,0,0,0,0,0,0,0,0,0,0],"id":50,"left_children":[1,3,5,7,-1,9,-1,-1,-1,11,13,15,17,19,-1,-1,-1,-1,-1,-1,-1],"loss_changes":[5.352424E0,7.976885E-1,2.8946688E0,2.5087628E0,0E0,2.0516577E0,0E0,0E0,0E0,9.6228385E-1,1.0472612E0,3.3369833E-1,8.858198E-1,1.5764422E0,0E0,0E0,0E0,0E0,0E0,0E0,0E0],"parents":[2147483647,0,0,1,1,2,2,3,3,5,5,9,9,10,10,11,11,12,12,13,13],"right_children":[2,4,6,8,-1,10,-1,-1,-1,12,14,16,18,20,-1,-1,-1,-1,-1,-1,-1],"split_conditions":[2.97E1,4.07E-1,2.05E2,2.58E-1,-4.2298324E-2,9.9E1,-2.4712978E-2,-3.7803795E-2,1.5049676E-2,7.2E1,8.4E1,2.84E-1,8.2E1,3.2E1,5.0803334E-3,7.987045E-4,-1.979052E-2,2.5466163E-2,-3.9738356E-3,1.4924878E-2,6.367681E-2],"split_indices":[5,6,4,6,0,4,0,0,0,2,2,6,2,3,0,0,0,0,0,0,0],"split_type":[0,0,0,0,0,0,0,0,0,0,0,0,0,0,0,0,0,0,0,0,0],"sum_hessian":[4.3748287E1,1.2861012E1,3.0887274E1,7.304928E0,5.5560846E0,2.626423E1,4.6230435E0,3.974102E0,3.3308258E0,1.5788429E1,1.04758005E1,6.7824483E0,9.005981E0,7.2514143E0,3.2243862E0,3.5113401E0,3.271108E0,4.9328465E0,4.073135E0,4.2327695E0,3.0186448E0],"tree_param":{"num_deleted":"0","num_feature":"8","num_nodes":"21","size_leaf_vector":"1"}},{"base_weights":[-5.0737016E-2,-1.74643E-1,3.8902663E-2,-3.7201237E-2,-6.548638E-4,-1.6115403E-1,3.652515E-1,2.4530019E-1,-4.4134215E-1,3.1646635E-2,-8.137327E-3,-1.3556539E-2,3.297238E-2,-3.9305847E-2,1.6533304E-4],"categories":[],"categories_nodes":[],"categories_segments":[],"categories_sizes":[],"default_left":[0,0,0,0,0,0,0,0,0,0,0,0,0,0,0],"id":51,"left_children":[1,3,-1,-1,5,7,9,11,13,-1,-1,-1,-1,-1,-1],"loss_changes":[4.6325593E0,3.854126E0,0E0,0E0,1.8678864E0,2.6257238E0,1.4736834E0,2.2455156E0,2.0633862E0,0E0,0E0,0E0,0E0,0E0,0E0],"parents":[2147483647,0,0,1,1,4,4,5,5,6,6,7,7,8,8],"right_children":[2,4,-1,-1,6,8,10,12,14,-1,-1,-1,-1,-1,-1],"split_conditions":[1.66E2,2.5E1,3.8902663E-2,-3.7201237E-2,6E-1,8E0,3.49E1,1.23E2,3.42E1,3.1646635E-2,-8.137327E-3,-1.3556539E-2,3.297238E-2,-3.9305847E-2,1.6533304E-4],"split_indices":[1,7,0,0,6,3,5,1,5,0,0,0,0,0,0],"split_type":[0,0,0,0,0,0,0,0,0,0,0,0,0,0,0],"sum_hessian":[4.2787975E1,3.7909676E1,4.878301E0,8.106055E0,2.980362E1,2.1105566E1,8.698053E0,8.66305E0,1.2442516E1,5.6399875E0,3.0580661E0,4.0091157E0,4.6539345E0,6.5757875E0,5.866729E0],"tree_param":{"num_deleted":"0","num_feature":"8","num_nodes":"15","size_leaf_vector":"1"}},{"base_weights":[4.6057735E-2,-6.945593E-1,1.9176064E-1,-4.2369407E-2,-1.8161355E-2,-3.4721294E-1,3.090159E-1,-3.5567116E-2,6.224693E-3,4.121875E-1,-1.9516492E-2,1.8621555E-1,7.8153765E-1,2.5578072E-2,-1.3127804E-2,5.0118472E-2,1.6028116E-2],"categories":[],"categories_nodes":[],"categories_segments":[],"categories_sizes":[],"default_left":[0,0,0,0,0,0,0,0,0,0,0,0,0,0,0,0,0],"id":52,"left_children":[1,3,5,-1,-1,7,9,-1,-1,11,-1,13,15,-1,-1,-1,-1],"loss_changes":[4.921809E0,7.255983E-2,2.5002456E0,0E0,0E0,1.3315277E0,2.4429376E0,0E0,0E0,2.1954594E0,0E0,2.8667552E0,7.306361E-1,0E0,0E0,0E0,0E0],"parents":[2147483647,0,0,1,1,2,2,5,5,6,6,9,9,11,11,12,12],"right_children":[2,4,6,-1,-1,8,10,-1,-1,12,-1,14,16,-1,-1,-1,-1],"split_conditions":[2.65E1,1.15E2,1E2,-4.2369407E-2,-1.8161355E-2,3.45E1,2.28E2,-3.5567116E-2,6.224693E-3,6E-1,-1.9516492E-2,1.4E1,1.39E2,2.5578072E-2,-1.3127804E-2,5.0118472E-2,1.6028116E-2],"split_indices":[5,1,1,0,0,5,4,0,0,6,0,4,1,0,0,0,0],"split_type":[0,0,0,0,0,0,0,0,0,0,0,0,0,0,0,0,0],"sum_hessian":[4.3376026E1,6.51137E0,3.6864655E1,3.3901331E0,3.1212373E0,6.23657E0,3.0628086E1,3.2329264E0,3.0036438E0,2.7048363E1,3.579723E0,1.7714584E1,9.333779E0,1.0188393E1,7.526191E0,5.5165873E0,3.817192E0],"tree_param":{"num_deleted":"0","num_feature":"8","num_nodes":"17","size_leaf_vector":"1"}},{"base_weights":[-2.598958E-2,-5.859989E-1,1.4729404E-1,-5.022676E-2,-6.25246E-3,-6.923324E-2,4.9463803E-1,-5.733186E-1,2.2365741E-1,4.2656135E-2,-5.24924E-3,-1.0432517E-2,-4.3560397E-2,5.30665E-2,-9.048816E-2,2.1448413E-2,-1.9295054E-2],"categories":[],"categories_nodes":[],"categories_segments":[],"categories_sizes":[],"default_left":[0,0,0,0,0,0,0,0,0,0,0,0,0,0,0,0,0],"id":53,"left_children":[1,3,5,-1,-1,7,9,11,13,-1,-1,-1,-1,-1,15,-1,-1],"loss_changes":[4.2758107E0,1.8813655E0,2.5740483E0,0E0,0E0,3.329004E0,2.90342E0,7.1419144E-1,3.8937004E0,0E0,0E0,0E0,0E0,0E0,1.9175097E0,0E0,0E0],"parents":[2147483647,0,0,1,1,2,2,5,5,6,6,7,7,8,8,14,14],"right_children":[2,4,6,-1,-1,8,10,12,14,-1,-1,-1,-1,-1,16,-1,-1],"split_conditions":[1.04E2,3.45E-1,4E1,-5.022676E-2,-6.25246E-3,2.96E-1,8E0,4E0,4.11E-1,4.2656135E-2,-5.24924E-3,-1.0432517E-2,-4.3560397E-2,5.30665E-2,7.6E1,2.1448413E-2,-1.9295054E-2],"split_indices":[1,6,7,0,0,6,0,0,6,0,0,0,0,0,4,0,0],"split_type":[0,0,0,0,0,0,0,0,0,0,0,0,0,0,0,0,0],"sum_hessian":[4.2172688E1,9.402956E0,3.276973E1,4.3101354E0,5.0928206E0,2.0679329E1,1.2090402E1,7.2478395E0,1.3431489E1,7.3020835E0,4.7883186E0,4.0231876E0,3.2246516E0,3.0145893E0,1.04169E1,3.6125197E0,6.8043804E0],"tree_param":{"num_deleted":"0","num_feature":"8","num_nodes":"17","size_leaf_vector":"1"}},{"base_weights":[-5.695432E-2,-3.2501706E-1,2.925584E-1,-5.875744E-1,-1.13928206E-1,4.6826714E-1,-1.4331251E-2,-4.4534907E-2,-1.3032324E-2,-3.8142258E-1,3.4665257E-2,-7.375599E-3,7.91187E-1,2.4548878E-3,-3.6777236E-2,5.107397E-2,2.2767302E-2],"categories":[],"categories_nodes":[],"categories_segments":[],"categories_sizes":[],"default_left":[0,0,0,0,0,0,0,0,0,0,0,0,0,0,0,0,0],"id":54,"left_children":[1,3,5,7,9,11,-1,-1,-1,13,-1,-1,15,-1,-1,-1,-1],"loss_changes":[4.1495566E0,1.3166804E0,2.099347E0,8.4658813E-1,3.5205255E0,3.1382093E0,0E0,0E0,0E0,1.8612114E0,0E0,0E0,3.179574E-1,0E0,0E0,0E0,0E0],"parents":[2147483647,0,0,1,1,2,2,3,3,4,4,5,5,9,9,12,12],"right_children":[2,4,6,8,10,12,-1,-1,-1,14,-1,-1,16,-1,-1,-1,-1],"split_conditions":[1.28E2,2.9E1,3.93E1,3.23E1,1.14E2,2.98E1,-1.4331251E-2,-4.4534907E-2,-1.3032324E-2,3.09E1,3.4665257E-2,-7.375599E-3,3.31E1,2.4548878E-3,-3.6777236E-2,5.107397E-2,2.2767302E-2],"split_indices":[1,7,5,5,4,5,0,0,0,5,0,0,5,0,0,0,0],"split_type":[0,0,0,0,0,0,0,0,0,0,0,0,0,0,0,0,0],"sum_hessian":[4.2274765E1,2.3964787E1,1.8309978E1,9.885467E0,1.407932E1,1.4195077E1,4.114902E0,4.2346764E0,5.65079E0,1.0971251E1,3.1080692E0,5.0700808E0,9.124996E0,5.3402495E0,5.631001E0,4.2020297E0,4.9229665E0],"tree_param":{"num_deleted":"0","num_feature":"8","num_nodes":"17","size_leaf_vector":"1"}},{"base_weights":[-3.46194E-3,-2.3293409E-1,4.3665466E-1,-3.7589836E-1,2.031477E-2,2.0903108E-1,4.116141E-2,-4.4992868E-2,-2.2389296E-1,3.3552982E-2,-7.567055E-3,1.0021786E-2,-4.1947782E-1,-4.0275108E-2,-1.9210868E-3],"categories":[],"categories_nodes":[],"categories_segments":[],"categories_sizes":[],"default_left":[0,0,0,0,0,0,0,0,0,0,0,0,0,0,0],"id":55,"left_children":[1,3,5,7,-1,9,-1,-1,11,-1,-1,-1,13,-1,-1],"loss_changes":[4.3835173E0,2.758994E0,1.1370296E0,1.6961355E0,0E0,1.883817E0,0E0,0E0,1.7272735E0,0E0,0E0,0E0,2.0101583E0,0E0,0E0],"parents":[2147483647,0,0,1,1,2,2,3,3,5,5,8,8,12,12],"right_children":[2,4,6,8,-1,10,-1,-1,12,-1,-1,-1,14,-1,-1],"split_conditions":[4E1,4.09E1,5.57E-1,2.65E1,2.031477E-2,7.4E1,4.116141E-2,-4.4992868E-2,6.8E1,3.3552982E-2,-7.567055E-3,1.0021786E-2,3.4E-1,-4.0275108E-2,-1.9210868E-3],"split_indices":[7,5,6,5,0,2,0,0,2,0,0,0,6,0,0],"split_type":[0,0,0,0,0,0,0,0,0,0,0,0,0,0,0],"sum_hessian":[4.1396427E1,2.7519035E1,1.3877391E1,2.2825943E1,4.6930923E0,9.704111E0,4.1732802E0,4.0265656E0,1.8799377E1,3.8745153E0,5.8295956E0,5.923444E0,1.2875935E1,5.842943E0,7.0329914E0],"tree_param":{"num_deleted":"0","num_feature":"8","num_nodes":"15","size_leaf_vector":"1"}},{"base_weights":[1.7922293E-2,-5.253826E-1,2.619001E-1,-2.843592E-1,-4.7347073E-2,-1.8409708E-1,5.4010004E-1,-3.612359E-2,6.7670117E-3,-3.4461617E-2,7.743294E-2,-1.0000637E-2,7.162459E-1,2.1505645E-2,-1.0088838E-2,1.7360335E-2,4.4842493E-2],"categories":[],"categories_nodes":[],"categories_segments":[],"categories_sizes":[],"default_left":[0,0,0,0,0,0,0,0,0,0,0,0,0,0,0,0,0],"id":56,"left_children":[1,3,5,7,-1,9,11,-1,-1,-1,13,-1,15,-1,-1,-1,-1],"loss_changes":[5.523518E0,1.0439188E0,3.6613407E0,1.8725724E0,0E0,1.6087725E0,2.4812322E0,0E0,0E0,0E0,9.39196E-1,0E0,6.686492E-1,0E0,0E0,0E0,0E0],"parents":[2147483647,0,0,1,1,2,2,3,3,5,5,6,6,10,10,12,12],"right_children":[2,4,6,8,-1,10,12,-1,-1,-1,14,-1,16,-1,-1,-1,-1],"split_conditions":[2.97E1,2.77E1,2.96E-1,2.48E1,-4.7347073E-2,3.33E1,2.5E1,-3.612359E-2,6.7670117E-3,-3.4461617E-2,3.51E1,-1.0000637E-2,3.2E1,2.1505645E-2,-1.0088838E-2,1.7360335E-2,4.4842493E-2],"split_indices":[5,5,6,5,0,5,7,0,0,0,5,0,7,0,0,0,0],"split_type":[0,0,0,0,0,0,0,0,0,0,0,0,0,0,0,0,0],"sum_hessian":[3.9631794E1,1.1924399E1,2.7707396E1,8.65214E0,3.27226E0,1.0773722E1,1.6933674E1,3.8802507E0,4.7718887E0,3.117331E0,7.6563907E0,3.2293606E0,1.3704312E1,3.1442757E0,4.512115E0,5.4632955E0,8.241017E0],"tree_param":{"num_deleted":"0","num_feature":"8","num_nodes":"17","size_leaf_vector":"1"}},{"base_weights":[-2.1137314E-2,-7.431386E-1,1.5540904E-1,-4.719996E-2,-1.4916967E-2,5.7446938E-2,4.2212393E-2,-3.6054578E-1,2.2459355E-1,2.5622937E-4,-3.1516593E-2,4.185329E-1,-1.810789E-2,4.4611752E-2,8.926264E-3],"categories":[],"categories_nodes":[],"categories_segments":[],"categories_sizes":[],"default_left":[0,0,0,0,0,0,0,0,0,0,0,0,0,0,0],"id":57,"left_children":[1,3,5,-1,-1,7,-1,9,11,-1,-1,13,-1,-1,-1],"loss_changes":[5.391927E0,4.6046162E-1,2.2517934E0,0E0,0E0,2.241042E0,0E0,9.12357E-1,2.734909E0,0E0,0E0,1.8332953E0,0E0,0E0,0E0],"parents":[2147483647,0,0,1,1,2,2,5,5,7,7,8,8,11,11],"right_children":[2,4,6,-1,-1,8,-1,10,12,-1,-1,14,-1,-1,-1],"split_conditions":[1E2,3.38E1,9E1,-4.719996E-2,-1.4916967E-2,2.97E1,4.2212393E-2,8E0,3.81E1,2.5622937E-4,-3.1516593E-2,6.8E1,-1.810789E-2,4.4611752E-2,8.926264E-3],"split_indices":[1,5,2,0,0,5,0,3,5,0,0,2,0,0,0],"split_type":[0,0,0,0,0,0,0,0,0,0,0,0,0,0,0],"sum_hessian":[4.0394627E1,7.3061585E0,3.3088467E1,4.260098E0,3.0460603E0,2.9917234E1,3.1712344E0,8.215419E0,2.1701815E1,3.904386E0,4.311033E0,1.652612E1,5.175696E0,4.643578E0,1.1882541E1],"tree_param":{"num_deleted":"0","num_feature":"8","num_nodes":"15","size_leaf_vector":"1"}},{"base_weights":[4.0502008E-2,-4.2822874E-1,1.8570712E-1,-3.772911E-2,9.344043E-3,2.9690257E-1,-2.890482E-2,-5.9449305E-3,5.659645E-1,1.9040135E-1,-2.9576374E-2,6.5851333E-3,6.824427E-1,-3.113225E-3,2.3346582E-2,4.0738136E-2,1.22203855E-2],"categories":[],"categories_nodes":[],"categories_segments":[],"categories_sizes":[],"default_left":[0,0,0,0,0,0,0,0,0,0,0,0,0,0,0,0,0],"id":58,"left_children":[1,3,5,-1,-1,7,-1,9,11,13,-1,-1,15,-1,-1,-1,-1],"loss_changes":[3.0243611E0,2.255999E0,3.0364735E0,0E0,0E0,2.4564824E0,0E0,1.8548725E0,7.1701765E-1,8.7481165E-1,0E0,0E0,5.1606226E-1,0E0,0E0,0E0,0E0],"parents":[2147483647,0,0,1,1,2,2,5,5,7,7,8,8,9,9,12,12],"right_children":[2,4,6,-1,-1,8,-1,10,12,14,-1,-1,16,-1,-1,-1,-1],"split_conditions":[1.05E2,3.7E1,9E0,-3.772911E-2,9.344043E-3,3.1E1,-2.890482E-2,8.2E1,2.97E1,3.33E1,-2.9576374E-2,6.5851333E-3,3.66E1,-3.113225E-3,2.3346582E-2,4.0738136E-2,1.22203855E-2],"split_indices":[1,7,0,0,0,7,0,2,5,5,0,0,5,0,0,0,0],"split_type":[0,0,0,0,0,0,0,0,0,0,0,0,0,0,0,0,0],"sum_hessian":[4.22669E1,9.535762E0,3.2731136E1,6.0820932E0,3.4536688E0,2.9105244E1,3.6258926E0,1.4152992E1,1.49522505E1,1.1104497E1,3.048495E0,3.6129432E0,1.1339308E1,6.20752E0,4.8969774E0,8.0481205E0,3.291187E0],"tree_param":{"num_deleted":"0","num_feature":"8","num_nodes":"17","size_leaf_vector":"1"}},{"base_weights":[-2.530393E-3,-1.1738936E-1,3.884825E-2,-3.1480578E-1,3.502681E-1,-5.5618882E-2,-6.180772E-1,-1.2463348E-2,6.655222E-1,-2.2518398E-1,2.2562386E-2,-8.552187E-3,-8.215927E-1,4.498357E-2,1.1955073E-2,-2.0490156E-2,2.3313074E-3,-5.1875778E-2,-1.7656144E-2],"categories":[],"categories_nodes":[],"categories_segments":[],"categories_sizes":[],"default_left":[0,0,0,0,0,0,0,0,0,0,0,0,0,0,0,0,0,0,0],"id":59,"left_children":[1,3,-1,5,7,9,11,-1,13,15,-1,-1,17,-1,-1,-1,-1,-1,-1],"loss_changes":[3.740201E0,3.4699874E0,0E0,2.018403E0,2.2970045E0,1.4062927E0,9.4533396E-1,0E0,5.4992247E-1,6.233858E-1,0E0,0E0,4.3665075E-1,0E0,0E0,0E0,0E0,0E0,0E0],"parents":[2147483647,0,0,1,1,3,3,4,4,5,5,6,6,8,8,9,9,12,12],"right_children":[2,4,-1,6,8,10,12,-1,14,16,-1,-1,18,-1,-1,-1,-1,-1,-1],"split_conditions":[1.66E2,6E-1,3.884825E-2,1.4E1,2.9E1,1.38E2,2E0,-1.2463348E-2,7.32E-1,6E0,2.2562386E-2,-8.552187E-3,3.1E1,4.498357E-2,1.1955073E-2,-2.0490156E-2,2.3313074E-3,-5.1875778E-2,-1.7656144E-2],"split_indices":[1,6,0,4,7,1,0,0,6,0,0,0,3,0,0,0,0,0,0],"split_type":[0,0,0,0,0,0,0,0,0,0,0,0,0,0,0,0,0,0,0],"sum_hessian":[3.975629E1,3.5390842E1,4.3654513E0,2.5115469E1,1.02753725E1,1.4180063E1,1.0935406E1,3.6132271E0,6.6621456E0,1.1041888E1,3.1381748E0,3.9967527E0,6.9386525E0,3.5842185E0,3.0779269E0,6.2732697E0,4.7686186E0,3.918078E0,3.0205746E0],"tree_param":{"num_deleted":"0","num_feature":"8","num_nodes":"19","size_leaf_vector":"1"}},{"base_weights":[1.05777964E-1,-3.8031286E-1,2.5613213E-1,-3.288896E-2,-3.316919E-3,6.826152E-1,9.848952E-2,1.0082792E-2,5.4415595E-2,-4.034089E-1,3.0519557E-1,8.031732E-3,-3.978047E-2,5.022151E-1,-1.7044889E-2,9.095246E-4,3.5257973E-2],"categories":[],"categories_nodes":[],"categories_segments":[],"categories_sizes":[],"default_left":[0,0,0,0,0,0,0,0,0,0,0,0,0,0,0,0,0],"id":60,"left_children":[1,3,5,-1,-1,7,9,-1,-1,11,13,-1,-1,15,-1,-1,-1],"loss_changes":[3.236023E0,8.752439E-1,2.1780877E0,0E0,0E0,1.5062866E0,2.774045E0,0E0,0E0,1.8719975E0,2.547474E0,0E0,0E0,1.4321132E0,0E0,0E0,0E0],"parents":[2147483647,0,0,1,1,2,2,5,5,6,6,9,9,10,10,13,13],"right_children":[2,4,6,-1,-1,8,10,-1,-1,12,14,-1,-1,16,-1,-1,-1],"split_conditions":[1.05E2,2.4E1,6.8E1,-3.288896E-2,-3.316919E-3,3.2E1,1.24E2,1.0082792E-2,5.4415595E-2,1.17E2,2.05E2,8.031732E-3,-3.978047E-2,2.7E-1,-1.7044889E-2,9.095246E-4,3.5257973E-2],"split_indices":[1,3,2,0,0,5,1,0,0,1,4,0,0,6,0,0,0],"split_type":[0,0,0,0,0,0,0,0,0,0,0,0,0,0,0,0,0],"sum_hessian":[4.194423E1,9.547613E0,3.2396618E1,4.4871817E0,5.0604315E0,7.8443975E0,2.455222E1,4.27426E0,3.5701375E0,6.884503E0,1.7667717E1,3.0658193E0,3.8186836E0,1.3709757E1,3.95796E0,4.3720345E0,9.337722E0],"tree_param":{"num_deleted":"0","num_feature":"8","num_nodes":"17","size_leaf_vector":"1"}},{"base_weights":[-3.9448228E-2,-2.6668284E-2,6.087998E-2,1.6401388E-1,-3.6192024E-1,3.4452465E-1,-1.3054842E-1,-3.6302906E-2,3.982389E-3,9.390751E-2,5.248371E-1,-3.695899E-1,1.3632739E-2,2.8459469E-2,-2.3545112E-2,6.201654E-3,3.58462E-2,-3.4829233E-2,4.787325E-3],"categories":[],"categories_nodes":[],"categories_segments":[],"categories_sizes":[],"default_left":[0,0,0,0,0,0,0,0,0,0,0,0,0,0,0,0,0,0,0],"id":61,"left_children":[1,-1,3,5,7,9,11,-1,-1,13,15,17,-1,-1,-1,-1,-1,-1,-1],"loss_changes":[2.0720646E0,0E0,1.5902308E0,1.5822401E0,1.2149413E0,7.7319884E-1,1.2294524E0,0E0,0E0,2.639368E0,7.0924044E-1,1.249973E0,0E0,0E0,0E0,0E0,0E0,0E0,0E0],"parents":[2147483647,0,0,2,2,3,3,4,4,5,5,6,6,9,9,10,10,11,11],"right_children":[2,-1,4,6,8,10,12,-1,-1,14,16,18,-1,-1,-1,-1,-1,-1,-1],"split_conditions":[2.65E1,-2.6668284E-2,8.6E1,3.51E1,4.22E-1,7.2E1,4.09E1,-3.6302906E-2,3.982389E-3,6.8E1,2.86E-1,5E0,1.3632739E-2,2.8459469E-2,-2.3545112E-2,6.201654E-3,3.58462E-2,-3.4829233E-2,4.787325E-3],"split_indices":[5,0,2,5,6,2,5,0,0,2,6,0,0,0,0,0,0,0,0],"split_type":[0,0,0,0,0,0,0,0,0,0,0,0,0,0,0,0,0,0,0],"sum_hessian":[4.015913E1,6.0514636E0,3.4107666E1,2.7911318E1,6.1963468E0,1.7200848E1,1.0710471E1,3.0428202E0,3.1535263E0,7.8336377E0,9.367209E0,6.776404E0,3.9340668E0,4.249756E0,3.5838819E0,3.568006E0,5.799204E0,3.6879265E0,3.0884774E0],"tree_param":{"num_deleted":"0","num_feature":"8","num_nodes":"19","size_leaf_vector":"1"}},{"base_weights":[4.4270754E-3,-6.177637E-1,1.289072E-1,-6.3190334E-3,-4.7936846E-2,-1.6313457E-1,3.2358578E-1,1.4555417E-1,-4.319264E-1,-2.2699034E-2,4.8918173E-1,-4.073096E-3,1.6294878E-2,-3.1192703E-2,-1.01324385E-2,-3.1058365E-3,6.600038E-1,1.3444749E-2,4.4702128E-2],"categories":[],"categories_nodes":[],"categories_segments":[],"categories_sizes":[],"default_left":[0,0,0,0,0,0,0,0,0,0,0,0,0,0,0,0,0,0,0],"id":62,"left_children":[1,3,5,-1,-1,7,9,11,13,-1,15,-1,-1,-1,-1,-1,17,-1,-1],"loss_changes":[3.3217456E0,1.0770319E0,2.0830054E0,0E0,0E0,1.3031313E0,3.0241115E0,3.420174E-1,2.362765E-1,0E0,1.7758636E0,0E0,0E0,0E0,0E0,0E0,1.0548239E0,0E0,0E0],"parents":[2147483647,0,0,1,1,2,2,5,5,6,6,7,7,8,8,10,10,16,16],"right_children":[2,4,6,-1,-1,8,10,12,14,-1,16,-1,-1,-1,-1,-1,18,-1,-1],"split_conditions":[2.65E1,3.14E-1,2.96E-1,-6.3190334E-3,-4.7936846E-2,8E0,2.5E1,3.28E1,3.1E1,-2.2699034E-2,2E1,-4.073096E-3,1.6294878E-2,-3.1192703E-2,-1.01324385E-2,-3.1058365E-3,3.3E1,1.3444749E-2,4.4702128E-2],"split_indices":[5,6,6,0,0,3,7,5,3,0,3,0,0,0,0,0,7,0,0],"split_type":[0,0,0,0,0,0,0,0,0,0,0,0,0,0,0,0,0,0,0],"sum_hessian":[4.0860493E1,6.151352E0,3.470914E1,3.0813727E0,3.0699792E0,1.3947783E1,2.0761356E1,6.7054863E0,7.2422976E0,3.3394163E0,1.742194E1,3.2113442E0,3.4941418E0,3.0054715E0,4.236826E0,4.2718034E0,1.3150137E1,5.727569E0,7.4225683E0],"tree_param":{"num_deleted":"0","num_feature":"8","num_nodes":"19","size_leaf_vector":"1"}},{"base_weights":[8.6196005E-2,-3.129494E-2,2.3476559E-1,-2.684E-1,4.3316773E-1,-3.5469595E-2,1.751749E-2,1.550084E-1,7.2684187E-1,2.8816015E-2,-1.5644771E-1,5.0592877E-2,-2.1421115E-3,7.745452E-3,-1.840606E-2],"categories":[],"categories_nodes":[],"categories_segments":[],"categories_sizes":[],"default_left":[0,0,0,0,0,0,0,0,0,0,0,0,0,0,0],"id":63,"left_children":[1,-1,3,5,7,-1,-1,9,11,-1,13,-1,-1,-1,-1],"loss_changes":[4.2556143E0,0E0,3.3965735E0,2.9526052E0,1.8437071E0,0E0,0E0,1.8709012E0,2.5395136E0,0E0,6.230947E-1,0E0,0E0,0E0,0E0],"parents":[2147483647,0,0,2,2,3,3,4,4,7,7,8,8,10,10],"right_children":[2,-1,4,6,8,-1,-1,10,12,-1,14,-1,-1,-1,-1],"split_conditions":[1.01E2,-3.129494E-2,2.98E1,6E0,3.5E1,-3.5469595E-2,1.751749E-2,7.6E1,3.77E1,2.8816015E-2,2E0,5.0592877E-2,-2.1421115E-3,7.745452E-3,-1.840606E-2],"split_indices":[1,0,5,0,7,0,0,4,5,0,0,0,0,0,0],"split_type":[0,0,0,0,0,0,0,0,0,0,0,0,0,0,0],"sum_hessian":[3.7835964E1,5.9767137E0,3.1859253E1,8.909967E0,2.2949284E1,5.116718E0,3.7932503E0,1.2570606E1,1.0378677E1,4.9815607E0,7.589046E0,7.3443933E0,3.0342846E0,3.1798625E0,4.4091835E0],"tree_param":{"num_deleted":"0","num_feature":"8","num_nodes":"15","size_leaf_vector":"1"}},{"base_weights":[-1.3526901E-2,-3.122961E-2,1.05994746E-1,-1.582358E-2,2.0658863E-1,3.1199375E-1,-9.510442E-3,4.6266374E-1,-1.1129157E-2,9.403522E-3,4.0143106E-2],"categories":[],"categories_nodes":[],"categories_segments":[],"categories_sizes":[],"default_left":[0,0,0,0,0,0,0,0,0,0,0],"id":64,"left_children":[1,-1,3,-1,5,7,-1,9,-1,-1,-1],"loss_changes":[3.003898E0,0E0,1.531434E0,0E0,1.2500023E0,1.9451764E0,0E0,1.5461497E0,0E0,0E0,0E0],"parents":[2147483647,0,0,2,2,4,4,5,5,7,7],"right_children":[2,-1,4,-1,6,8,-1,10,-1,-1,-1],"split_conditions":[9.7E1,-3.122961E-2,2.5E1,-1.582358E-2,3.81E1,8E0,-9.510442E-3,3.8E1,-1.1129157E-2,9.403522E-3,4.0143106E-2],"split_indices":[1,0,7,0,5,0,0,7,0,0,0],"split_type":[0,0,0,0,0,0,0,0,0,0,0],"sum_hessian":[3.922281E1,5.7254024E0,3.3497406E1,6.029433E0,2.7467974E1,2.1871704E1,5.59627E0,1.7167564E1,4.704139E0,1.0359032E1,6.8085337E0],"tree_param":{"num_deleted":"0","num_feature":"8","num_nodes":"11","size_leaf_vector":"1"}},{"base_weights":[-1.20843155E-2,-8.446348E-2,2.553199E-2,-2.6059195E-1,1.4073132E-1,-4.4317335E-1,4.7299642E-2,3.7768197E-1,-1.4839376E-2,-6.098119E-3,-6.175668E-1,1.8471114E-2,-1.4600639E-2,5.6332857E-3,3.2588895E-2,-3.9664187E-2,-1.4536348E-2],"categories":[],"categories_nodes":[],"categories_segments":[],"categories_sizes":[],"default_left":[0,0,0,0,0,0,0,0,0,0,0,0,0,0,0,0,0],"id":65,"left_children":[1,3,-1,5,7,9,11,13,-1,-1,15,-1,-1,-1,-1,-1,-1],"loss_changes":[1.528996E0,1.4389452E0,0E0,1.1558999E0,1.787956E0,6.4002156E-1,1.028084E0,7.2024834E-1,0E0,0E0,2.3056936E-1,0E0,0E0,0E0,0E0,0E0,0E0],"parents":[2147483647,0,0,1,1,3,3,4,4,5,5,6,6,7,7,10,10],"right_children":[2,4,-1,6,8,10,12,14,-1,-1,16,-1,-1,-1,-1,-1,-1],"split_conditions":[4.1E1,5E0,2.553199E-2,1.08E2,3.43E1,2.84E-1,1.7E2,2E1,-1.4839376E-2,-6.098119E-3,2.3E1,1.8471114E-2,-1.4600639E-2,5.6332857E-3,3.2588895E-2,-3.9664187E-2,-1.4536348E-2],"split_indices":[3,0,0,4,5,6,4,3,0,0,3,0,0,0,0,0,0],"split_type":[0,0,0,0,0,0,0,0,0,0,0,0,0,0,0,0,0],"sum_hessian":[3.8272945E1,3.435446E1,3.9184847E0,1.918914E1,1.5165321E1,1.1770054E1,7.4190865E0,9.926247E0,5.239074E0,4.73962E0,7.0304337E0,3.7604272E0,3.6586595E0,5.764117E0,4.16213E0,3.6441305E0,3.3863034E0],"tree_param":{"num_deleted":"0","num_feature":"8","num_nodes":"17","size_leaf_vector":"1"}},{"base_weights":[2.3521384E-4,-1.0755348E-1,2.9156512E-2,2.5767246E-2,-2.021893E-1,-5.8836275E-1,3.0015593E-2,7.0400303E-4,-4.1308563E-2,2.9827142E-1,-3.2435632E-1,-3.0244542E-3,3.536131E-2,-4.175307E-2,4.1722977E-3],"categories":[],"categories_nodes":[],"categories_segments":[],"categories_sizes":[],"default_left":[0,0,0,0,0,0,0,0,0,0,0,0,0,0,0],"id":66,"left_children":[1,3,-1,-1,5,7,9,-1,-1,11,13,-1,-1,-1,-1],"loss_changes":[2.567859E0,2.137559E0,0E0,0E0,2.7672238E0,1.6681552E0,2.0075097E0,0E0,0E0,1.7976644E0,1.9730482E0,0E0,0E0,0E0,0E0],"parents":[2147483647,0,0,1,1,4,4,5,5,6,6,9,9,10,10],"right_children":[2,4,-1,-1,6,8,10,-1,-1,12,14,-1,-1,-1,-1],"split_conditions":[1.6E2,5.5E1,2.9156512E-2,2.5767246E-2,2.9E1,1E0,3.74E-1,7.0400303E-4,-4.1308563E-2,4.3E1,5.88E-1,-3.0244542E-3,3.536131E-2,-4.175307E-2,4.1722977E-3],"split_indices":[1,2,0,0,7,0,6,0,0,7,6,0,0,0,0],"split_type":[0,0,0,0,0,0,0,0,0,0,0,0,0,0,0],"sum_hessian":[3.8872055E1,3.349387E1,5.378188E0,3.8311906E0,2.9662678E1,1.0562565E1,1.9100113E1,3.2556882E0,7.3068767E0,1.0961035E1,8.139079E0,6.2927403E0,4.668294E0,3.1484513E0,4.9906273E0],"tree_param":{"num_deleted":"0","num_feature":"8","num_nodes":"15","size_leaf_vector":"1"}},{"base_weights":[-7.978794E-2,-2.8192607E-1,2.6665038E-1,-3.8140643E-2,-3.2500487E-2,4.4829294E-1,-1.1909917E-2,2.840665E-2,-2.213258E-1,5.9718484E-1,2.503146E-3,-4.3368545E-1,1.9773528E-2,3.8249118E-3,5.0207436E-2,-4.0863995E-3,-3.4950532E-2],"categories":[],"categories_nodes":[],"categories_segments":[],"categories_sizes":[],"default_left":[0,0,0,0,0,0,0,0,0,0,0,0,0,0,0,0,0],"id":67,"left_children":[1,3,5,-1,7,9,-1,-1,11,13,-1,15,-1,-1,-1,-1,-1],"loss_changes":[2.87495E0,3.0619683E0,1.504859E0,0E0,2.16607E0,6.5546465E-1,0E0,0E0,2.058539E0,1.6865723E0,0E0,9.881916E-1,0E0,0E0,0E0,0E0,0E0],"parents":[2147483647,0,0,1,1,2,2,4,4,5,5,8,8,9,9,11,11],"right_children":[2,4,6,-1,8,10,-1,-1,12,14,-1,16,-1,-1,-1,-1,-1],"split_conditions":[1.34E2,2.97E1,2.28E2,-3.8140643E-2,3.24E1,7E0,-1.1909917E-2,2.840665E-2,6.55E-1,1.47E2,2.503146E-3,2.62E-1,1.9773528E-2,3.8249118E-3,5.0207436E-2,-4.0863995E-3,-3.4950532E-2],"split_indices":[1,5,4,0,5,0,0,0,6,1,0,6,0,0,0,0,0],"split_type":[0,0,0,0,0,0,0,0,0,0,0,0,0,0,0,0,0],"sum_hessian":[3.8980556E1,2.4734695E1,1.4245863E1,7.744739E0,1.6989956E1,1.0558854E1,3.687009E0,3.5832474E0,1.3406709E1,7.321765E0,3.237089E0,1.0193884E1,3.2128248E0,3.7332556E0,3.5885096E0,4.943841E0,5.250043E0],